{"loss": 0.06755410134792328, "_runtime": 27, "_timestamp": 1641745831, "_step": 19, "examples": {"_type": "images/separated", "width": 28, "height": 28, "format": "png", "count": 5}, "gradients/linear.3.bias": {"_type": "histogram", "values": [1.0, 0.0, 0.0, 0.0, 1.0, 0.0, 0.0, 1.0, 0.0, 0.0, 0.0, 0.0, 0.0, 0.0, 0.0, 1.0, 0.0, 0.0, 0.0, 0.0, 0.0, 1.0, 0.0, 1.0, 1.0, 0.0, 0.0, 1.0, 0.0, 0.0, 0.0, 1.0, 0.0, 0.0, 0.0, 0.0, 0.0, 0.0, 0.0, 0.0, 0.0, 0.0, 0.0, 0.0, 0.0, 0.0, 0.0, 0.0, 0.0, 0.0, 0.0, 0.0, 0.0, 0.0, 0.0, 0.0, 0.0, 0.0, 0.0, 0.0, 0.0, 0.0, 0.0, 1.0], "bins": [-0.01764775812625885, -0.016845399513840675, -0.0160430409014225, -0.015240680426359177, -0.014438321813941002, -0.013635963201522827, -0.012833603657782078, -0.012031244114041328, -0.011228885501623154, -0.010426526889204979, -0.00962416734546423, -0.00882180780172348, -0.008019449189305305, -0.007217090111225843, -0.006414731033146381, -0.005612371955066919, -0.004810012876987457, -0.004007653798907995, -0.003205294720828533, -0.002402935642749071, -0.001600576564669609, -0.000798217486590147, 4.141591489315033e-06, 0.0008065006695687771, 0.0016088597476482391, 0.002411218825727701, 0.0032135779038071632, 0.004015936981886625, 0.004818296059966087, 0.005620655138045549, 0.0064230142161250114, 0.0072253732942044735, 0.008027732372283936, 0.00883009098470211, 0.00963245052844286, 0.010434810072183609, 0.011237168684601784, 0.012039527297019958, 0.012841886840760708, 0.013644246384501457, 0.014446604996919632, 0.015248963609337807, 0.01605132222175598, 0.016853682696819305, 0.01765604130923748, 0.018458399921655655, 0.01926076039671898, 0.020063119009137154, 0.02086547762155533, 0.021667836233973503, 0.022470194846391678, 0.023272555321455002, 0.024074913933873177, 0.02487727254629135, 0.025679633021354675, 0.02648199163377285, 0.027284350246191025, 0.0280867088586092, 0.028889067471027374, 0.029691427946090698, 0.030493786558508873, 0.03129614517092705, 0.03209850564599037, 0.0329008623957634, 0.03370322287082672]}, "gradients/linear.3.weight": {"_type": "histogram", "values": [1.0, 0.0, 0.0, 1.0, 0.0, 0.0, 0.0, 0.0, 0.0, 0.0, 0.0, 1.0, 1.0, 1.0, 3.0, 0.0, 5.0, 5.0, 4.0, 2.0, 2.0, 5.0, 9.0, 4.0, 11.0, 14.0, 20.0, 28.0, 50.0, 347.0, 47.0, 22.0, 13.0, 6.0, 10.0, 4.0, 3.0, 3.0, 1.0, 2.0, 3.0, 0.0, 1.0, 3.0, 0.0, 0.0, 0.0, 1.0, 1.0, 0.0, 1.0, 1.0, 0.0, 0.0, 0.0, 1.0, 0.0, 0.0, 0.0, 1.0, 1.0, 0.0, 0.0, 1.0], "bins": [-0.19081342220306396, -0.18424628674983978, -0.1776791363954544, -0.17111200094223022, -0.16454486548900604, -0.15797771513462067, -0.15141057968139648, -0.1448434293270111, -0.13827629387378693, -0.13170915842056274, -0.12514200806617737, -0.11857487261295319, -0.11200772970914841, -0.10544058680534363, -0.09887345135211945, -0.09230630844831467, -0.08573917299509048, -0.0791720300912857, -0.07260489463806152, -0.06603775173425674, -0.059470608830451965, -0.052903469651937485, -0.046336330473423004, -0.039769187569618225, -0.03320205211639404, -0.026634911075234413, -0.020067770034074783, -0.013500630855560303, -0.006933489814400673, -0.0003663487732410431, 0.0062007904052734375, 0.012767933309078217, 0.019335076212882996, 0.025902217254042625, 0.032469358295202255, 0.039036497473716736, 0.045603640377521515, 0.052170779556035995, 0.058737918734550476, 0.06530506163835526, 0.07187220454216003, 0.07843934744596481, 0.085006482899189, 0.09157362580299377, 0.09814076870679855, 0.10470791161060333, 0.11127504706382751, 0.1178421899676323, 0.12440932542085648, 0.13097646832466125, 0.13754360377788544, 0.14411073923110962, 0.150677889585495, 0.15724502503871918, 0.16381216049194336, 0.17037931084632874, 0.17694644629955292, 0.1835135817527771, 0.19008073210716248, 0.19664786756038666, 0.20321500301361084, 0.20978215336799622, 0.2163492888212204, 0.22291642427444458, 0.22948357462882996]}, "gradients/linear.0.bias": {"_type": "histogram", "values": [1.0, 0.0, 0.0, 0.0, 3.0, 0.0, 0.0, 0.0, 0.0, 0.0, 0.0, 1.0, 0.0, 0.0, 0.0, 0.0, 1.0, 0.0, 0.0, 1.0, 0.0, 1.0, 0.0, 0.0, 1.0, 1.0, 2.0, 2.0, 1.0, 2.0, 2.0, 1.0, 23.0, 1.0, 0.0, 3.0, 0.0, 1.0, 0.0, 0.0, 2.0, 1.0, 2.0, 0.0, 3.0, 1.0, 0.0, 1.0, 0.0, 0.0, 2.0, 0.0, 0.0, 1.0, 0.0, 0.0, 0.0, 1.0, 0.0, 0.0, 0.0, 1.0, 0.0, 1.0], "bins": [-0.010429809801280499, -0.010113193653523922, -0.009796577505767345, -0.009479961358010769, -0.009163345210254192, -0.008846729062497616, -0.00853011291474104, -0.008213497698307037, -0.00789688155055046, -0.007580265402793884, -0.007263649255037308, -0.006947033107280731, -0.006630416959524155, -0.006313800811767578, -0.005997185129672289, -0.005680568981915712, -0.0053639523684978485, -0.005047336220741272, -0.0047307200729846954, -0.004414103925228119, -0.004097487777471542, -0.0037808718625456095, -0.0034642559476196766, -0.0031476397998631, -0.0028310236521065235, -0.002514407504349947, -0.0021977913565933704, -0.0018811754416674376, -0.001564559293910861, -0.0012479431461542845, -0.0009313271148130298, -0.0006147110834717751, -0.0002980940043926239, 1.8522085156291723e-05, 0.00033513817470520735, 0.000651754264254123, 0.0009683703538030386, 0.0012849865015596151, 0.0016016025329008698, 0.0019182185642421246, 0.002234834711998701, 0.0025514508597552776, 0.002868067007511854, 0.003184682922437787, 0.0035012990701943636, 0.00381791521795094, 0.004134531132876873, 0.0044511472806334496, 0.004767763428390026, 0.005084379576146603, 0.005400995723903179, 0.005717611871659756, 0.006034228019416332, 0.006350844167172909, 0.006667459849268198, 0.0069840759970247746, 0.007300692144781351, 0.007617308292537928, 0.007933923974633217, 0.008250540122389793, 0.00856715627014637, 0.008883772417902946, 0.009200388565659523, 0.0095170047134161, 0.009833620861172676]}, "gradients/linear.0.weight": {"_type": "histogram", "values": [1.0, 2.0, 3.0, 1.0, 3.0, 3.0, 1.0, 3.0, 1.0, 1.0, 7.0, 8.0, 7.0, 12.0, 19.0, 16.0, 25.0, 34.0, 22.0, 22.0, 55.0, 47.0, 48.0, 76.0, 97.0, 114.0, 149.0, 196.0, 266.0, 462.0, 884.0, 1772.0, 15361.0, 2188.0, 995.0, 544.0, 389.0, 288.0, 246.0, 167.0, 113.0, 108.0, 75.0, 49.0, 46.0, 44.0, 29.0, 20.0, 9.0, 24.0, 7.0, 8.0, 3.0, 4.0, 4.0, 1.0, 2.0, 2.0, 3.0, 1.0, 0.0, 0.0, 0.0, 1.0], "bins": [-0.058456264436244965, -0.05666501820087433, -0.05487377569079399, -0.053082533180713654, -0.05129128694534302, -0.04950004070997238, -0.047708798199892044, -0.04591755568981171, -0.04412630945444107, -0.042335063219070435, -0.0405438207089901, -0.03875257819890976, -0.036961331963539124, -0.03517008572816849, -0.03337884321808815, -0.03158760070800781, -0.029796354472637177, -0.02800511009991169, -0.026213865727186203, -0.024422621354460716, -0.02263137698173523, -0.020840132609009743, -0.019048888236284256, -0.01725764386355877, -0.015466399490833282, -0.013675155118107796, -0.011883910745382309, -0.010092666372656822, -0.008301421999931335, -0.006510177627205849, -0.004718933254480362, -0.002927688881754875, -0.0011364482343196869, 0.0006547961384057999, 0.0024460405111312866, 0.004237284883856773, 0.00602852925658226, 0.007819773629307747, 0.009611018002033234, 0.01140226237475872, 0.013193506747484207, 0.014984751120209694, 0.01677599549293518, 0.018567239865660667, 0.020358484238386154, 0.02214972861111164, 0.023940972983837128, 0.025732217356562614, 0.0275234617292881, 0.029314706102013588, 0.031105950474739075, 0.03289719671010971, 0.03468843922019005, 0.036479681730270386, 0.03827092796564102, 0.04006217420101166, 0.041853416711091995, 0.04364465922117233, 0.04543590545654297, 0.047227151691913605, 0.04901839420199394, 0.05080963671207428, 0.052600882947444916, 0.05439212918281555, 0.05618337169289589]}, "gradients/convolution.5.weight": {"_type": "histogram", "values": [1.0, 0.0, 0.0, 0.0, 0.0, 0.0, 0.0, 0.0, 1.0, 0.0, 0.0, 0.0, 0.0, 0.0, 0.0, 0.0, 0.0, 0.0, 0.0, 0.0, 0.0, 0.0, 0.0, 0.0, 0.0, 0.0, 0.0, 0.0, 0.0, 0.0, 0.0, 0.0, 0.0, 0.0, 0.0, 0.0, 0.0, 1.0, 0.0, 0.0, 0.0, 0.0, 0.0, 0.0, 0.0, 0.0, 0.0, 0.0, 0.0, 0.0, 0.0, 1.0, 0.0, 0.0, 0.0, 0.0, 1.0, 1.0, 1.0, 0.0, 0.0, 0.0, 0.0, 1.0], "bins": [-0.06463201344013214, -0.06323368102312088, -0.06183535233139992, -0.06043701991438866, -0.059038687497377396, -0.057640355080366135, -0.05624202638864517, -0.05484369397163391, -0.05344536155462265, -0.05204702913761139, -0.05064870044589043, -0.049250368028879166, -0.047852035611867905, -0.046453703194856644, -0.04505537450313568, -0.04365704208612442, -0.04225870966911316, -0.0408603772521019, -0.039462048560380936, -0.038063716143369675, -0.036665383726358414, -0.03526705130934715, -0.03386872261762619, -0.03247039020061493, -0.031072061508893967, -0.029673730954527855, -0.028275398537516594, -0.026877067983150482, -0.02547873556613922, -0.02408040501177311, -0.022682074457406998, -0.021283742040395737, -0.019885411486029625, -0.018487080931663513, -0.017088748514652252, -0.01569041796028614, -0.01429208554327488, -0.012893754988908768, -0.011495423503220081, -0.010097092017531395, -0.008698759600520134, -0.007300428114831448, -0.005902096629142761, -0.004503765609115362, -0.003105434123426676, -0.0017071026377379894, -0.00030877161771059036, 0.001089559867978096, 0.0024878904223442078, 0.003886221908032894, 0.0052845533937215805, 0.00668288441374898, 0.008081216365098953, 0.009479546919465065, 0.010877878405153751, 0.012276209890842438, 0.013674541376531124, 0.01507287286221981, 0.016471203416585922, 0.017869535833597183, 0.019267866387963295, 0.020666198804974556, 0.022064529359340668, 0.02346286177635193, 0.02486119233071804]}, "gradients/convolution.5.bias": {"_type": "histogram", "values": [1.0, 0.0, 0.0, 0.0, 0.0, 0.0, 0.0, 0.0, 0.0, 0.0, 0.0, 0.0, 0.0, 0.0, 0.0, 0.0, 0.0, 0.0, 0.0, 0.0, 0.0, 0.0, 0.0, 0.0, 0.0, 1.0, 0.0, 0.0, 0.0, 0.0, 0.0, 0.0, 0.0, 0.0, 0.0, 0.0, 0.0, 0.0, 1.0, 1.0, 0.0, 0.0, 0.0, 0.0, 0.0, 0.0, 0.0, 0.0, 0.0, 0.0, 0.0, 0.0, 0.0, 0.0, 1.0, 0.0, 1.0, 0.0, 0.0, 1.0, 0.0, 0.0, 0.0, 1.0], "bins": [-0.06986735761165619, -0.06830121576786041, -0.06673507392406464, -0.06516893208026886, -0.06360279023647308, -0.06203664466738701, -0.060470499098300934, -0.05890435725450516, -0.05733821541070938, -0.055772073566913605, -0.05420593172311783, -0.052639786154031754, -0.05107364431023598, -0.0495075024664402, -0.047941356897354126, -0.04637521505355835, -0.04480907320976257, -0.0432429313659668, -0.04167678952217102, -0.040110643953084946, -0.03854450210928917, -0.03697836026549339, -0.03541221469640732, -0.03384607285261154, -0.032279931008815765, -0.03071378916501999, -0.029147645458579063, -0.027581501752138138, -0.02601535990834236, -0.024449218064546585, -0.02288307435810566, -0.021316930651664734, -0.019750792533159256, -0.01818465068936348, -0.016618506982922554, -0.015052364207804203, -0.013486221432685852, -0.011920078657567501, -0.01035393588244915, -0.008787793107330799, -0.007221650332212448, -0.005655507557094097, -0.004089364781975746, -0.002523222006857395, -0.0009570792317390442, 0.0006090635433793068, 0.0021752063184976578, 0.0037413490936160088, 0.00530749186873436, 0.006873634643852711, 0.008439777418971062, 0.010005920194089413, 0.011572062969207764, 0.013138205744326115, 0.014704348519444466, 0.01627049222588539, 0.017836634069681168, 0.019402775913476944, 0.02096891961991787, 0.022535063326358795, 0.02410120517015457, 0.025667347013950348, 0.027233490720391273, 0.0287996344268322, 0.030365776270627975]}, "gradients/convolution.4.weight": {"_type": "histogram", "values": [1.0, 0.0, 1.0, 0.0, 1.0, 0.0, 0.0, 0.0, 4.0, 0.0, 3.0, 3.0, 6.0, 1.0, 1.0, 4.0, 5.0, 3.0, 4.0, 2.0, 15.0, 9.0, 6.0, 16.0, 7.0, 10.0, 13.0, 16.0, 19.0, 14.0, 18.0, 19.0, 15.0, 13.0, 6.0, 10.0, 7.0, 6.0, 4.0, 5.0, 3.0, 1.0, 2.0, 1.0, 1.0, 0.0, 1.0, 2.0, 0.0, 1.0, 0.0, 1.0, 3.0, 2.0, 1.0, 0.0, 0.0, 1.0, 0.0, 0.0, 0.0, 0.0, 0.0, 1.0], "bins": [-0.09103984385728836, -0.08800274133682251, -0.08496563136577606, -0.08192852884531021, -0.07889142632484436, -0.07585431635379791, -0.07281721383333206, -0.06978011131286621, -0.06674300134181976, -0.06370589882135391, -0.060668788850307465, -0.057631686329841614, -0.054594580084085464, -0.051557473838329315, -0.048520371317863464, -0.045483265072107315, -0.042446158826351166, -0.039409052580595016, -0.03637194633483887, -0.033334843814373016, -0.030297737568616867, -0.027260631322860718, -0.024223526939749718, -0.021186422556638718, -0.01814931631088257, -0.015112210996448994, -0.012075105682015419, -0.009038000367581844, -0.00600089505314827, -0.002963789738714695, 7.33155757188797e-05, 0.0031104199588298798, 0.006147526204586029, 0.009184631519019604, 0.012221736833453178, 0.015258842147886753, 0.018295947462320328, 0.021333053708076477, 0.024370158091187477, 0.027407262474298477, 0.030444368720054626, 0.033481474965810776, 0.036518581211566925, 0.039555683732032776, 0.042592789977788925, 0.045629896223545074, 0.048666998744010925, 0.051704104989767075, 0.054741211235523224, 0.05777831748127937, 0.06081542372703552, 0.06385252624750137, 0.06688962876796722, 0.06992673873901367, 0.07296384125947952, 0.07600094377994537, 0.07903805375099182, 0.08207515627145767, 0.08511226624250412, 0.08814936876296997, 0.09118647873401642, 0.09422358125448227, 0.09726068377494812, 0.10029779374599457, 0.10333489626646042]}, "gradients/convolution.4.bias": {"_type": "histogram", "values": [1.0, 0.0, 1.0, 0.0, 0.0, 0.0, 0.0, 0.0, 0.0, 1.0, 1.0, 0.0, 0.0, 0.0, 0.0, 0.0, 0.0, 1.0, 0.0, 0.0, 0.0, 0.0, 0.0, 0.0, 0.0, 0.0, 0.0, 0.0, 0.0, 0.0, 0.0, 0.0, 0.0, 0.0, 0.0, 0.0, 0.0, 0.0, 0.0, 2.0, 0.0, 0.0, 0.0, 0.0, 0.0, 0.0, 0.0, 0.0, 0.0, 0.0, 0.0, 0.0, 0.0, 0.0, 0.0, 0.0, 0.0, 0.0, 0.0, 0.0, 0.0, 0.0, 0.0, 1.0], "bins": [-5.392357707023621e-07, -5.106994649395347e-07, -4.821631591767073e-07, -4.5362685341387987e-07, -4.250905476510525e-07, -3.965542418882251e-07, -3.680179361253977e-07, -3.394816303625703e-07, -3.109453245997429e-07, -2.824090188369155e-07, -2.538727130740881e-07, -2.253364073112607e-07, -1.968001015484333e-07, -1.682637957856059e-07, -1.397274900227785e-07, -1.1119118425995111e-07, -8.265487849712372e-08, -5.411857273429632e-08, -2.5582266971468925e-08, 2.954038791358471e-09, 3.149034455418587e-08, 6.002665031701326e-08, 8.856295607984066e-08, 1.1709926184266806e-07, 1.4563556760549545e-07, 1.7417187336832285e-07, 2.0270817913115025e-07, 2.3124448489397764e-07, 2.5978079065680504e-07, 2.8831709641963243e-07, 3.1685340218245983e-07, 3.4538970794528723e-07, 3.739260137081146e-07, 4.02462319470942e-07, 4.309986252337694e-07, 4.595349309965968e-07, 4.880712367594242e-07, 5.166075425222516e-07, 5.45143848285079e-07, 5.736801540479064e-07, 6.022164598107338e-07, 6.307527655735612e-07, 6.592890713363886e-07, 6.87825377099216e-07, 7.163616828620434e-07, 7.448979886248708e-07, 7.734342943876982e-07, 8.019706001505256e-07, 8.30506905913353e-07, 8.590432116761804e-07, 8.875795174390078e-07, 9.161158232018352e-07, 9.446521289646626e-07, 9.7318843472749e-07, 1.0017247404903173e-06, 1.0302610462531447e-06, 1.0587973520159721e-06, 1.0873336577787995e-06, 1.115869963541627e-06, 1.1444062693044543e-06, 1.1729425750672817e-06, 1.2014788808301091e-06, 1.2300151865929365e-06, 1.258551492355764e-06, 1.2870877981185913e-06]}, "gradients/convolution.1.weight": {"_type": "histogram", "values": [1.0, 0.0, 0.0, 1.0, 0.0, 0.0, 0.0, 0.0, 0.0, 0.0, 0.0, 0.0, 0.0, 0.0, 0.0, 0.0, 0.0, 0.0, 0.0, 0.0, 0.0, 0.0, 0.0, 0.0, 0.0, 0.0, 0.0, 0.0, 0.0, 0.0, 0.0, 0.0, 0.0, 0.0, 0.0, 0.0, 0.0, 0.0, 0.0, 0.0, 0.0, 0.0, 0.0, 0.0, 0.0, 0.0, 0.0, 0.0, 0.0, 0.0, 0.0, 0.0, 0.0, 0.0, 1.0, 0.0, 0.0, 0.0, 0.0, 0.0, 0.0, 0.0, 0.0, 1.0], "bins": [-0.028135189786553383, -0.02732778713107109, -0.0265203844755888, -0.025712981820106506, -0.024905579164624214, -0.024098176509141922, -0.02329077199101448, -0.02248336933553219, -0.021675966680049896, -0.020868564024567604, -0.020061161369085312, -0.01925375871360302, -0.018446356058120728, -0.017638951539993286, -0.016831550747156143, -0.016024146229028702, -0.015216744504868984, -0.014409341849386692, -0.0136019391939044, -0.012794535607099533, -0.011987132951617241, -0.011179730296134949, -0.010372327640652657, -0.009564924985170364, -0.008757522329688072, -0.00795011967420578, -0.0071427165530622005, -0.006335313897579908, -0.005527910776436329, -0.004720508120954037, -0.0039131054654717445, -0.003105702344328165, -0.0022982992231845856, -0.0014908963348716497, -0.0006834935629740357, 0.00012390920892357826, 0.0009313120972365141, 0.00173871498554945, 0.002546117641031742, 0.0033535207621753216, 0.004160923883318901, 0.004968326538801193, 0.005775729659944773, 0.006583132315427065, 0.007390535436570644, 0.008197938092052937, 0.009005340747535229, 0.009812744334340096, 0.010620146058499813, 0.011427548713982105, 0.012234951369464397, 0.013042354956269264, 0.013849757611751556, 0.014657160267233849, 0.01546456292271614, 0.016271965578198433, 0.017079368233680725, 0.017886770889163017, 0.01869417354464531, 0.0195015762001276, 0.020308978855609894, 0.021116383373737335, 0.021923784166574478, 0.02273118868470192, 0.02353859134018421]}, "gradients/convolution.1.bias": {"_type": "histogram", "values": [1.0, 0.0, 0.0, 0.0, 0.0, 0.0, 0.0, 0.0, 0.0, 0.0, 0.0, 0.0, 0.0, 0.0, 0.0, 0.0, 0.0, 0.0, 0.0, 0.0, 1.0, 0.0, 0.0, 0.0, 0.0, 0.0, 0.0, 0.0, 0.0, 0.0, 0.0, 0.0, 0.0, 0.0, 0.0, 0.0, 0.0, 0.0, 0.0, 0.0, 0.0, 0.0, 0.0, 0.0, 0.0, 0.0, 0.0, 0.0, 0.0, 0.0, 0.0, 0.0, 0.0, 0.0, 0.0, 0.0, 1.0, 0.0, 0.0, 0.0, 0.0, 0.0, 0.0, 1.0], "bins": [-0.03135558217763901, -0.030646566301584244, -0.02993755042552948, -0.029228534549474716, -0.028519518673419952, -0.02781050279736519, -0.027101486921310425, -0.02639247104525566, -0.025683455169200897, -0.024974439293146133, -0.02426542341709137, -0.023556407541036606, -0.022847391664981842, -0.022138375788927078, -0.021429359912872314, -0.02072034403681755, -0.020011328160762787, -0.019302312284708023, -0.01859329640865326, -0.017884280532598495, -0.01717526465654373, -0.016466248780488968, -0.015757232904434204, -0.01504821702837944, -0.014339201152324677, -0.013630185276269913, -0.012921169400215149, -0.012212153524160385, -0.011503137648105621, -0.010794121772050858, -0.010085105895996094, -0.00937609001994133, -0.008667076006531715, -0.007958060130476952, -0.007249044254422188, -0.006540028378367424, -0.00583101250231266, -0.005121996626257896, -0.004412980750203133, -0.003703964874148369, -0.002994948998093605, -0.0022859331220388412, -0.0015769172459840775, -0.0008679013699293137, -0.00015888549387454987, 0.0005501303821802139, 0.0012591462582349777, 0.0019681621342897415, 0.0026771780103445053, 0.003386193886399269, 0.004095209762454033, 0.004804225638508797, 0.0055132415145635605, 0.006222257390618324, 0.006931273266673088, 0.007640289142727852, 0.008349305018782616, 0.00905832089483738, 0.009767336770892143, 0.010476352646946907, 0.01118536852300167, 0.011894384399056435, 0.012603400275111198, 0.013312416151165962, 0.014021432027220726]}, "gradients/convolution.0.weight": {"_type": "histogram", "values": [1.0, 0.0, 0.0, 0.0, 2.0, 0.0, 0.0, 0.0, 2.0, 1.0, 0.0, 0.0, 0.0, 1.0, 0.0, 1.0, 1.0, 1.0, 2.0, 2.0, 1.0, 1.0, 3.0, 1.0, 2.0, 0.0, 0.0, 0.0, 0.0, 0.0, 0.0, 1.0, 1.0, 0.0, 1.0, 1.0, 0.0, 1.0, 1.0, 1.0, 0.0, 0.0, 0.0, 0.0, 0.0, 2.0, 1.0, 0.0, 0.0, 1.0, 0.0, 0.0, 0.0, 1.0, 1.0, 0.0, 0.0, 0.0, 0.0, 0.0, 0.0, 0.0, 0.0, 1.0], "bins": [-0.08051997423171997, -0.077476367354393, -0.07443276792764664, -0.07138916850090027, -0.0683455616235733, -0.06530195474624634, -0.06225835531949997, -0.0592147521674633, -0.056171149015426636, -0.05312754586338997, -0.0500839427113533, -0.047040339559316635, -0.04399673640727997, -0.0409531332552433, -0.037909530103206635, -0.03486592695116997, -0.0318223237991333, -0.028778720647096634, -0.025735117495059967, -0.0226915143430233, -0.019647911190986633, -0.016604308038949966, -0.0135607048869133, -0.010517101734876633, -0.007473498582839966, -0.004429895430803299, -0.001386292278766632, 0.0016573108732700348, 0.004700914025306702, 0.0077445171773433685, 0.010788120329380035, 0.013831723481416702, 0.01687532663345337, 0.019918929785490036, 0.022962532937526703, 0.02600613608956337, 0.029049739241600037, 0.032093342393636703, 0.03513694554567337, 0.03818054869771004, 0.041224151849746704, 0.04426775500178337, 0.04731135815382004, 0.050354961305856705, 0.05339856445789337, 0.05644216760993004, 0.059485770761966705, 0.06252937018871307, 0.06557297706604004, 0.068616583943367, 0.07166018337011337, 0.07470378279685974, 0.0777473896741867, 0.08079099655151367, 0.08383459597826004, 0.08687819540500641, 0.08992180228233337, 0.09296540915966034, 0.09600900858640671, 0.09905260801315308, 0.10209621489048004, 0.105139821767807, 0.10818342119455338, 0.11122702062129974, 0.11427062749862671]}, "gradients/convolution.0.bias": {"_type": "histogram", "values": [1.0, 0.0, 0.0, 0.0, 0.0, 0.0, 0.0, 0.0, 0.0, 0.0, 0.0, 0.0, 0.0, 0.0, 0.0, 0.0, 0.0, 0.0, 0.0, 0.0, 0.0, 0.0, 0.0, 0.0, 0.0, 0.0, 0.0, 0.0, 0.0, 0.0, 0.0, 0.0, 0.0, 0.0, 0.0, 0.0, 0.0, 0.0, 0.0, 0.0, 0.0, 0.0, 0.0, 0.0, 0.0, 1.0, 0.0, 0.0, 0.0, 0.0, 0.0, 0.0, 0.0, 1.0, 0.0, 0.0, 0.0, 0.0, 0.0, 0.0, 0.0, 0.0, 0.0, 1.0], "bins": [-9.179115295410156e-05, -9.017543925438076e-05, -8.855972555465996e-05, -8.694401185493916e-05, -8.532829815521836e-05, -8.371258445549756e-05, -8.209687075577676e-05, -8.048115705605596e-05, -7.886544335633516e-05, -7.724972965661436e-05, -7.563401595689356e-05, -7.401830225717276e-05, -7.240258855745196e-05, -7.078687485773116e-05, -6.917116115801036e-05, -6.755544745828956e-05, -6.593973375856876e-05, -6.432402005884796e-05, -6.270830635912716e-05, -6.109259265940636e-05, -5.9476878959685564e-05, -5.7861165259964764e-05, -5.6245451560243964e-05, -5.4629737860523164e-05, -5.3014024160802364e-05, -5.1398310461081564e-05, -4.9782596761360765e-05, -4.8166883061639965e-05, -4.6551169361919165e-05, -4.4935455662198365e-05, -4.3319741962477565e-05, -4.1704028262756765e-05, -4.0088314563035965e-05, -3.8472600863315165e-05, -3.6856887163594365e-05, -3.5241173463873565e-05, -3.3625459764152765e-05, -3.2009746064431965e-05, -3.0394032364711165e-05, -2.8778318664990366e-05, -2.7162604965269566e-05, -2.5546891265548766e-05, -2.3931177565827966e-05, -2.2315463866107166e-05, -2.0699750166386366e-05, -1.9084036466665566e-05, -1.7468322766944766e-05, -1.5852609067223966e-05, -1.4236895367503166e-05, -1.2621181667782366e-05, -1.1005467968061566e-05, -9.389754268340766e-06, -7.774040568619967e-06, -6.158326868899167e-06, -4.542613169178367e-06, -2.9268994694575667e-06, -1.3111857697367668e-06, 3.045279299840331e-07, 1.920241629704833e-06, 3.535955329425633e-06, 5.151669029146433e-06, 6.767382728867233e-06, 8.383096428588033e-06, 9.998810128308833e-06, 1.1614523828029633e-05]}, "_wandb": {"runtime": 26}}