{"loss": 0.3034345209598541, "_runtime": 12, "_timestamp": 1641744648, "_step": 4, "gradients/linear.3.bias": {"_type": "histogram", "values": [1.0, 0.0, 0.0, 0.0, 0.0, 0.0, 0.0, 0.0, 0.0, 0.0, 0.0, 0.0, 1.0, 0.0, 0.0, 0.0, 0.0, 0.0, 0.0, 0.0, 0.0, 0.0, 0.0, 0.0, 0.0, 0.0, 1.0, 0.0, 1.0, 0.0, 0.0, 0.0, 0.0, 0.0, 0.0, 0.0, 0.0, 2.0, 0.0, 0.0, 0.0, 0.0, 0.0, 0.0, 1.0, 0.0, 0.0, 0.0, 0.0, 0.0, 0.0, 0.0, 1.0, 0.0, 0.0, 1.0, 0.0, 0.0, 0.0, 0.0, 0.0, 0.0, 0.0, 1.0], "bins": [-0.01959635689854622, -0.019052235409617424, -0.01850811578333378, -0.017963994294404984, -0.017419874668121338, -0.016875753179192543, -0.016331633552908897, -0.015787512063980103, -0.015243391506373882, -0.014699270948767662, -0.014155150391161442, -0.013611029833555222, -0.013066908344626427, -0.012522788718342781, -0.011978667229413986, -0.011434546671807766, -0.010890426114201546, -0.010346305556595325, -0.009802184998989105, -0.009258064441382885, -0.008713943883776665, -0.00816982239484787, -0.00762570183724165, -0.007081581279635429, -0.006537460722029209, -0.005993340164422989, -0.005449219606816769, -0.004905098583549261, -0.004360978025943041, -0.0038168574683368206, -0.0032727366778999567, -0.002728615887463093, -0.0021844953298568726, -0.0016403746558353305, -0.0010962539818137884, -0.0005521333077922463, -8.01263377070427e-06, 0.000536107923835516, 0.0010802287142723799, 0.0016243495047092438, 0.002168470062315464, 0.0027125906199216843, 0.003256711410358548, 0.003800832200795412, 0.004344952758401632, 0.0048890733160078526, 0.00543319433927536, 0.00597731489688158, 0.006521435454487801, 0.007065556012094021, 0.007609676569700241, 0.008153797127306461, 0.008697917684912682, 0.009242039173841476, 0.009786159731447697, 0.010330280289053917, 0.010874400846660137, 0.011418521404266357, 0.011962641961872578, 0.012506762519478798, 0.013050884008407593, 0.013595003634691238, 0.014139125123620033, 0.014683245681226254, 0.015227366238832474]}, "gradients/linear.3.weight": {"_type": "histogram", "values": [1.0, 0.0, 0.0, 0.0, 0.0, 0.0, 1.0, 0.0, 0.0, 0.0, 0.0, 3.0, 1.0, 0.0, 1.0, 3.0, 1.0, 4.0, 1.0, 1.0, 2.0, 5.0, 4.0, 3.0, 4.0, 7.0, 6.0, 9.0, 8.0, 10.0, 28.0, 30.0, 20.0, 220.0, 73.0, 53.0, 32.0, 31.0, 17.0, 16.0, 5.0, 8.0, 4.0, 5.0, 4.0, 5.0, 1.0, 3.0, 1.0, 0.0, 0.0, 3.0, 1.0, 1.0, 0.0, 0.0, 0.0, 1.0, 1.0, 0.0, 0.0, 1.0, 0.0, 1.0], "bins": [-0.14521117508411407, -0.14093419909477234, -0.1366572231054306, -0.13238024711608887, -0.12810327112674713, -0.1238262951374054, -0.11954931914806366, -0.11527234315872192, -0.11099536716938019, -0.10671839118003845, -0.10244141519069672, -0.09816443920135498, -0.09388746321201324, -0.08961048722267151, -0.08533351123332977, -0.08105653524398804, -0.0767795592546463, -0.07250258326530457, -0.06822560727596283, -0.0639486312866211, -0.05967165529727936, -0.05539467930793762, -0.051117703318595886, -0.04684072732925415, -0.042563751339912415, -0.03828677535057068, -0.03400979936122894, -0.029732823371887207, -0.02545584738254547, -0.021178871393203735, -0.016901895403862, -0.012624919414520264, -0.008347958326339722, -0.004070982336997986, 0.00020599365234375, 0.004482969641685486, 0.008759945631027222, 0.013036921620368958, 0.017313897609710693, 0.02159087359905243, 0.025867849588394165, 0.0301448255777359, 0.03442180156707764, 0.03869877755641937, 0.04297575354576111, 0.047252729535102844, 0.05152970552444458, 0.055806681513786316, 0.06008365750312805, 0.06436063349246979, 0.06863760948181152, 0.07291458547115326, 0.077191561460495, 0.08146853744983673, 0.08574551343917847, 0.0900224894285202, 0.09429946541786194, 0.09857644140720367, 0.10285341739654541, 0.10713039338588715, 0.11140736937522888, 0.11568434536457062, 0.11996132135391235, 0.12423829734325409, 0.12851527333259583]}, "gradients/linear.0.bias": {"_type": "histogram", "values": [1.0, 0.0, 0.0, 0.0, 1.0, 1.0, 0.0, 0.0, 1.0, 1.0, 2.0, 2.0, 1.0, 0.0, 0.0, 3.0, 1.0, 2.0, 1.0, 0.0, 1.0, 1.0, 0.0, 1.0, 1.0, 0.0, 1.0, 0.0, 20.0, 2.0, 0.0, 2.0, 2.0, 2.0, 1.0, 2.0, 2.0, 0.0, 1.0, 0.0, 0.0, 0.0, 2.0, 0.0, 0.0, 0.0, 2.0, 0.0, 0.0, 0.0, 1.0, 1.0, 0.0, 0.0, 0.0, 0.0, 0.0, 0.0, 0.0, 0.0, 1.0, 0.0, 0.0, 1.0], "bins": [-0.006585967261344194, -0.006358239334076643, -0.006130510941147804, -0.005902783013880253, -0.005675055086612701, -0.005447326693683863, -0.005219598766416311, -0.0049918703734874725, -0.004764142446219921, -0.00453641451895237, -0.004308686126023531, -0.0040809581987559795, -0.0038532300386577845, -0.0036255018785595894, -0.003397773951292038, -0.003170045791193843, -0.002942317631095648, -0.0027145894709974527, -0.0024868613108992577, -0.0022591333836317062, -0.002031405223533511, -0.001803677063435316, -0.0015759490197524428, -0.0013482209760695696, -0.0011204928159713745, -0.0008927647140808403, -0.0006650366121903062, -0.000437308510299772, -0.00020958040840923786, 1.8147751688957214e-05, 0.00024587579537183046, 0.0004736038390547037, 0.0007013324648141861, 0.0009290605667047203, 0.0011567886685952544, 0.0013845167122781277, 0.0016122448723763227, 0.0018399730324745178, 0.0020677009597420692, 0.0022954291198402643, 0.0025231572799384594, 0.0027508854400366545, 0.0029786136001348495, 0.003206341527402401, 0.003434069687500596, 0.003661797847598791, 0.0038895257748663425, 0.004117254167795181, 0.004344982095062733, 0.004572710022330284, 0.004800438415259123, 0.005028166342526674, 0.005255894735455513, 0.005483622662723064, 0.005711350589990616, 0.005939078517258167, 0.006166806910187006, 0.006394534837454557, 0.006622263230383396, 0.006849991157650948, 0.007077719084918499, 0.007305447477847338, 0.007533175405114889, 0.007760903798043728, 0.00798863172531128]}, "gradients/linear.0.weight": {"_type": "histogram", "values": [2.0, 0.0, 2.0, 3.0, 4.0, 6.0, 4.0, 1.0, 7.0, 13.0, 19.0, 25.0, 28.0, 34.0, 55.0, 68.0, 88.0, 114.0, 151.0, 179.0, 264.0, 322.0, 476.0, 585.0, 687.0, 979.0, 1425.0, 3492.0, 11476.0, 1220.0, 807.0, 580.0, 402.0, 303.0, 266.0, 194.0, 162.0, 103.0, 100.0, 74.0, 60.0, 60.0, 37.0, 33.0, 32.0, 21.0, 29.0, 14.0, 16.0, 10.0, 10.0, 13.0, 3.0, 9.0, 5.0, 5.0, 2.0, 1.0, 3.0, 1.0, 2.0, 0.0, 1.0, 1.0], "bins": [-0.03261156380176544, -0.03144906088709831, -0.03028656169772148, -0.0291240606456995, -0.02796155959367752, -0.02679905667901039, -0.02563655562698841, -0.02447405457496643, -0.02331155352294445, -0.02214905247092247, -0.02098655141890049, -0.01982405036687851, -0.01866154745221138, -0.01749904826283455, -0.01633654534816742, -0.01517404429614544, -0.014011543244123459, -0.012849042192101479, -0.011686541140079498, -0.010524039156734943, -0.009361538104712963, -0.008199037052690983, -0.007036535535007715, -0.005874034017324448, -0.004711532965302467, -0.0035490316804498434, -0.0023865303955972195, -0.0012240291107445955, -6.152782589197159e-05, 0.0011009732261300087, 0.0022634747438132763, 0.003425976261496544, 0.004588477313518524, 0.0057509783655405045, 0.006913479883223772, 0.00807598140090704, 0.00923848245292902, 0.010400983504951, 0.011563485488295555, 0.012725986540317535, 0.013888487592339516, 0.015050988644361496, 0.016213489696383476, 0.017375990748405457, 0.018538493663072586, 0.019700992852449417, 0.020863495767116547, 0.022025996819138527, 0.023188497871160507, 0.024350998923182487, 0.025513499975204468, 0.026676001027226448, 0.02783850207924843, 0.029001004993915558, 0.030163506045937538, 0.03132600709795952, 0.03248851001262665, 0.03365101292729378, 0.03481351211667061, 0.03597601503133774, 0.03713851422071457, 0.0383010171353817, 0.03946351632475853, 0.04062601923942566, 0.04178851842880249]}, "gradients/convolution.5.weight": {"_type": "histogram", "values": [1.0, 0.0, 0.0, 0.0, 0.0, 0.0, 1.0, 0.0, 0.0, 0.0, 0.0, 0.0, 0.0, 0.0, 0.0, 1.0, 0.0, 0.0, 0.0, 0.0, 0.0, 1.0, 0.0, 0.0, 0.0, 0.0, 0.0, 0.0, 0.0, 0.0, 0.0, 0.0, 0.0, 0.0, 0.0, 0.0, 0.0, 0.0, 0.0, 0.0, 0.0, 0.0, 0.0, 1.0, 0.0, 0.0, 0.0, 0.0, 0.0, 0.0, 0.0, 0.0, 0.0, 1.0, 0.0, 0.0, 0.0, 0.0, 0.0, 0.0, 0.0, 0.0, 1.0, 1.0], "bins": [-0.04114441201090813, -0.04059911519289017, -0.04005381837487221, -0.03950852155685425, -0.03896322473883629, -0.03841792792081833, -0.03787263482809067, -0.03732733801007271, -0.03678204119205475, -0.03623674437403679, -0.03569144755601883, -0.03514615073800087, -0.03460085391998291, -0.03405556082725525, -0.03351026400923729, -0.03296496719121933, -0.03241966664791107, -0.03187436982989311, -0.03132907301187515, -0.030783778056502342, -0.030238481238484383, -0.029693184420466423, -0.029147887602448463, -0.028602590784430504, -0.028057295829057693, -0.027511999011039734, -0.026966702193021774, -0.026421407237648964, -0.025876110419631004, -0.025330813601613045, -0.024785516783595085, -0.024240219965577126, -0.023694925010204315, -0.023149628192186356, -0.022604331374168396, -0.022059036418795586, -0.021513739600777626, -0.020968442782759666, -0.020423145964741707, -0.019877849146723747, -0.019332554191350937, -0.018787257373332977, -0.018241960555315018, -0.017696665599942207, -0.017151368781924248, -0.016606071963906288, -0.01606077514588833, -0.015515478327870369, -0.01497018150985241, -0.01442488469183445, -0.013879588805139065, -0.013334291987121105, -0.01278899610042572, -0.01224369928240776, -0.011698402464389801, -0.011153105646371841, -0.010607810690999031, -0.010062513872981071, -0.009517217986285686, -0.008971921168267727, -0.008426625281572342, -0.007881328463554382, -0.007336031645536423, -0.0067907352931797504, -0.006245438475161791]}, "gradients/convolution.5.bias": {"_type": "histogram", "values": [2.0, 0.0, 0.0, 0.0, 0.0, 0.0, 0.0, 0.0, 0.0, 0.0, 0.0, 0.0, 0.0, 0.0, 0.0, 0.0, 0.0, 0.0, 1.0, 0.0, 0.0, 0.0, 0.0, 0.0, 0.0, 0.0, 0.0, 0.0, 0.0, 0.0, 0.0, 1.0, 0.0, 0.0, 0.0, 0.0, 0.0, 1.0, 0.0, 0.0, 0.0, 0.0, 0.0, 0.0, 0.0, 0.0, 0.0, 0.0, 0.0, 0.0, 0.0, 0.0, 0.0, 0.0, 0.0, 0.0, 0.0, 0.0, 0.0, 0.0, 0.0, 1.0, 1.0, 1.0], "bins": [-0.024448774755001068, -0.023968026041984558, -0.023487277328968048, -0.023006528615951538, -0.022525779902935028, -0.022045031189918518, -0.021564282476902008, -0.021083533763885498, -0.020602785050868988, -0.020122036337852478, -0.019641287624835968, -0.019160538911819458, -0.018679790198802948, -0.018199041485786438, -0.017718292772769928, -0.017237544059753418, -0.016756795346736908, -0.016276046633720398, -0.015795297920703888, -0.015314549207687378, -0.014833800494670868, -0.014353051781654358, -0.013872303068637848, -0.013391554355621338, -0.012910804711282253, -0.012430055998265743, -0.011949307285249233, -0.011468558572232723, -0.010987809859216213, -0.010507061146199703, -0.010026312433183193, -0.009545563720166683, -0.009064814075827599, -0.008584065362811089, -0.008103316649794579, -0.0076225679367780685, -0.0071418192237615585, -0.0066610705107450485, -0.0061803217977285385, -0.0056995730847120285, -0.005218824837356806, -0.004738076124340296, -0.004257327411323786, -0.0037765786983072758, -0.0032958299852907658, -0.002815081039443612, -0.002334332326427102, -0.001853583613410592, -0.0013728346675634384, -0.0008920859545469284, -0.0004113371833227575, 6.941158790141344e-05, 0.0005501603009179235, 0.0010309091303497553, 0.0015116578433662653, 0.0019924065563827753, 0.0024731552693992853, 0.0029539039824157953, 0.0034346526954323053, 0.003915401641279459, 0.004396150354295969, 0.004876899067312479, 0.005357647780328989, 0.005838396493345499, 0.006319145206362009]}, "gradients/convolution.4.weight": {"_type": "histogram", "values": [1.0, 2.0, 1.0, 0.0, 3.0, 0.0, 1.0, 4.0, 1.0, 3.0, 1.0, 1.0, 0.0, 4.0, 4.0, 1.0, 3.0, 6.0, 7.0, 13.0, 7.0, 15.0, 8.0, 14.0, 12.0, 14.0, 18.0, 13.0, 14.0, 13.0, 8.0, 16.0, 13.0, 12.0, 10.0, 6.0, 5.0, 2.0, 4.0, 8.0, 1.0, 2.0, 3.0, 0.0, 1.0, 1.0, 3.0, 4.0, 1.0, 1.0, 1.0, 0.0, 0.0, 0.0, 0.0, 1.0, 0.0, 0.0, 0.0, 0.0, 0.0, 0.0, 0.0, 1.0], "bins": [-0.08596685528755188, -0.08293186128139496, -0.07989685982465744, -0.07686186581850052, -0.073826864361763, -0.07079187035560608, -0.06775686889886856, -0.06472187489271164, -0.06168687343597412, -0.0586518757045269, -0.05561687797307968, -0.05258188024163246, -0.04954688251018524, -0.04651188477873802, -0.0434768870472908, -0.04044189304113388, -0.03740689530968666, -0.03437189757823944, -0.03133689984679222, -0.028301902115345, -0.02526690438389778, -0.02223190665245056, -0.01919691078364849, -0.01616191305220127, -0.0131269171833992, -0.01009191945195198, -0.007056922186166048, -0.0040219249203801155, -0.0009869271889328957, 0.002048070542514324, 0.005083067342638969, 0.00811806507408619, 0.011153064668178558, 0.014188062399625778, 0.017223060131072998, 0.020258057862520218, 0.023293055593967438, 0.026328053325414658, 0.029363049194216728, 0.0323980450630188, 0.03543304651975632, 0.03846804425120354, 0.04150304198265076, 0.04453803971409798, 0.0475730374455452, 0.050608035176992416, 0.053643032908439636, 0.05667802691459656, 0.05971302464604378, 0.062748022377491, 0.06578301638364792, 0.06881801784038544, 0.07185301184654236, 0.07488801330327988, 0.0779230073094368, 0.08095800876617432, 0.08399300277233124, 0.08702799677848816, 0.09006299823522568, 0.0930979922413826, 0.09613299369812012, 0.09916798770427704, 0.10220298916101456, 0.10523798316717148, 0.108272984623909]}, "gradients/convolution.4.bias": {"_type": "histogram", "values": [1.0, 0.0, 0.0, 0.0, 0.0, 0.0, 0.0, 0.0, 0.0, 0.0, 0.0, 0.0, 0.0, 0.0, 0.0, 0.0, 0.0, 0.0, 0.0, 0.0, 0.0, 1.0, 1.0, 0.0, 0.0, 0.0, 1.0, 0.0, 0.0, 0.0, 0.0, 0.0, 0.0, 1.0, 0.0, 0.0, 1.0, 0.0, 0.0, 0.0, 1.0, 0.0, 0.0, 0.0, 0.0, 0.0, 0.0, 0.0, 0.0, 0.0, 0.0, 0.0, 0.0, 0.0, 0.0, 0.0, 0.0, 0.0, 0.0, 0.0, 0.0, 0.0, 0.0, 1.0], "bins": [-5.308538675308228e-07, -5.122565198689699e-07, -4.936591722071171e-07, -4.7506182454526424e-07, -4.564644768834114e-07, -4.3786712922155857e-07, -4.1926978155970573e-07, -4.006724338978529e-07, -3.8207508623600006e-07, -3.634777385741472e-07, -3.448803909122944e-07, -3.2628304325044155e-07, -3.076856955885887e-07, -2.890883479267359e-07, -2.7049100026488304e-07, -2.518936526030302e-07, -2.3329630494117737e-07, -2.1469895727932453e-07, -1.961016096174717e-07, -1.7750426195561886e-07, -1.5890691429376602e-07, -1.4030956663191319e-07, -1.2171221897006035e-07, -1.0311487130820751e-07, -8.451752364635468e-08, -6.592017598450184e-08, -4.7322828322649e-08, -2.8725480660796165e-08, -1.0128132998943329e-08, 8.469214662909508e-09, 2.7066562324762344e-08, 4.566390998661518e-08, 6.426125764846802e-08, 8.285860531032085e-08, 1.0145595297217369e-07, 1.2005330063402653e-07, 1.3865064829587936e-07, 1.572479959577322e-07, 1.7584534361958504e-07, 1.9444269128143787e-07, 2.130400389432907e-07, 2.3163738660514355e-07, 2.502347342669964e-07, 2.688320819288492e-07, 2.8742942959070206e-07, 3.060267772525549e-07, 3.2462412491440773e-07, 3.4322147257626057e-07, 3.618188202381134e-07, 3.8041616789996624e-07, 3.990135155618191e-07, 4.176108632236719e-07, 4.3620821088552475e-07, 4.548055585473776e-07, 4.734029062092304e-07, 4.920002538710833e-07, 5.105976015329361e-07, 5.291949491947889e-07, 5.477922968566418e-07, 5.663896445184946e-07, 5.849869921803474e-07, 6.035843398422003e-07, 6.221816875040531e-07, 6.40779035165906e-07, 6.593763828277588e-07]}, "gradients/convolution.1.weight": {"_type": "histogram", "values": [1.0, 0.0, 0.0, 0.0, 0.0, 0.0, 0.0, 0.0, 0.0, 0.0, 0.0, 0.0, 0.0, 0.0, 0.0, 0.0, 0.0, 0.0, 1.0, 0.0, 0.0, 0.0, 0.0, 0.0, 0.0, 0.0, 0.0, 0.0, 0.0, 0.0, 0.0, 0.0, 0.0, 0.0, 0.0, 0.0, 0.0, 0.0, 0.0, 0.0, 1.0, 0.0, 0.0, 0.0, 0.0, 0.0, 0.0, 0.0, 0.0, 0.0, 0.0, 0.0, 0.0, 0.0, 0.0, 0.0, 0.0, 0.0, 0.0, 0.0, 0.0, 0.0, 0.0, 1.0], "bins": [-0.041946735233068466, -0.04060644656419754, -0.039266157895326614, -0.03792586922645569, -0.036585576832294464, -0.03524528816342354, -0.03390499949455261, -0.032564710825681686, -0.03122442029416561, -0.029884131625294685, -0.02854384109377861, -0.027203552424907684, -0.02586326375603676, -0.024522973224520683, -0.023182684555649757, -0.021842394024133682, -0.020502105355262756, -0.01916181668639183, -0.017821526154875755, -0.01648123748600483, -0.015140947885811329, -0.013800658285617828, -0.012460369616746902, -0.011120080016553402, -0.00977979227900505, -0.00843950267881155, -0.007099213544279337, -0.005758924409747124, -0.004418634809553623, -0.0030783452093601227, -0.0017380565404891968, -0.00039776694029569626, 0.0009425245225429535, 0.0022828138899058104, 0.0036231032572686672, 0.00496339239180088, 0.006303681991994381, 0.0076439715921878815, 0.008984260261058807, 0.010324549861252308, 0.011664841324090958, 0.013005130924284458, 0.014345420524477959, 0.015685709193348885, 0.01702599972486496, 0.018366288393735886, 0.01970657706260681, 0.021046865731477737, 0.022387154400348663, 0.02372744306921959, 0.025067733600735664, 0.02640802226960659, 0.027748312801122665, 0.02908860146999359, 0.030428890138864517, 0.03176917880773544, 0.03310947120189667, 0.03444975987076759, 0.03579004853963852, 0.037130340933799744, 0.03847062960267067, 0.039810918271541595, 0.04115120694041252, 0.04249149560928345, 0.04383178427815437]}, "gradients/convolution.1.bias": {"_type": "histogram", "values": [1.0, 0.0, 0.0, 0.0, 0.0, 0.0, 0.0, 0.0, 0.0, 0.0, 1.0, 0.0, 0.0, 0.0, 0.0, 0.0, 0.0, 0.0, 0.0, 0.0, 0.0, 0.0, 0.0, 0.0, 0.0, 0.0, 0.0, 0.0, 0.0, 0.0, 0.0, 0.0, 0.0, 0.0, 0.0, 0.0, 0.0, 0.0, 0.0, 0.0, 0.0, 0.0, 0.0, 0.0, 0.0, 0.0, 0.0, 0.0, 0.0, 0.0, 0.0, 0.0, 1.0, 0.0, 0.0, 0.0, 0.0, 0.0, 0.0, 0.0, 0.0, 0.0, 0.0, 1.0], "bins": [-0.007172519341111183, -0.006730057764798403, -0.006287596188485622, -0.005845135077834129, -0.005402673501521349, -0.004960211925208569, -0.0045177508145570755, -0.004075289238244295, -0.0036328276619315147, -0.0031903660856187344, -0.0027479047421365976, -0.002305443398654461, -0.0018629818223416805, -0.0014205202460289001, -0.0009780589025467634, -0.0005355975590646267, -9.313598275184631e-05, 0.00034932547714561224, 0.0007917869370430708, 0.0012342483969405293, 0.001676709856837988, 0.0021191714331507683, 0.002561632776632905, 0.0030040941201150417, 0.003446555696427822, 0.0038890172727406025, 0.004331478849053383, 0.004773939959704876, 0.005216401536017656, 0.005658863112330437, 0.00610132422298193, 0.00654378579929471, 0.0069862473756074905, 0.007428708951920271, 0.007871170528233051, 0.008313631638884544, 0.008756093680858612, 0.009198554791510105, 0.009641015902161598, 0.010083477944135666, 0.010525939054787159, 0.010968400165438652, 0.01141086220741272, 0.011853323318064213, 0.012295784428715706, 0.012738246470689774, 0.013180707581341267, 0.01362316869199276, 0.014065630733966827, 0.01450809184461832, 0.014950553886592388, 0.015393014997243881, 0.01583547703921795, 0.016277939081192017, 0.016720399260520935, 0.017162861302495003, 0.01760532334446907, 0.018047785386443138, 0.018490245565772057, 0.018932707607746124, 0.019375169649720192, 0.01981763169169426, 0.020260091871023178, 0.020702553912997246, 0.021145014092326164]}, "gradients/convolution.0.weight": {"_type": "histogram", "values": [1.0, 0.0, 0.0, 0.0, 0.0, 0.0, 0.0, 1.0, 0.0, 0.0, 0.0, 0.0, 0.0, 0.0, 1.0, 1.0, 0.0, 1.0, 1.0, 0.0, 0.0, 1.0, 2.0, 0.0, 0.0, 1.0, 1.0, 0.0, 0.0, 0.0, 0.0, 2.0, 0.0, 0.0, 0.0, 0.0, 0.0, 0.0, 0.0, 1.0, 0.0, 0.0, 2.0, 1.0, 1.0, 3.0, 0.0, 1.0, 4.0, 1.0, 1.0, 2.0, 1.0, 1.0, 1.0, 0.0, 0.0, 0.0, 0.0, 0.0, 1.0, 1.0, 0.0, 1.0], "bins": [-0.1670922040939331, -0.1634463220834732, -0.1598004400730133, -0.1561545580625534, -0.1525086760520935, -0.1488627940416336, -0.1452169120311737, -0.141571044921875, -0.1379251480102539, -0.134279265999794, -0.1306333839893341, -0.1269875019788742, -0.1233416199684143, -0.1196957379579544, -0.1160498633980751, -0.1124039813876152, -0.1087581068277359, -0.105112224817276, -0.1014663428068161, -0.0978204607963562, -0.0941745787858963, -0.0905286967754364, -0.0868828222155571, -0.0832369402050972, -0.0795910581946373, -0.0759451761841774, -0.0722992941737175, -0.0686534121632576, -0.0650075376033783, -0.0613616518676281, -0.057715773582458496, -0.054069891571998596, -0.05042401701211929, -0.04677813500165939, -0.04313225299119949, -0.03948637470602989, -0.03584049269556999, -0.03219461068511009, -0.02854873053729534, -0.02490285038948059, -0.02125696837902069, -0.01761108636856079, -0.01396520622074604, -0.010319325141608715, -0.00667344406247139, -0.00302756205201149, 0.0006183180958032608, 0.0042641982436180115, 0.007910080254077911, 0.011555961333215237, 0.015201842412352562, 0.018847722560167313, 0.022493604570627213, 0.026139486581087112, 0.029785366728901863, 0.033431246876716614, 0.037077128887176514, 0.040723010897636414, 0.044368892908096313, 0.048014771193265915, 0.051660653203725815, 0.055306535214185715, 0.058952413499355316, 0.06259829550981522, 0.06624417752027512]}, "gradients/convolution.0.bias": {"_type": "histogram", "values": [1.0, 0.0, 0.0, 0.0, 0.0, 0.0, 0.0, 0.0, 0.0, 0.0, 0.0, 0.0, 0.0, 0.0, 0.0, 0.0, 1.0, 0.0, 0.0, 0.0, 0.0, 0.0, 0.0, 0.0, 0.0, 0.0, 0.0, 0.0, 0.0, 0.0, 0.0, 0.0, 0.0, 0.0, 0.0, 1.0, 0.0, 0.0, 0.0, 0.0, 0.0, 0.0, 0.0, 0.0, 0.0, 0.0, 0.0, 0.0, 0.0, 0.0, 0.0, 0.0, 0.0, 0.0, 0.0, 0.0, 0.0, 0.0, 0.0, 0.0, 0.0, 0.0, 0.0, 1.0], "bins": [-4.41819429397583e-05, -4.2520114220678806e-05, -4.085828550159931e-05, -3.919645678251982e-05, -3.753462806344032e-05, -3.587279934436083e-05, -3.4210970625281334e-05, -3.254914190620184e-05, -3.0887313187122345e-05, -2.922548446804285e-05, -2.7563655748963356e-05, -2.590182702988386e-05, -2.4239998310804367e-05, -2.2578169591724873e-05, -2.0916340872645378e-05, -1.9254512153565884e-05, -1.759268343448639e-05, -1.5930854715406895e-05, -1.42690259963274e-05, -1.2607197277247906e-05, -1.0945368558168411e-05, -9.283539839088917e-06, -7.621711120009422e-06, -5.959882400929928e-06, -4.298053681850433e-06, -2.636224962770939e-06, -9.743962436914444e-07, 6.874324753880501e-07, 2.3492611944675446e-06, 4.011089913547039e-06, 5.6729186326265335e-06, 7.334747351706028e-06, 8.996576070785522e-06, 1.0658404789865017e-05, 1.2320233508944511e-05, 1.3982062228024006e-05, 1.56438909471035e-05, 1.7305719666182995e-05, 1.896754838526249e-05, 2.0629377104341984e-05, 2.2291205823421478e-05, 2.3953034542500973e-05, 2.5614863261580467e-05, 2.7276691980659962e-05, 2.8938520699739456e-05, 3.060034941881895e-05, 3.2262178137898445e-05, 3.392400685697794e-05, 3.5585835576057434e-05, 3.724766429513693e-05, 3.890949301421642e-05, 4.057132173329592e-05, 4.223315045237541e-05, 4.3894979171454906e-05, 4.55568078905344e-05, 4.7218636609613895e-05, 4.888046532869339e-05, 5.0542294047772884e-05, 5.220412276685238e-05, 5.386595148593187e-05, 5.552778020501137e-05, 5.718960892409086e-05, 5.885143764317036e-05, 6.051326636224985e-05, 6.217509508132935e-05]}, "_wandb": {"runtime": 16}}