{"loss": 0.1693641096353531, "_runtime": 16, "_timestamp": 1641744712, "_step": 4, "gradients/linear.3.bias": {"_type": "histogram", "values": [1.0, 0.0, 0.0, 0.0, 1.0, 0.0, 0.0, 0.0, 0.0, 0.0, 0.0, 1.0, 0.0, 0.0, 0.0, 0.0, 0.0, 0.0, 0.0, 0.0, 0.0, 1.0, 0.0, 0.0, 0.0, 0.0, 0.0, 0.0, 0.0, 0.0, 0.0, 0.0, 0.0, 0.0, 1.0, 0.0, 0.0, 0.0, 0.0, 0.0, 0.0, 0.0, 0.0, 0.0, 0.0, 0.0, 0.0, 0.0, 0.0, 1.0, 2.0, 0.0, 0.0, 0.0, 0.0, 0.0, 0.0, 0.0, 0.0, 1.0, 0.0, 0.0, 0.0, 1.0], "bins": [-0.02031167782843113, -0.019725864753127098, -0.019140053540468216, -0.018554240465164185, -0.017968427389860153, -0.017382614314556122, -0.01679680123925209, -0.01621099002659321, -0.015625176951289177, -0.015039363875985146, -0.014453551732003689, -0.013867739588022232, -0.0132819265127182, -0.01269611343741417, -0.012110301293432713, -0.011524489149451256, -0.010938676074147224, -0.010352862998843193, -0.009767050854861736, -0.00918123871088028, -0.008595425635576248, -0.008009612560272217, -0.00742380041629076, -0.006837987806648016, -0.006252175197005272, -0.005666362587362528, -0.005080549977719784, -0.00449473736807704, -0.003908924758434296, -0.0033231121487915516, -0.0027372995391488075, -0.0021514869295060635, -0.0015656724572181702, -0.000979859847575426, -0.00039404723793268204, 0.00019176537171006203, 0.0007775779813528061, 0.0013633905909955502, 0.0019492032006382942, 0.0025350158102810383, 0.0031208284199237823, 0.0037066410295665264, 0.0042924536392092705, 0.0048782662488520145, 0.005464078858494759, 0.006049891468137503, 0.006635704077780247, 0.007221516687422991, 0.007807329297065735, 0.008393142372369766, 0.008978954516351223, 0.00956476666033268, 0.010150579735636711, 0.010736392810940742, 0.0113222049549222, 0.011908017098903656, 0.012493830174207687, 0.013079643249511719, 0.013665455393493176, 0.014251267537474632, 0.014837080612778664, 0.015422893688082695, 0.016008704900741577, 0.01659451797604561, 0.01718033105134964]}, "gradients/linear.3.weight": {"_type": "histogram", "values": [2.0, 0.0, 1.0, 4.0, 1.0, 0.0, 1.0, 0.0, 2.0, 0.0, 1.0, 0.0, 3.0, 2.0, 5.0, 5.0, 4.0, 3.0, 3.0, 6.0, 7.0, 5.0, 9.0, 11.0, 5.0, 6.0, 9.0, 13.0, 12.0, 11.0, 10.0, 11.0, 13.0, 116.0, 71.0, 61.0, 48.0, 40.0, 24.0, 16.0, 17.0, 12.0, 9.0, 11.0, 11.0, 5.0, 5.0, 8.0, 2.0, 1.0, 3.0, 4.0, 1.0, 5.0, 1.0, 2.0, 0.0, 0.0, 0.0, 0.0, 0.0, 1.0, 0.0, 1.0], "bins": [-0.12122920155525208, -0.11765896528959274, -0.11408872157335281, -0.11051848530769348, -0.10694824159145355, -0.10337800532579422, -0.09980776160955429, -0.09623752534389496, -0.09266728162765503, -0.0890970453619957, -0.08552680164575577, -0.08195656538009644, -0.0783863216638565, -0.07481608539819717, -0.07124584168195724, -0.06767560541629791, -0.06410536170005798, -0.06053512170910835, -0.05696488171815872, -0.05339464172720909, -0.04982440173625946, -0.04625416547060013, -0.0426839217543602, -0.03911368548870087, -0.035543449223041534, -0.031973209232091904, -0.028402969241142273, -0.024832729250192642, -0.02126248925924301, -0.01769225113093853, -0.0141220111399889, -0.010551771149039268, -0.0069815292954444885, -0.0034112895373255014, 0.00015895022079348564, 0.003729189746081829, 0.00729942973703146, 0.010869668796658516, 0.014439908787608147, 0.018010148778557777, 0.021580390632152557, 0.025150630623102188, 0.02872087061405182, 0.03229111060500145, 0.03586135059595108, 0.03943158686161041, 0.04300183057785034, 0.046572066843509674, 0.050142306834459305, 0.053712546825408936, 0.057282786816358566, 0.0608530268073082, 0.06442326307296753, 0.06799350678920746, 0.07156374305486679, 0.07513398677110672, 0.07870422303676605, 0.08227445930242538, 0.08584470301866531, 0.08941493928432465, 0.09298518300056458, 0.09655541926622391, 0.10012566298246384, 0.10369589924812317, 0.1072661429643631]}, "gradients/linear.0.bias": {"_type": "histogram", "values": [1.0, 0.0, 0.0, 0.0, 0.0, 0.0, 0.0, 0.0, 0.0, 0.0, 0.0, 0.0, 1.0, 0.0, 1.0, 2.0, 0.0, 0.0, 0.0, 3.0, 0.0, 1.0, 2.0, 0.0, 1.0, 2.0, 2.0, 0.0, 0.0, 0.0, 1.0, 1.0, 0.0, 7.0, 0.0, 3.0, 13.0, 0.0, 1.0, 4.0, 2.0, 2.0, 3.0, 1.0, 1.0, 0.0, 2.0, 1.0, 1.0, 0.0, 2.0, 0.0, 0.0, 0.0, 1.0, 0.0, 1.0, 0.0, 0.0, 0.0, 0.0, 0.0, 0.0, 1.0], "bins": [-0.015029466710984707, -0.014619349502027035, -0.014209232293069363, -0.01379911508411169, -0.013388997875154018, -0.012978880666196346, -0.0125687625259161, -0.012158645316958427, -0.011748528108000755, -0.011338410899043083, -0.010928293690085411, -0.010518176481127739, -0.010108059272170067, -0.009697942063212395, -0.009287824854254723, -0.00887770764529705, -0.008467590436339378, -0.008057473227381706, -0.007647356018424034, -0.007237238809466362, -0.00682712160050869, -0.006417004391551018, -0.006006886716932058, -0.005596769507974386, -0.005186651833355427, -0.004776534624397755, -0.0043664174154400826, -0.00395630020648241, -0.0035461827646940947, -0.0031360655557364225, -0.0027259481139481068, -0.0023158309049904346, -0.0019057132303714752, -0.001495596021413803, -0.0010854786960408092, -0.0006753613706678152, -0.0002652441617101431, 0.00014487304724752903, 0.0005549904890358448, 0.0009651076979935169, 0.0013752244412899017, 0.0017853416502475739, 0.002195458859205246, 0.0026055763009935617, 0.003015693509951234, 0.003425810718908906, 0.0038359281606972218, 0.004246045369654894, 0.004656163044273853, 0.005066280253231525, 0.0054763974621891975, 0.00588651467114687, 0.006296631880104542, 0.006706749089062214, 0.007116866763681173, 0.0075269839726388454, 0.007937101647257805, 0.008347218856215477, 0.008757336065173149, 0.009167453274130821, 0.009577570483088493, 0.009987687692046165, 0.010397804901003838, 0.01080792210996151, 0.011218039318919182]}, "gradients/linear.0.weight": {"_type": "histogram", "values": [1.0, 1.0, 3.0, 1.0, 0.0, 2.0, 1.0, 1.0, 5.0, 3.0, 4.0, 11.0, 11.0, 14.0, 16.0, 31.0, 30.0, 34.0, 49.0, 57.0, 65.0, 90.0, 109.0, 126.0, 171.0, 190.0, 254.0, 315.0, 373.0, 428.0, 572.0, 786.0, 1311.0, 2340.0, 11863.0, 1844.0, 1049.0, 730.0, 557.0, 382.0, 295.0, 230.0, 166.0, 127.0, 110.0, 90.0, 68.0, 42.0, 36.0, 28.0, 25.0, 8.0, 11.0, 3.0, 5.0, 4.0, 3.0, 3.0, 1.0, 0.0, 1.0, 1.0, 0.0, 1.0], "bins": [-0.06107323616743088, -0.05929980427026749, -0.057526372373104095, -0.055752940475940704, -0.05397951230406761, -0.05220608040690422, -0.05043264850974083, -0.04865921661257744, -0.046885788440704346, -0.045112356543540955, -0.043338924646377563, -0.04156549274921417, -0.03979206457734108, -0.03801863268017769, -0.0362452007830143, -0.034471768885850906, -0.032698336988687515, -0.030924905091524124, -0.029151475057005882, -0.02737804315984249, -0.02560461312532425, -0.023831181228160858, -0.022057749330997467, -0.020284317433834076, -0.018510885536670685, -0.016737453639507294, -0.014964023604989052, -0.01319059170782566, -0.011417160741984844, -0.009643729776144028, -0.007870297878980637, -0.00609686691313982, -0.004323434084653854, -0.0025500028859823942, -0.0007765716873109341, 0.0009968597441911697, 0.0027702907100319862, 0.004543721675872803, 0.006317153573036194, 0.00809058453887701, 0.009864013642072678, 0.011637444607913494, 0.01341087557375431, 0.015184307470917702, 0.016957737505435944, 0.018731169402599335, 0.020504601299762726, 0.022278033196926117, 0.024051465094089508, 0.0258248969912529, 0.02759832702577114, 0.029371758922934532, 0.031145188957452774, 0.032918620854616165, 0.034692052751779556, 0.03646548464894295, 0.03823891282081604, 0.04001234471797943, 0.04178577661514282, 0.04355920851230621, 0.045332636684179306, 0.0471060685813427, 0.04887950047850609, 0.05065293237566948, 0.05242636427283287]}, "gradients/convolution.5.weight": {"_type": "histogram", "values": [1.0, 0.0, 0.0, 0.0, 0.0, 0.0, 0.0, 0.0, 0.0, 0.0, 0.0, 0.0, 0.0, 0.0, 0.0, 0.0, 0.0, 0.0, 0.0, 0.0, 0.0, 0.0, 0.0, 0.0, 0.0, 0.0, 0.0, 0.0, 0.0, 0.0, 0.0, 0.0, 0.0, 0.0, 0.0, 1.0, 0.0, 0.0, 1.0, 1.0, 0.0, 0.0, 0.0, 1.0, 0.0, 0.0, 0.0, 0.0, 0.0, 0.0, 0.0, 1.0, 0.0, 0.0, 0.0, 0.0, 0.0, 0.0, 0.0, 0.0, 0.0, 1.0, 0.0, 1.0], "bins": [-0.10503774136304855, -0.10279126465320587, -0.10054478049278259, -0.09829830378293991, -0.09605181962251663, -0.09380534291267395, -0.09155885875225067, -0.08931238204240799, -0.08706590533256531, -0.08481942862272263, -0.08257294446229935, -0.08032646775245667, -0.07807998359203339, -0.0758335068821907, -0.07358703017234802, -0.07134054601192474, -0.06909406185150146, -0.06684758514165878, -0.0646011009812355, -0.06235462427139282, -0.06010814383625984, -0.05786166340112686, -0.05561518296599388, -0.0533687025308609, -0.05112222582101822, -0.04887574538588524, -0.04662926495075226, -0.044382788240909576, -0.042136307805776596, -0.039889827370643616, -0.037643346935510635, -0.035396866500377655, -0.03315039351582527, -0.03090391308069229, -0.02865743450820446, -0.02641095407307148, -0.02416447550058365, -0.02191799506545067, -0.019671514630317688, -0.017425036057829857, -0.015178557485342026, -0.01293207798153162, -0.010685598477721214, -0.008439118042588234, -0.006192638538777828, -0.0039461590349674225, -0.0016996785998344421, 0.000546799972653389, 0.0027932822704315186, 0.005039761774241924, 0.007286241743713617, 0.00953272171318531, 0.011779201216995716, 0.014025680720806122, 0.016272161155939102, 0.018518639728426933, 0.020765120163559914, 0.023011600598692894, 0.025258079171180725, 0.027504559606313705, 0.029751040041446686, 0.03199751675128937, 0.034244000911712646, 0.03649047762155533, 0.03873695805668831]}, "gradients/convolution.5.bias": {"_type": "histogram", "values": [1.0, 0.0, 0.0, 0.0, 0.0, 0.0, 0.0, 0.0, 0.0, 0.0, 0.0, 1.0, 0.0, 0.0, 0.0, 1.0, 0.0, 0.0, 0.0, 0.0, 0.0, 0.0, 0.0, 0.0, 1.0, 0.0, 0.0, 0.0, 0.0, 0.0, 0.0, 0.0, 0.0, 0.0, 0.0, 1.0, 0.0, 0.0, 0.0, 0.0, 0.0, 0.0, 0.0, 0.0, 0.0, 1.0, 1.0, 0.0, 0.0, 0.0, 0.0, 0.0, 0.0, 0.0, 0.0, 0.0, 0.0, 0.0, 0.0, 0.0, 0.0, 0.0, 0.0, 1.0], "bins": [-0.0452549010515213, -0.04386821761727333, -0.04248153045773506, -0.04109484702348709, -0.03970815986394882, -0.03832147642970085, -0.03693479299545288, -0.03554810583591461, -0.03416142240166664, -0.03277473896741867, -0.0313880518078804, -0.03000136837363243, -0.02861468307673931, -0.02722799777984619, -0.02584131434559822, -0.0244546290487051, -0.02306794375181198, -0.02168125845491886, -0.02029457315802574, -0.01890788972377777, -0.01752120442688465, -0.01613451912999153, -0.014747834764420986, -0.013361150398850441, -0.011974465101957321, -0.010587779805064201, -0.009201095439493656, -0.007814411073923111, -0.006427725777029991, -0.005041040945798159, -0.003654356114566326, -0.002267671748995781, -0.0008809901773929596, 0.0005056946538388729, 0.0018923794850707054, 0.003279064316302538, 0.00466574914753437, 0.006052433978766203, 0.007439118809998035, 0.00882580317556858, 0.0102124884724617, 0.01159917376935482, 0.012985858134925365, 0.01437254250049591, 0.01575922779738903, 0.01714591309428215, 0.01853259652853012, 0.01991928182542324, 0.02130596712231636, 0.02269265241920948, 0.0240793377161026, 0.02546602115035057, 0.02685270644724369, 0.02823939174413681, 0.02962607517838478, 0.0310127604752779, 0.03239944577217102, 0.03378612920641899, 0.03517281636595726, 0.03655949980020523, 0.0379461869597435, 0.03933287039399147, 0.04071955382823944, 0.04210624098777771, 0.04349292442202568]}, "gradients/convolution.4.weight": {"_type": "histogram", "values": [1.0, 0.0, 0.0, 0.0, 2.0, 0.0, 1.0, 0.0, 0.0, 1.0, 2.0, 2.0, 3.0, 1.0, 2.0, 2.0, 4.0, 6.0, 3.0, 7.0, 8.0, 13.0, 7.0, 13.0, 11.0, 13.0, 7.0, 12.0, 10.0, 8.0, 8.0, 16.0, 12.0, 11.0, 14.0, 11.0, 5.0, 3.0, 3.0, 3.0, 9.0, 6.0, 3.0, 3.0, 2.0, 5.0, 6.0, 1.0, 2.0, 4.0, 1.0, 3.0, 2.0, 4.0, 1.0, 2.0, 1.0, 1.0, 1.0, 0.0, 1.0, 3.0, 0.0, 2.0], "bins": [-0.12171747535467148, -0.11765823513269424, -0.11359899491071701, -0.10953975468873978, -0.10548051446676254, -0.10142127424478531, -0.09736203402280807, -0.09330279380083084, -0.08924355357885361, -0.08518431335687637, -0.08112507313489914, -0.0770658329129219, -0.07300659269094467, -0.06894735246896744, -0.0648881122469902, -0.06082887202501297, -0.056769631803035736, -0.0527103915810585, -0.04865115135908127, -0.044591911137104034, -0.0405326709151268, -0.03647343069314957, -0.03241419047117233, -0.0283549502491951, -0.024295710027217865, -0.02023646980524063, -0.016177229583263397, -0.012117989361286163, -0.00805874913930893, -0.0039995089173316956, 5.973130464553833e-05, 0.004118971526622772, 0.00817820429801941, 0.012237444519996643, 0.016296684741973877, 0.02035592496395111, 0.024415165185928345, 0.02847440540790558, 0.03253364562988281, 0.036592885851860046, 0.04065212607383728, 0.044711366295814514, 0.04877060651779175, 0.05282984673976898, 0.056889086961746216, 0.06094832718372345, 0.06500756740570068, 0.06906680762767792, 0.07312604784965515, 0.07718528807163239, 0.08124452829360962, 0.08530376851558685, 0.08936300873756409, 0.09342224895954132, 0.09748148918151855, 0.10154072940349579, 0.10559996962547302, 0.10965920984745026, 0.11371845006942749, 0.11777769029140472, 0.12183693051338196, 0.1258961707353592, 0.12995541095733643, 0.13401465117931366, 0.1380738914012909]}, "gradients/convolution.4.bias": {"_type": "histogram", "values": [1.0, 0.0, 0.0, 0.0, 0.0, 0.0, 0.0, 0.0, 0.0, 0.0, 1.0, 0.0, 0.0, 0.0, 0.0, 0.0, 0.0, 0.0, 1.0, 0.0, 0.0, 0.0, 0.0, 0.0, 0.0, 0.0, 0.0, 0.0, 0.0, 0.0, 0.0, 0.0, 0.0, 0.0, 0.0, 0.0, 0.0, 0.0, 0.0, 1.0, 1.0, 0.0, 0.0, 0.0, 0.0, 0.0, 1.0, 0.0, 0.0, 0.0, 0.0, 0.0, 0.0, 1.0, 0.0, 0.0, 0.0, 0.0, 0.0, 0.0, 0.0, 0.0, 0.0, 1.0], "bins": [-1.734122633934021e-06, -1.6907142708078027e-06, -1.6473059076815844e-06, -1.603897544555366e-06, -1.5604891814291477e-06, -1.5170808183029294e-06, -1.473672455176711e-06, -1.4302640920504928e-06, -1.3868557289242744e-06, -1.3434473657980561e-06, -1.3000390026718378e-06, -1.2566306395456195e-06, -1.2132222764194012e-06, -1.1698139132931828e-06, -1.1264055501669645e-06, -1.0829971870407462e-06, -1.0395888239145279e-06, -9.961804607883096e-07, -9.527720976620913e-07, -9.093637345358729e-07, -8.659553714096546e-07, -8.225470082834363e-07, -7.79138645157218e-07, -7.357302820309997e-07, -6.923219189047813e-07, -6.48913555778563e-07, -6.055051926523447e-07, -5.620968295261264e-07, -5.186884663999081e-07, -4.7528010327368975e-07, -4.3187174014747143e-07, -3.884633770212531e-07, -3.450550138950348e-07, -3.0164665076881647e-07, -2.5823828764259815e-07, -2.1482992451637983e-07, -1.7142156139016151e-07, -1.280131982639432e-07, -8.460483513772488e-08, -4.119647201150656e-08, 2.2118911147117615e-09, 4.562025424093008e-08, 8.90286173671484e-08, 1.3243698049336672e-07, 1.7584534361958504e-07, 2.1925370674580336e-07, 2.626620698720217e-07, 3.0607043299824e-07, 3.494787961244583e-07, 3.9288715925067663e-07, 4.3629552237689495e-07, 4.797038855031133e-07, 5.231122486293316e-07, 5.665206117555499e-07, 6.099289748817682e-07, 6.533373380079865e-07, 6.967457011342049e-07, 7.401540642604232e-07, 7.835624273866415e-07, 8.269707905128598e-07, 8.703791536390781e-07, 9.137875167652965e-07, 9.571958798915148e-07, 1.000604243017733e-06, 1.0440126061439514e-06]}, "gradients/convolution.1.weight": {"_type": "histogram", "values": [2.0, 0.0, 0.0, 0.0, 0.0, 0.0, 0.0, 0.0, 0.0, 0.0, 0.0, 0.0, 0.0, 0.0, 0.0, 0.0, 0.0, 0.0, 0.0, 0.0, 0.0, 0.0, 0.0, 0.0, 0.0, 0.0, 0.0, 0.0, 0.0, 0.0, 0.0, 0.0, 0.0, 0.0, 0.0, 0.0, 0.0, 0.0, 0.0, 0.0, 0.0, 0.0, 0.0, 0.0, 0.0, 0.0, 0.0, 0.0, 0.0, 0.0, 0.0, 0.0, 1.0, 0.0, 0.0, 0.0, 0.0, 0.0, 0.0, 0.0, 0.0, 0.0, 0.0, 1.0], "bins": [-0.050350796431303024, -0.04860812425613403, -0.046865448355674744, -0.045122772455215454, -0.04338010028004646, -0.04163742810487747, -0.03989475220441818, -0.03815207630395889, -0.0364094041287899, -0.03466673195362091, -0.03292405605316162, -0.03118138201534748, -0.02943870797753334, -0.0276960339397192, -0.02595335990190506, -0.02421068586409092, -0.02246801182627678, -0.02072533778846264, -0.0189826637506485, -0.017239989712834358, -0.015497315675020218, -0.013754641637206078, -0.012011967599391937, -0.010269293561577797, -0.008526619523763657, -0.006783945485949516, -0.005041271448135376, -0.0032985974103212357, -0.0015559233725070953, 0.00018675066530704498, 0.0019294247031211853, 0.0036720987409353256, 0.005414776504039764, 0.007157450541853905, 0.008900124579668045, 0.010642798617482185, 0.012385472655296326, 0.014128146693110466, 0.015870820730924606, 0.017613494768738747, 0.019356168806552887, 0.021098842844367027, 0.022841516882181168, 0.024584190919995308, 0.026326864957809448, 0.02806953899562359, 0.02981221303343773, 0.03155488520860672, 0.03329756110906601, 0.0350402370095253, 0.03678290918469429, 0.03852558135986328, 0.04026825726032257, 0.04201093316078186, 0.04375360533595085, 0.04549627751111984, 0.04723895341157913, 0.04898162931203842, 0.05072430148720741, 0.052466973662376404, 0.05420964956283569, 0.05595232546329498, 0.057694997638463974, 0.059437669813632965, 0.061180345714092255]}, "gradients/convolution.1.bias": {"_type": "histogram", "values": [1.0, 0.0, 0.0, 0.0, 0.0, 1.0, 0.0, 0.0, 0.0, 0.0, 0.0, 0.0, 0.0, 0.0, 0.0, 0.0, 0.0, 0.0, 0.0, 0.0, 0.0, 0.0, 0.0, 0.0, 0.0, 0.0, 0.0, 0.0, 0.0, 0.0, 0.0, 0.0, 0.0, 0.0, 0.0, 0.0, 0.0, 0.0, 0.0, 0.0, 0.0, 0.0, 0.0, 0.0, 0.0, 0.0, 0.0, 0.0, 1.0, 0.0, 0.0, 0.0, 0.0, 0.0, 0.0, 0.0, 0.0, 0.0, 0.0, 0.0, 0.0, 0.0, 0.0, 1.0], "bins": [-0.02328694425523281, -0.022464053705334663, -0.021641161292791367, -0.02081827074289322, -0.01999538019299507, -0.019172489643096924, -0.018349597230553627, -0.01752670668065548, -0.016703814268112183, -0.015880923718214035, -0.015058032236993313, -0.01423514075577259, -0.013412250205874443, -0.01258935872465372, -0.011766467243432999, -0.010943576693534851, -0.010120686143636703, -0.009297794662415981, -0.008474904112517834, -0.0076520126312971115, -0.006829121615737677, -0.006006230600178242, -0.0051833391189575195, -0.004360448103398085, -0.003537556156516075, -0.0027146651409566402, -0.0018917738925665617, -0.0010688826441764832, -0.00024599162861704826, 0.0005768993869423866, 0.0013997908681631088, 0.0022226818837225437, 0.0030455701053142548, 0.0038684611208736897, 0.0046913521364331245, 0.005514243617653847, 0.006337134633213282, 0.0071600256487727165, 0.007982917129993439, 0.008805807679891586, 0.009628698229789734, 0.010451589711010456, 0.011274480260908604, 0.012097371742129326, 0.012920262292027473, 0.013743153773248196, 0.014566045254468918, 0.015388935804367065, 0.016211828216910362, 0.01703471876680851, 0.017857611179351807, 0.018680501729249954, 0.019503392279148102, 0.02032628282904625, 0.021149175241589546, 0.021972065791487694, 0.02279495820403099, 0.023617848753929138, 0.024440741166472435, 0.025263631716370583, 0.02608652226626873, 0.026909414678812027, 0.027732305228710175, 0.028555195778608322, 0.02937808632850647]}, "gradients/convolution.0.weight": {"_type": "histogram", "values": [1.0, 0.0, 0.0, 0.0, 0.0, 0.0, 0.0, 0.0, 0.0, 0.0, 0.0, 0.0, 0.0, 0.0, 0.0, 0.0, 0.0, 0.0, 1.0, 1.0, 0.0, 0.0, 1.0, 0.0, 0.0, 0.0, 1.0, 1.0, 2.0, 1.0, 1.0, 0.0, 1.0, 1.0, 1.0, 3.0, 0.0, 1.0, 0.0, 0.0, 1.0, 0.0, 3.0, 3.0, 0.0, 2.0, 1.0, 0.0, 2.0, 1.0, 0.0, 0.0, 0.0, 0.0, 0.0, 0.0, 2.0, 0.0, 0.0, 0.0, 1.0, 1.0, 0.0, 2.0], "bins": [-0.19058749079704285, -0.1867845356464386, -0.18298159539699554, -0.1791786402463913, -0.17537569999694824, -0.171572744846344, -0.16776980459690094, -0.1639668494462967, -0.16016390919685364, -0.1563609540462494, -0.15255801379680634, -0.1487550586462021, -0.14495211839675903, -0.14114916324615479, -0.13734622299671173, -0.13354326784610748, -0.12974032759666443, -0.12593737244606018, -0.12213443219661713, -0.11833148449659348, -0.11452853679656982, -0.11072558909654617, -0.10692264139652252, -0.10311969369649887, -0.09931673854589462, -0.09551379084587097, -0.09171084314584732, -0.08790789544582367, -0.08410494774580002, -0.08030200004577637, -0.07649905234575272, -0.07269610464572906, -0.06889316439628601, -0.06509021669626236, -0.06128726899623871, -0.05748432129621506, -0.053681373596191406, -0.049878425896167755, -0.046075478196144104, -0.04227253049612045, -0.0384695790708065, -0.03466663137078285, -0.0308636836707592, -0.02706073597073555, -0.0232577882707119, -0.0194548387080431, -0.015651891008019447, -0.011848943307995796, -0.008045993745326996, -0.004243046045303345, -0.0004400978796184063, 0.003362850286066532, 0.007165797986090183, 0.010968746617436409, 0.01477169431746006, 0.01857464201748371, 0.022377589717507362, 0.026180537417531013, 0.029983485117554665, 0.033786434680223465, 0.037589382380247116, 0.04139233008027077, 0.04519527778029442, 0.04899822548031807, 0.05280117318034172]}, "gradients/convolution.0.bias": {"_type": "histogram", "values": [1.0, 0.0, 0.0, 0.0, 0.0, 0.0, 0.0, 0.0, 0.0, 0.0, 0.0, 0.0, 0.0, 0.0, 0.0, 0.0, 0.0, 0.0, 0.0, 0.0, 0.0, 0.0, 0.0, 0.0, 0.0, 0.0, 0.0, 0.0, 0.0, 0.0, 0.0, 0.0, 1.0, 0.0, 0.0, 0.0, 0.0, 0.0, 0.0, 0.0, 0.0, 0.0, 0.0, 0.0, 0.0, 0.0, 0.0, 0.0, 0.0, 0.0, 0.0, 0.0, 0.0, 0.0, 0.0, 0.0, 0.0, 0.0, 0.0, 0.0, 0.0, 1.0, 0.0, 1.0], "bins": [-3.7789344787597656e-05, -3.743079287232831e-05, -3.7072240957058966e-05, -3.671368904178962e-05, -3.6355137126520276e-05, -3.599658521125093e-05, -3.5638033295981586e-05, -3.527948138071224e-05, -3.4920929465442896e-05, -3.456237755017355e-05, -3.4203825634904206e-05, -3.384527371963486e-05, -3.3486721804365516e-05, -3.312816988909617e-05, -3.2769617973826826e-05, -3.241106605855748e-05, -3.2052514143288136e-05, -3.169396222801879e-05, -3.1335410312749445e-05, -3.09768583974801e-05, -3.0618306482210755e-05, -3.025975456694141e-05, -2.9901202651672065e-05, -2.954265073640272e-05, -2.9184098821133375e-05, -2.882554690586403e-05, -2.8466994990594685e-05, -2.810844307532534e-05, -2.7749891160055995e-05, -2.739133924478665e-05, -2.7032787329517305e-05, -2.667423541424796e-05, -2.6315683498978615e-05, -2.595713158370927e-05, -2.5598579668439925e-05, -2.524002775317058e-05, -2.4881475837901235e-05, -2.452292392263189e-05, -2.4164372007362545e-05, -2.38058200920932e-05, -2.3447268176823854e-05, -2.308871626155451e-05, -2.2730164346285164e-05, -2.237161243101582e-05, -2.2013060515746474e-05, -2.165450860047713e-05, -2.1295956685207784e-05, -2.093740476993844e-05, -2.0578852854669094e-05, -2.022030093939975e-05, -1.9861749024130404e-05, -1.950319710886106e-05, -1.9144645193591714e-05, -1.878609327832237e-05, -1.8427541363053024e-05, -1.806898944778368e-05, -1.7710437532514334e-05, -1.735188561724499e-05, -1.6993333701975644e-05, -1.66347817867063e-05, -1.6276229871436954e-05, -1.591767795616761e-05, -1.5559126040898263e-05, -1.5200574125628918e-05, -1.4842022210359573e-05]}, "_wandb": {"runtime": 16}}