{"loss": 0.13294929265975952, "_runtime": 26, "_timestamp": 1641748487, "_step": 10, "gradients/linear.3.bias": {"_type": "histogram", "values": [1.0, 0.0, 0.0, 0.0, 0.0, 1.0, 0.0, 0.0, 0.0, 0.0, 0.0, 0.0, 0.0, 0.0, 1.0, 0.0, 0.0, 0.0, 0.0, 0.0, 0.0, 0.0, 0.0, 1.0, 0.0, 0.0, 0.0, 0.0, 0.0, 1.0, 0.0, 0.0, 0.0, 0.0, 0.0, 0.0, 0.0, 2.0, 0.0, 1.0, 0.0, 0.0, 0.0, 0.0, 0.0, 0.0, 0.0, 0.0, 0.0, 0.0, 0.0, 0.0, 0.0, 0.0, 0.0, 0.0, 0.0, 0.0, 0.0, 1.0, 0.0, 0.0, 0.0, 1.0], "bins": [-0.015543550252914429, -0.015040838159620762, -0.01453812513500452, -0.014035413041710854, -0.013532700948417187, -0.01302998885512352, -0.012527275830507278, -0.012024563737213612, -0.011521851643919945, -0.011019139550626278, -0.010516426526010036, -0.01001371443271637, -0.009511002339422703, -0.009008290246129036, -0.008505577221512794, -0.008002865128219128, -0.007500152103602886, -0.006997439544647932, -0.006494727451354265, -0.005992014892399311, -0.005489302799105644, -0.00498659024015069, -0.004483877681195736, -0.003981165587902069, -0.0034784525632858276, -0.002975740237161517, -0.0024730279110372066, -0.0019703153520822525, -0.001467603025957942, -0.0009648906998336315, -0.00046217814087867737, 4.0534185245633125e-05, 0.0005432460457086563, 0.0010459583718329668, 0.0015486708143725991, 0.0020513832569122314, 0.002554095583036542, 0.0030568079091608524, 0.0035595204681158066, 0.004062232561409473, 0.00456494465470314, 0.005067657213658094, 0.005570369306951761, 0.006073081865906715, 0.006575793959200382, 0.007078506518155336, 0.0075812190771102905, 0.008083931170403957, 0.008586644195020199, 0.009089356288313866, 0.009592069312930107, 0.010094781406223774, 0.01059749349951744, 0.011100206524133682, 0.011602918617427349, 0.012105630710721016, 0.012608343735337257, 0.013111055828630924, 0.013613768853247166, 0.014116480946540833, 0.0146191930398345, 0.015121905133128166, 0.015624618157744408, 0.01612733118236065, 0.01663004234433174]}, "gradients/linear.3.weight": {"_type": "histogram", "values": [1.0, 1.0, 0.0, 0.0, 0.0, 0.0, 0.0, 0.0, 0.0, 0.0, 1.0, 1.0, 1.0, 0.0, 0.0, 1.0, 3.0, 2.0, 3.0, 4.0, 5.0, 1.0, 4.0, 7.0, 9.0, 9.0, 11.0, 6.0, 8.0, 19.0, 31.0, 271.0, 90.0, 56.0, 30.0, 16.0, 10.0, 7.0, 3.0, 6.0, 4.0, 1.0, 3.0, 3.0, 0.0, 3.0, 1.0, 1.0, 2.0, 0.0, 3.0, 0.0, 0.0, 0.0, 0.0, 0.0, 1.0, 0.0, 0.0, 0.0, 0.0, 0.0, 0.0, 1.0], "bins": [-0.1264045685529709, -0.12242285907268524, -0.1184411495923996, -0.11445944011211395, -0.11047773063182831, -0.10649602115154266, -0.10251430422067642, -0.09853259474039078, -0.09455088526010513, -0.09056917577981949, -0.08658746629953384, -0.0826057568192482, -0.07862403988838196, -0.07464233040809631, -0.07066062092781067, -0.06667891144752502, -0.06269720196723938, -0.058715492486953735, -0.05473378300666809, -0.05075206980109215, -0.0467703603208065, -0.04278865084052086, -0.038806937634944916, -0.03482522815465927, -0.030843518674373627, -0.026861809194087982, -0.02288009785115719, -0.018898386508226395, -0.01491667702794075, -0.010934967547655106, -0.006953256204724312, -0.002971544861793518, 0.0010101795196533203, 0.0049918899312615395, 0.008973600342869759, 0.012955310754477978, 0.016937021166086197, 0.02091873064637184, 0.024900441989302635, 0.02888215333223343, 0.032863862812519073, 0.03684557229280472, 0.04082728177309036, 0.044808994978666306, 0.04879070445895195, 0.052772413939237595, 0.05675412714481354, 0.06073583662509918, 0.06471754610538483, 0.06869925558567047, 0.07268096506595612, 0.07666267454624176, 0.0806443840265274, 0.08462609350681305, 0.08860781043767929, 0.09258951991796494, 0.09657122939825058, 0.10055293887853622, 0.10453464835882187, 0.10851635783910751, 0.11249807476997375, 0.1164797842502594, 0.12046149373054504, 0.12444320321083069, 0.12842491269111633]}, "gradients/linear.0.bias": {"_type": "histogram", "values": [1.0, 0.0, 0.0, 0.0, 0.0, 0.0, 0.0, 0.0, 0.0, 0.0, 0.0, 0.0, 1.0, 1.0, 0.0, 1.0, 0.0, 3.0, 1.0, 2.0, 1.0, 3.0, 1.0, 0.0, 2.0, 0.0, 1.0, 4.0, 2.0, 17.0, 1.0, 5.0, 1.0, 1.0, 2.0, 3.0, 0.0, 1.0, 0.0, 0.0, 1.0, 0.0, 1.0, 1.0, 0.0, 1.0, 0.0, 3.0, 0.0, 0.0, 0.0, 0.0, 0.0, 0.0, 0.0, 1.0, 0.0, 0.0, 0.0, 0.0, 0.0, 0.0, 0.0, 1.0], "bins": [-0.009582214057445526, -0.009258356876671314, -0.008934499695897102, -0.00861064251512289, -0.008286785334348679, -0.007962927222251892, -0.00763907004147768, -0.007315212860703468, -0.0069913556799292564, -0.0066674984991550446, -0.006343641318380833, -0.0060197836719453335, -0.005695926491171122, -0.00537206931039691, -0.0050482116639614105, -0.004724354483187199, -0.004400497302412987, -0.004076640121638775, -0.0037527827080339193, -0.003428925294429064, -0.003105068113654852, -0.00278121093288064, -0.0024573535192757845, -0.002133496105670929, -0.001809638924896717, -0.0014857816277071834, -0.0011619243305176497, -0.0008380670333281159, -0.0005142097361385822, -0.00019035243894904852, 0.0001335048582404852, 0.00045736227184534073, 0.0007812203839421272, 0.001105077681131661, 0.0014289349783211946, 0.0017527922755107284, 0.002076649572700262, 0.002400506753474474, 0.0027243641670793295, 0.003048221580684185, 0.003372078761458397, 0.003695935942232609, 0.004019793123006821, 0.00434365076944232, 0.004667507950216532, 0.004991365130990744, 0.005315222777426243, 0.005639079958200455, 0.005962937138974667, 0.0062867943197488785, 0.00661065150052309, 0.0069345091469585896, 0.0072583663277328014, 0.007582223508507013, 0.007906081154942513, 0.008229938335716724, 0.008553795516490936, 0.008877652697265148, 0.00920150987803936, 0.009525367058813572, 0.009849224239587784, 0.01017308235168457, 0.010496939532458782, 0.010820796713232994, 0.011144653894007206]}, "gradients/linear.0.weight": {"_type": "histogram", "values": [2.0, 0.0, 1.0, 3.0, 4.0, 4.0, 3.0, 5.0, 8.0, 5.0, 15.0, 7.0, 9.0, 31.0, 32.0, 37.0, 60.0, 71.0, 96.0, 149.0, 201.0, 248.0, 313.0, 440.0, 626.0, 968.0, 1873.0, 14213.0, 2016.0, 1017.0, 594.0, 421.0, 363.0, 235.0, 200.0, 155.0, 125.0, 120.0, 78.0, 73.0, 54.0, 37.0, 36.0, 30.0, 24.0, 21.0, 11.0, 11.0, 8.0, 6.0, 7.0, 10.0, 3.0, 4.0, 0.0, 1.0, 1.0, 0.0, 2.0, 0.0, 0.0, 0.0, 0.0, 1.0], "bins": [-0.04378844425082207, -0.04220694303512573, -0.040625445544719696, -0.03904394432902336, -0.037462446838617325, -0.03588094562292099, -0.034299448132514954, -0.03271794691681862, -0.031136447563767433, -0.029554948210716248, -0.027973448857665062, -0.026391949504613876, -0.02481044828891754, -0.023228950798511505, -0.02164744958281517, -0.020065950229763985, -0.0184844508767128, -0.016902951523661613, -0.015321452170610428, -0.013739951886236668, -0.012158452533185482, -0.010576953180134296, -0.008995452895760536, -0.007413953542709351, -0.005832452327013016, -0.00425095297396183, -0.0026694531552493572, -0.0010879533365368843, 0.0004935460165143013, 0.002075045369565487, 0.003656545653939247, 0.005238045006990433, 0.006819538772106171, 0.008401038125157356, 0.009982537478208542, 0.011564037762582302, 0.013145537115633488, 0.014727036468684673, 0.016308536753058434, 0.01789003610610962, 0.019471533596515656, 0.02105303294956684, 0.022634532302618027, 0.02421603351831436, 0.025797531008720398, 0.027379032224416733, 0.02896053157746792, 0.030542030930519104, 0.03212353214621544, 0.033705033361911774, 0.03528653085231781, 0.036868032068014145, 0.03844952955842018, 0.040031030774116516, 0.04161252826452255, 0.04319402948021889, 0.04477553069591522, 0.04635703191161156, 0.04793852940201759, 0.04952003061771393, 0.051101528108119965, 0.0526830293238163, 0.054264530539512634, 0.05584602802991867, 0.05742752552032471]}, "gradients/convolution.5.weight": {"_type": "histogram", "values": [1.0, 0.0, 0.0, 0.0, 0.0, 0.0, 0.0, 0.0, 0.0, 0.0, 0.0, 0.0, 0.0, 0.0, 0.0, 1.0, 0.0, 0.0, 0.0, 0.0, 0.0, 0.0, 0.0, 0.0, 0.0, 0.0, 0.0, 0.0, 1.0, 0.0, 0.0, 0.0, 0.0, 1.0, 0.0, 0.0, 0.0, 1.0, 0.0, 0.0, 0.0, 0.0, 0.0, 0.0, 0.0, 1.0, 0.0, 1.0, 0.0, 0.0, 0.0, 0.0, 0.0, 0.0, 0.0, 0.0, 0.0, 0.0, 0.0, 0.0, 0.0, 0.0, 0.0, 1.0], "bins": [-0.06923499703407288, -0.06741712987422943, -0.06559926271438599, -0.06378139555454254, -0.061963532119989395, -0.06014566496014595, -0.058327801525592804, -0.05650993436574936, -0.054692067205905914, -0.05287420004606247, -0.051056332886219025, -0.04923846945166588, -0.047420602291822433, -0.04560273513197899, -0.04378487169742584, -0.0419670045375824, -0.04014913737773895, -0.03833127021789551, -0.03651340305805206, -0.03469553962349892, -0.03287767246365547, -0.031059805303812027, -0.02924194000661373, -0.027424074709415436, -0.02560620754957199, -0.023788340389728546, -0.02197047509253025, -0.020152609795331955, -0.01833474263548851, -0.016516875475645065, -0.01469901017844677, -0.0128811439499259, -0.011063281446695328, -0.009245415218174458, -0.007427548989653587, -0.005609682761132717, -0.003791816532611847, -0.0019739503040909767, -0.0001560840755701065, 0.0016617821529507637, 0.003479648381471634, 0.005297514609992504, 0.007115380838513374, 0.008933247067034245, 0.010751113295555115, 0.012568979524075985, 0.014386845752596855, 0.01620471104979515, 0.018022578209638596, 0.01984044536948204, 0.021658310666680336, 0.02347617596387863, 0.025294043123722076, 0.02711191028356552, 0.028929775580763817, 0.030747640877962112, 0.03256550803780556, 0.034383375197649, 0.03620123863220215, 0.03801910579204559, 0.03983697295188904, 0.04165484011173248, 0.04347270727157593, 0.045290570706129074, 0.04710843786597252]}, "gradients/convolution.5.bias": {"_type": "histogram", "values": [1.0, 0.0, 0.0, 0.0, 0.0, 0.0, 0.0, 0.0, 0.0, 0.0, 0.0, 0.0, 0.0, 0.0, 1.0, 0.0, 0.0, 1.0, 0.0, 0.0, 0.0, 0.0, 0.0, 0.0, 1.0, 0.0, 1.0, 0.0, 0.0, 0.0, 0.0, 0.0, 0.0, 0.0, 0.0, 0.0, 0.0, 0.0, 0.0, 0.0, 1.0, 1.0, 0.0, 0.0, 0.0, 0.0, 0.0, 0.0, 0.0, 0.0, 0.0, 0.0, 0.0, 0.0, 0.0, 0.0, 0.0, 0.0, 0.0, 0.0, 0.0, 0.0, 0.0, 1.0], "bins": [-0.03098837286233902, -0.029580604285001755, -0.02817283570766449, -0.026765067130327225, -0.02535730041563511, -0.023949531838297844, -0.02254176326096058, -0.021133996546268463, -0.019726227968931198, -0.018318459391593933, -0.016910690814256668, -0.015502923168241978, -0.014095155522227287, -0.012687386944890022, -0.011279618367552757, -0.009871850721538067, -0.008464081212878227, -0.0070563131012022495, -0.005648544989526272, -0.004240776412189007, -0.002833008300513029, -0.0014252401888370514, -1.7471611499786377e-05, 0.001390296034514904, 0.0027980655431747437, 0.004205833654850721, 0.005613601766526699, 0.007021370343863964, 0.008429137989878654, 0.00983690656721592, 0.011244675144553185, 0.012652442790567875, 0.014060210436582565, 0.01546797901391983, 0.016875747591257095, 0.01828351616859436, 0.019691282883286476, 0.02109905146062374, 0.022506820037961006, 0.023914586752653122, 0.025322355329990387, 0.026730123907327652, 0.028137892484664917, 0.029545661062002182, 0.030953427776694298, 0.032361194491386414, 0.03376896679401398, 0.035176731646060944, 0.03658450394868851, 0.03799227252602577, 0.03940004110336304, 0.0408078096807003, 0.04221557825803757, 0.043623343110084534, 0.0450311154127121, 0.046438880264759064, 0.04784664884209633, 0.049254417419433594, 0.05066218599677086, 0.052069954574108124, 0.05347772315144539, 0.054885491728782654, 0.05629325658082962, 0.057701025158166885, 0.05910879373550415]}, "gradients/convolution.4.weight": {"_type": "histogram", "values": [1.0, 1.0, 3.0, 1.0, 4.0, 4.0, 0.0, 4.0, 4.0, 7.0, 9.0, 11.0, 8.0, 7.0, 10.0, 11.0, 11.0, 14.0, 28.0, 21.0, 21.0, 23.0, 8.0, 9.0, 6.0, 8.0, 5.0, 8.0, 2.0, 3.0, 3.0, 4.0, 5.0, 6.0, 3.0, 0.0, 3.0, 2.0, 1.0, 3.0, 1.0, 0.0, 0.0, 0.0, 0.0, 0.0, 1.0, 0.0, 0.0, 0.0, 0.0, 0.0, 1.0, 0.0, 0.0, 1.0, 1.0, 0.0, 0.0, 0.0, 0.0, 0.0, 0.0, 1.0], "bins": [-0.08822431415319443, -0.08368083089590073, -0.07913734763860703, -0.07459387183189392, -0.07005038857460022, -0.06550690531730652, -0.06096342206001282, -0.056419942528009415, -0.051876459270715714, -0.04733297601342201, -0.04278949648141861, -0.03824601322412491, -0.03370252996683121, -0.029159050434827805, -0.024615567177534103, -0.0200720876455307, -0.015528604388237, -0.010985122993588448, -0.006441640667617321, -0.0018981583416461945, 0.0026453230530023575, 0.007188804447650909, 0.01173228770494461, 0.016275767236948013, 0.020819254219532013, 0.025362735614180565, 0.029906217008829117, 0.03444970026612282, 0.03899317979812622, 0.04353666305541992, 0.04808014631271362, 0.052623625844717026, 0.057167112827301025, 0.06171059608459473, 0.06625407934188843, 0.07079756259918213, 0.07534103840589523, 0.07988452166318893, 0.08442800492048264, 0.08897148072719574, 0.09351496398448944, 0.09805844724178314, 0.10260193049907684, 0.10714541375637054, 0.11168888956308365, 0.11623237282037735, 0.12077585607767105, 0.12531933188438416, 0.12986281514167786, 0.13440629839897156, 0.13894978165626526, 0.14349326491355896, 0.14803674817085266, 0.15258023142814636, 0.15712371468544006, 0.16166718304157257, 0.16621068120002747, 0.17075416445732117, 0.17529764771461487, 0.17984113097190857, 0.18438461422920227, 0.18892809748649597, 0.19347158074378967, 0.19801504909992218, 0.20255853235721588]}, "gradients/convolution.4.bias": {"_type": "histogram", "values": [1.0, 0.0, 0.0, 0.0, 0.0, 0.0, 0.0, 0.0, 0.0, 0.0, 0.0, 1.0, 0.0, 0.0, 0.0, 1.0, 0.0, 0.0, 0.0, 0.0, 0.0, 1.0, 0.0, 0.0, 0.0, 0.0, 0.0, 0.0, 0.0, 0.0, 0.0, 0.0, 1.0, 1.0, 0.0, 0.0, 0.0, 0.0, 0.0, 0.0, 0.0, 0.0, 0.0, 0.0, 0.0, 0.0, 0.0, 1.0, 0.0, 0.0, 0.0, 0.0, 0.0, 0.0, 0.0, 0.0, 0.0, 0.0, 0.0, 0.0, 0.0, 0.0, 0.0, 1.0], "bins": [-4.991888999938965e-07, -4.867324605584145e-07, -4.7427602112293243e-07, -4.618195816874504e-07, -4.493631422519684e-07, -4.3690670281648636e-07, -4.2445026338100433e-07, -4.119938239455223e-07, -3.995373845100403e-07, -3.8708094507455826e-07, -3.7462450563907623e-07, -3.621680662035942e-07, -3.497116267681122e-07, -3.3725518733263016e-07, -3.2479874789714813e-07, -3.123423084616661e-07, -2.998858690261841e-07, -2.8742942959070206e-07, -2.7497299015522003e-07, -2.62516550719738e-07, -2.50060111284256e-07, -2.3760367184877396e-07, -2.2514723241329193e-07, -2.126907929778099e-07, -2.0023435354232788e-07, -1.8777791410684586e-07, -1.7532147467136383e-07, -1.628650352358818e-07, -1.5040859580039978e-07, -1.3795215636491776e-07, -1.2549571692943573e-07, -1.130392774939537e-07, -1.0058283805847168e-07, -8.812639862298965e-08, -7.566995918750763e-08, -6.32135197520256e-08, -5.075708031654358e-08, -3.8300640881061554e-08, -2.584420144557953e-08, -1.3387762010097504e-08, -9.313225746154785e-10, 1.1525116860866547e-08, 2.3981556296348572e-08, 3.64379957318306e-08, 4.889443516731262e-08, 6.135087460279465e-08, 7.380731403827667e-08, 8.62637534737587e-08, 9.872019290924072e-08, 1.1117663234472275e-07, 1.2363307178020477e-07, 1.360895112156868e-07, 1.4854595065116882e-07, 1.6100239008665085e-07, 1.7345882952213287e-07, 1.859152689576149e-07, 1.9837170839309692e-07, 2.1082814782857895e-07, 2.2328458726406097e-07, 2.35741026699543e-07, 2.48197466135025e-07, 2.6065390557050705e-07, 2.731103450059891e-07, 2.855667844414711e-07, 2.980232238769531e-07]}, "gradients/convolution.1.weight": {"_type": "histogram", "values": [1.0, 0.0, 0.0, 0.0, 0.0, 0.0, 0.0, 0.0, 0.0, 0.0, 0.0, 0.0, 0.0, 0.0, 0.0, 0.0, 0.0, 0.0, 0.0, 0.0, 0.0, 0.0, 0.0, 0.0, 0.0, 0.0, 0.0, 0.0, 0.0, 0.0, 0.0, 0.0, 0.0, 0.0, 0.0, 0.0, 1.0, 0.0, 0.0, 0.0, 0.0, 0.0, 0.0, 0.0, 0.0, 0.0, 0.0, 0.0, 0.0, 0.0, 0.0, 0.0, 0.0, 0.0, 0.0, 1.0, 0.0, 0.0, 0.0, 0.0, 0.0, 0.0, 0.0, 1.0], "bins": [-0.09249192476272583, -0.09006480127573013, -0.08763767778873444, -0.08521054685115814, -0.08278342336416245, -0.08035629987716675, -0.07792917639017105, -0.07550205290317535, -0.07307492941617966, -0.07064780592918396, -0.06822068244218826, -0.06579355895519257, -0.06336642801761627, -0.060939304530620575, -0.05851218104362488, -0.05608505755662918, -0.053657930344343185, -0.05123080685734749, -0.04880367964506149, -0.046376556158065796, -0.0439494326710701, -0.0415223091840744, -0.039095181971788406, -0.03666805848479271, -0.034240931272506714, -0.03181380778551102, -0.02938668243587017, -0.026959557086229324, -0.024532433599233627, -0.02210530824959278, -0.019678182899951935, -0.017251059412956238, -0.01482393592596054, -0.01239681150764227, -0.009969687089323997, -0.007542561739683151, -0.00511543732136488, -0.002688312903046608, -0.0002611875534057617, 0.0021659359335899353, 0.004593059420585632, 0.007020183838903904, 0.009447308257222176, 0.011874433606863022, 0.014301558025181293, 0.016728682443499565, 0.01915580779314041, 0.02158293128013611, 0.024010058492422104, 0.02643718384206295, 0.028864307329058647, 0.03129143267869949, 0.03371855616569519, 0.03614567965269089, 0.03857280686497688, 0.04099993035197258, 0.043427057564258575, 0.04585418105125427, 0.04828130826354027, 0.050708431750535965, 0.05313555523753166, 0.05556268244981766, 0.057989805936813354, 0.06041692942380905, 0.06284405291080475]}, "gradients/convolution.1.bias": {"_type": "histogram", "values": [1.0, 0.0, 0.0, 0.0, 0.0, 0.0, 0.0, 0.0, 0.0, 0.0, 0.0, 0.0, 0.0, 0.0, 0.0, 0.0, 0.0, 0.0, 0.0, 0.0, 0.0, 0.0, 0.0, 0.0, 0.0, 0.0, 0.0, 0.0, 0.0, 0.0, 0.0, 0.0, 0.0, 0.0, 0.0, 0.0, 0.0, 0.0, 0.0, 0.0, 0.0, 0.0, 0.0, 1.0, 0.0, 0.0, 0.0, 0.0, 0.0, 0.0, 0.0, 0.0, 0.0, 0.0, 0.0, 0.0, 0.0, 0.0, 1.0, 0.0, 0.0, 0.0, 0.0, 1.0], "bins": [-0.026787225157022476, -0.025832869112491608, -0.02487851306796074, -0.02392415702342987, -0.022969800978899002, -0.022015444934368134, -0.021061088889837265, -0.020106732845306396, -0.019152376800775528, -0.01819802075624466, -0.01724366471171379, -0.016289308667182922, -0.015334952622652054, -0.014380596578121185, -0.013426241464912891, -0.012471885420382023, -0.011517530307173729, -0.01056317426264286, -0.009608818218111992, -0.008654462173581123, -0.007700106594711542, -0.006745750550180674, -0.005791394971311092, -0.004837038926780224, -0.00388268381357193, -0.0029283277690410614, -0.0019739719573408365, -0.0010196161456406116, -6.526010110974312e-05, 0.0008890959434211254, 0.0018434515222907066, 0.002797807566821575, 0.0037521645426750183, 0.004706520587205887, 0.005660876631736755, 0.006615232210606337, 0.007569588255137205, 0.008523944765329361, 0.009478299878537655, 0.010432655923068523, 0.011387012898921967, 0.012341368943452835, 0.013295724987983704, 0.014250081032514572, 0.01520443707704544, 0.01615879312157631, 0.017113149166107178, 0.018067505210638046, 0.019021859392523766, 0.019976215437054634, 0.020930571481585503, 0.02188492752611637, 0.02283928357064724, 0.023793639615178108, 0.024747993797063828, 0.025702349841594696, 0.026656705886125565, 0.027611061930656433, 0.0285654179751873, 0.02951977401971817, 0.03047413006424904, 0.03142848610877991, 0.032382842153310776, 0.033337198197841644, 0.03429155424237251]}, "gradients/convolution.0.weight": {"_type": "histogram", "values": [1.0, 0.0, 0.0, 0.0, 0.0, 1.0, 0.0, 1.0, 2.0, 0.0, 0.0, 0.0, 0.0, 0.0, 1.0, 1.0, 0.0, 3.0, 0.0, 2.0, 3.0, 0.0, 0.0, 0.0, 1.0, 1.0, 1.0, 2.0, 0.0, 0.0, 1.0, 1.0, 1.0, 2.0, 0.0, 1.0, 1.0, 0.0, 0.0, 2.0, 1.0, 0.0, 1.0, 0.0, 0.0, 1.0, 0.0, 0.0, 0.0, 1.0, 1.0, 0.0, 0.0, 1.0, 0.0, 0.0, 0.0, 0.0, 0.0, 0.0, 0.0, 0.0, 0.0, 1.0], "bins": [-0.1056327149271965, -0.10151298344135284, -0.09739325195550919, -0.09327352046966553, -0.08915378898382187, -0.08503405749797821, -0.08091431856155396, -0.0767945945262909, -0.07267485558986664, -0.06855512410402298, -0.06443539261817932, -0.06031566113233566, -0.056195929646492004, -0.052076198160648346, -0.04795646294951439, -0.04383673146367073, -0.03971700370311737, -0.03559727221727371, -0.031477540731430054, -0.027357807382941246, -0.023238075897097588, -0.01911834441125393, -0.014998611062765121, -0.010878879576921463, -0.006759144365787506, -0.0026394124142825603, 0.0014803195372223854, 0.0056000519543886185, 0.009719783440232277, 0.013839514926075935, 0.017959248274564743, 0.0220789797604084, 0.026198700070381165, 0.030318431556224823, 0.03443816304206848, 0.03855789452791214, 0.0426776260137558, 0.04679735749959946, 0.050917092710733414, 0.05503682419657707, 0.05915655195713043, 0.06327628344297409, 0.06739601492881775, 0.07151574641466141, 0.07563547790050507, 0.07975520938634872, 0.08387494087219238, 0.08799467980861664, 0.0921144112944603, 0.09623414278030396, 0.10035387426614761, 0.10447360575199127, 0.10859333723783493, 0.11271306872367859, 0.11683280766010284, 0.1209525316953659, 0.12507227063179016, 0.12919200956821442, 0.13331173360347748, 0.13743147253990173, 0.1415511965751648, 0.14567093551158905, 0.1497906595468521, 0.15391039848327637, 0.15803012251853943]}, "gradients/convolution.0.bias": {"_type": "histogram", "values": [1.0, 0.0, 0.0, 0.0, 0.0, 0.0, 0.0, 0.0, 0.0, 0.0, 0.0, 0.0, 0.0, 0.0, 0.0, 0.0, 0.0, 0.0, 0.0, 0.0, 0.0, 0.0, 0.0, 0.0, 0.0, 0.0, 0.0, 0.0, 0.0, 0.0, 0.0, 0.0, 0.0, 0.0, 0.0, 0.0, 0.0, 0.0, 0.0, 0.0, 0.0, 1.0, 0.0, 0.0, 0.0, 0.0, 0.0, 0.0, 1.0, 0.0, 0.0, 0.0, 0.0, 0.0, 0.0, 0.0, 0.0, 0.0, 0.0, 0.0, 0.0, 0.0, 0.0, 1.0], "bins": [-0.000182226300239563, -0.00017892802134156227, -0.00017562974244356155, -0.00017233146354556084, -0.00016903318464756012, -0.0001657349057495594, -0.00016243662685155869, -0.00015913834795355797, -0.00015584006905555725, -0.00015254179015755653, -0.00014924351125955582, -0.0001459452323615551, -0.00014264695346355438, -0.00013934867456555367, -0.00013605039566755295, -0.00013275211676955223, -0.00012945383787155151, -0.0001261555589735508, -0.00012285728007555008, -0.00011955900117754936, -0.00011626072227954865, -0.00011296244338154793, -0.00010966416448354721, -0.0001063658855855465, -0.00010306760668754578, -9.976932778954506e-05, -9.647104889154434e-05, -9.317276999354362e-05, -8.987449109554291e-05, -8.657621219754219e-05, -8.327793329954147e-05, -7.997965440154076e-05, -7.668137550354004e-05, -7.338309660553932e-05, -7.00848177075386e-05, -6.678653880953789e-05, -6.348825991153717e-05, -6.018998101353645e-05, -5.6891702115535736e-05, -5.359342321753502e-05, -5.02951443195343e-05, -4.6996865421533585e-05, -4.369858652353287e-05, -4.040030762553215e-05, -3.710202872753143e-05, -3.3803749829530716e-05, -3.050547093153e-05, -2.720719203352928e-05, -2.3908913135528564e-05, -2.0610634237527847e-05, -1.731235533952713e-05, -1.4014076441526413e-05, -1.0715797543525696e-05, -7.417518645524979e-06, -4.1192397475242615e-06, -8.209608495235443e-07, 2.477318048477173e-06, 5.77559694647789e-06, 9.073875844478607e-06, 1.2372154742479324e-05, 1.567043364048004e-05, 1.896871253848076e-05, 2.2266991436481476e-05, 2.5565270334482193e-05, 2.886354923248291e-05]}, "MNIST_prediction": {"_type": "table-file", "path": "media/table/MNIST_prediction_10_c31534f34537022cb128.table.json", "sha256": "c31534f34537022cb1287c804998f8cb5f706510cdb72faee339492cd5654af4", "size": 10935, "artifact_path": "wandb-client-artifact://klivj9qlmhf9aiznz5kf86u67x7g5feiy6ri5y5858d4k7bd1kggzxtf5a7crdkx39fbwxz4titjbawkg4luv85jd9rk95j9a3zkpao0anhin4xk6khco6w0asj3tt4y:latest/MNIST_prediction.table.json", "_latest_artifact_path": "wandb-client-artifact://klivj9qlmhf9aiznz5kf86u67x7g5feiy6ri5y5858d4k7bd1kggzxtf5a7crdkx39fbwxz4titjbawkg4luv85jd9rk95j9a3zkpao0anhin4xk6khco6w0asj3tt4y:latest/MNIST_prediction.table.json", "ncols": 3, "nrows": 640}, "_wandb": {"runtime": 26}}