{"loss": 0.05970373377203941, "_runtime": 15, "_timestamp": 1641747639, "_step": 9, "gradients/linear.3.bias": {"_type": "histogram", "values": [1.0, 0.0, 0.0, 0.0, 0.0, 0.0, 0.0, 0.0, 0.0, 0.0, 0.0, 0.0, 1.0, 0.0, 0.0, 0.0, 0.0, 0.0, 0.0, 0.0, 1.0, 0.0, 0.0, 0.0, 0.0, 0.0, 0.0, 0.0, 0.0, 0.0, 0.0, 0.0, 0.0, 0.0, 1.0, 0.0, 0.0, 1.0, 1.0, 0.0, 0.0, 1.0, 0.0, 0.0, 1.0, 0.0, 1.0, 0.0, 0.0, 0.0, 0.0, 0.0, 0.0, 0.0, 0.0, 0.0, 0.0, 0.0, 0.0, 0.0, 0.0, 0.0, 0.0, 1.0], "bins": [-0.013369040563702583, -0.012975158169865608, -0.012581275776028633, -0.012187393382191658, -0.011793510988354683, -0.011399628594517708, -0.011005746200680733, -0.010611863806843758, -0.010217981413006783, -0.009824099019169807, -0.009430216625332832, -0.009036334231495857, -0.008642451837658882, -0.008248569443821907, -0.007854687049984932, -0.007460805121809244, -0.007066923193633556, -0.006673040799796581, -0.006279158405959606, -0.005885276012122631, -0.005491393618285656, -0.005097511224448681, -0.004703629296272993, -0.004309746902436018, -0.00391586497426033, -0.003521982580423355, -0.00312810018658638, -0.0027342180255800486, -0.0023403356317430735, -0.0019464532379060984, -0.001552571076899767, -0.0011586886830627918, -0.0007648058235645294, -0.00037092348793521523, 2.295884769409895e-05, 0.0004168411251157522, 0.0008107235189527273, 0.0012046059127897024, 0.0015984880737960339, 0.001992370467633009, 0.0023862533271312714, 0.0027801357209682465, 0.0031740181148052216, 0.003567900275811553, 0.003961782902479172, 0.004355665296316147, 0.004749547224491835, 0.00514342961832881, 0.0055373115465044975, 0.005931193940341473, 0.006325076334178448, 0.006718958728015423, 0.007112841121852398, 0.007506723515689373, 0.007900604978203773, 0.008294487372040749, 0.008688369765877724, 0.009082252159714699, 0.009476134553551674, 0.009870016947388649, 0.010263899341225624, 0.0106577817350626, 0.011051664128899574, 0.01144554652273655, 0.011839428916573524]}, "gradients/linear.3.weight": {"_type": "histogram", "values": [2.0, 1.0, 0.0, 0.0, 1.0, 0.0, 1.0, 1.0, 1.0, 2.0, 2.0, 0.0, 0.0, 3.0, 2.0, 0.0, 1.0, 1.0, 2.0, 1.0, 3.0, 3.0, 3.0, 4.0, 5.0, 7.0, 11.0, 8.0, 13.0, 10.0, 30.0, 22.0, 48.0, 259.0, 51.0, 39.0, 28.0, 15.0, 9.0, 14.0, 6.0, 3.0, 2.0, 2.0, 1.0, 1.0, 2.0, 1.0, 3.0, 0.0, 3.0, 1.0, 3.0, 1.0, 2.0, 1.0, 1.0, 0.0, 1.0, 2.0, 0.0, 0.0, 0.0, 1.0], "bins": [-0.09500277787446976, -0.09213786572217941, -0.08927295356988907, -0.08640804141759872, -0.08354312926530838, -0.08067821711301804, -0.07781330496072769, -0.07494839280843735, -0.072083480656147, -0.06921856850385666, -0.06635365635156631, -0.06348874419927597, -0.060623832046985626, -0.05775891989469528, -0.05489400774240494, -0.052029095590114594, -0.04916418343782425, -0.046299271285533905, -0.04343435913324356, -0.04056944698095322, -0.03770453482866287, -0.03483962267637253, -0.031974710524082184, -0.02910979837179184, -0.026244886219501495, -0.02337997406721115, -0.020515061914920807, -0.017650149762630463, -0.014785237610340118, -0.011920325458049774, -0.00905541330575943, -0.006190501153469086, -0.0033255964517593384, -0.00046068429946899414, 0.00240422785282135, 0.005269140005111694, 0.008134052157402039, 0.010998964309692383, 0.013863876461982727, 0.01672878861427307, 0.019593700766563416, 0.02245861291885376, 0.025323525071144104, 0.028188437223434448, 0.031053349375724792, 0.03391826152801514, 0.03678317368030548, 0.039648085832595825, 0.04251299798488617, 0.045377910137176514, 0.04824282228946686, 0.0511077344417572, 0.053972646594047546, 0.05683755874633789, 0.059702470898628235, 0.06256738305091858, 0.06543229520320892, 0.06829720735549927, 0.07116211950778961, 0.07402703166007996, 0.0768919438123703, 0.07975685596466064, 0.08262176811695099, 0.08548668026924133, 0.08835159242153168]}, "gradients/linear.0.bias": {"_type": "histogram", "values": [1.0, 0.0, 0.0, 0.0, 0.0, 0.0, 0.0, 0.0, 0.0, 0.0, 0.0, 0.0, 0.0, 0.0, 1.0, 0.0, 1.0, 2.0, 0.0, 0.0, 0.0, 1.0, 0.0, 1.0, 2.0, 1.0, 2.0, 2.0, 1.0, 3.0, 2.0, 2.0, 2.0, 2.0, 5.0, 1.0, 9.0, 1.0, 0.0, 5.0, 2.0, 0.0, 0.0, 1.0, 1.0, 2.0, 0.0, 1.0, 3.0, 1.0, 1.0, 0.0, 0.0, 0.0, 1.0, 0.0, 1.0, 0.0, 1.0, 0.0, 0.0, 0.0, 1.0, 1.0], "bins": [-0.007040474563837051, -0.006849924102425575, -0.006659373641014099, -0.006468823179602623, -0.006278272718191147, -0.006087722256779671, -0.005897171795368195, -0.005706620868295431, -0.005516070406883955, -0.005325519945472479, -0.005134969484061003, -0.004944419022649527, -0.0047538685612380505, -0.004563317634165287, -0.004372767172753811, -0.004182216711342335, -0.003991666249930859, -0.0038011157885193825, -0.0036105653271079063, -0.00342001486569643, -0.0032294641714543104, -0.0030389137100428343, -0.002848363248631358, -0.0026578125543892384, -0.0024672625586390495, -0.0022767120972275734, -0.0020861616358160973, -0.0018956110579892993, -0.0017050604801625013, -0.0015145100187510252, -0.001323959557339549, -0.001133408979512751, -0.0009428584016859531, -0.0007523078820668161, -0.000561757362447679, -0.0003712069010362029, -0.00018065638141706586, 9.89413820207119e-06, 0.00020044459961354733, 0.0003909951774403453, 0.0005815457552671432, 0.0007720962748862803, 0.0009626467945054173, 0.0011531972559168935, 0.0013437478337436914, 0.0015342982951551676, 0.0017248487565666437, 0.0019153993343934417, 0.002105949679389596, 0.002296500140801072, 0.0024870506022125483, 0.002677601296454668, 0.002868151757866144, 0.0030587022192776203, 0.0032492526806890965, 0.0034398031421005726, 0.0036303536035120487, 0.003820904064923525, 0.004011454526335001, 0.004202004987746477, 0.004392555449157953, 0.004583106376230717, 0.004773656837642193, 0.004964207299053669, 0.005154757760465145]}, "gradients/linear.0.weight": {"_type": "histogram", "values": [2.0, 1.0, 1.0, 1.0, 1.0, 1.0, 4.0, 2.0, 1.0, 4.0, 3.0, 8.0, 11.0, 8.0, 9.0, 13.0, 16.0, 22.0, 33.0, 31.0, 50.0, 56.0, 77.0, 86.0, 136.0, 186.0, 253.0, 351.0, 548.0, 732.0, 1293.0, 2161.0, 13398.0, 2272.0, 940.0, 617.0, 413.0, 309.0, 198.0, 185.0, 131.0, 92.0, 93.0, 60.0, 51.0, 33.0, 37.0, 31.0, 26.0, 20.0, 15.0, 17.0, 7.0, 7.0, 12.0, 6.0, 4.0, 0.0, 6.0, 2.0, 1.0, 1.0, 1.0, 2.0], "bins": [-0.03372807800769806, -0.03269783779978752, -0.031667597591876984, -0.030637359246611595, -0.029607120901346207, -0.02857688069343567, -0.02754664048552513, -0.026516402140259743, -0.025486163794994354, -0.024455923587083817, -0.023425685241818428, -0.02239544503390789, -0.021365206688642502, -0.020334966480731964, -0.019304726272821426, -0.018274487927556038, -0.0172442477196455, -0.016214007511734962, -0.015183769166469574, -0.014153528958559036, -0.013123290613293648, -0.01209305040538311, -0.011062811128795147, -0.010032571852207184, -0.009002331644296646, -0.007972092367708683, -0.00694185309112072, -0.0059116133488714695, -0.004881374072283506, -0.0038511347956955433, -0.002820895053446293, -0.0017906557768583298, -0.0007604174315929413, 0.00026982196141034365, 0.0013000613544136286, 0.0023303008638322353, 0.0033605401404201984, 0.0043907794170081615, 0.005421019159257412, 0.006451258435845375, 0.0074814967811107635, 0.008511736057698727, 0.00954197533428669, 0.010572215542197227, 0.011602453887462616, 0.012632694095373154, 0.013662933371961117, 0.01469317264854908, 0.015723412856459618, 0.016753653064370155, 0.017783891409635544, 0.01881413161754608, 0.01984436996281147, 0.020874610170722008, 0.021904848515987396, 0.022935088723897934, 0.02396532893180847, 0.02499556913971901, 0.026025807484984398, 0.027056047692894936, 0.028086286038160324, 0.029116526246070862, 0.0301467664539814, 0.031177004799246788, 0.032207243144512177]}, "gradients/convolution.5.weight": {"_type": "histogram", "values": [1.0, 0.0, 0.0, 0.0, 0.0, 0.0, 1.0, 0.0, 0.0, 0.0, 0.0, 0.0, 0.0, 0.0, 1.0, 0.0, 0.0, 0.0, 0.0, 0.0, 1.0, 0.0, 0.0, 0.0, 0.0, 0.0, 0.0, 0.0, 0.0, 0.0, 0.0, 0.0, 2.0, 0.0, 0.0, 0.0, 0.0, 0.0, 0.0, 0.0, 0.0, 0.0, 0.0, 0.0, 0.0, 1.0, 0.0, 0.0, 0.0, 0.0, 0.0, 0.0, 0.0, 0.0, 0.0, 0.0, 0.0, 0.0, 0.0, 0.0, 0.0, 0.0, 0.0, 1.0], "bins": [-0.03358137980103493, -0.032648492604494095, -0.03171560540795326, -0.03078271821141243, -0.029849831014871597, -0.028916943818330765, -0.027984054759144783, -0.02705116756260395, -0.026118280366063118, -0.025185393169522285, -0.024252505972981453, -0.02331961877644062, -0.02238672971725464, -0.021453842520713806, -0.020520955324172974, -0.01958806812763214, -0.01865518093109131, -0.017722293734550476, -0.016789406538009644, -0.01585651934146881, -0.014923631213605404, -0.013990744017064571, -0.013057855889201164, -0.012124968692660332, -0.0111920814961195, -0.010259194299578667, -0.009326307103037834, -0.008393418975174427, -0.0074605317786335945, -0.006527644582092762, -0.005594756919890642, -0.004661869257688522, -0.00372898206114769, -0.0027960946317762136, -0.0018632072024047375, -0.0009303197730332613, 2.5676563382148743e-06, 0.0009354548528790474, 0.0018683425150811672, 0.002801230177283287, 0.0037341173738241196, 0.004667004570364952, 0.005599892232567072, 0.006532779894769192, 0.007465667091310024, 0.008398554287850857, 0.009331442415714264, 0.010264329612255096, 0.011197216808795929, 0.012130104005336761, 0.013062991201877594, 0.013995879329741001, 0.014928766526281834, 0.01586165279150009, 0.016794541850686073, 0.017727429047226906, 0.01866031624376774, 0.01959320344030857, 0.020526090636849403, 0.021458977833390236, 0.022391866892576218, 0.02332475408911705, 0.024257641285657883, 0.025190528482198715, 0.026123415678739548]}, "gradients/convolution.5.bias": {"_type": "histogram", "values": [1.0, 0.0, 0.0, 0.0, 0.0, 0.0, 0.0, 0.0, 0.0, 0.0, 0.0, 0.0, 0.0, 0.0, 0.0, 1.0, 0.0, 0.0, 0.0, 0.0, 0.0, 0.0, 1.0, 1.0, 0.0, 0.0, 0.0, 0.0, 0.0, 0.0, 0.0, 0.0, 0.0, 0.0, 0.0, 0.0, 0.0, 0.0, 0.0, 0.0, 0.0, 0.0, 1.0, 0.0, 0.0, 0.0, 0.0, 0.0, 1.0, 0.0, 0.0, 0.0, 0.0, 0.0, 0.0, 0.0, 1.0, 0.0, 0.0, 0.0, 0.0, 0.0, 0.0, 1.0], "bins": [-0.012324584648013115, -0.01199609786272049, -0.011667612008750439, -0.011339125223457813, -0.011010639369487762, -0.010682152584195137, -0.010353665798902512, -0.01002517994493246, -0.00969669409096241, -0.009368207305669785, -0.009039721451699734, -0.008711234666407108, -0.008382748812437057, -0.008054262027144432, -0.007725775707513094, -0.007397289387881756, -0.00706880260258913, -0.006740316282957792, -0.006411829963326454, -0.006083343178033829, -0.005754857324063778, -0.0054263705387711525, -0.005097884219139814, -0.004769397899508476, -0.004440911114215851, -0.004112424794584513, -0.0037839384749531746, -0.003455451922491193, -0.0031269656028598547, -0.0027984792832285166, -0.002469992730766535, -0.0021415064111351967, -0.0018130196258425713, -0.0014845333062112331, -0.0011560468701645732, -0.0008275604341179132, -0.0004990741144865751, -0.000170587794855237, 0.00015789875760674477, 0.0004863850772380829, 0.0008148709312081337, 0.0011433572508394718, 0.0014718436868861318, 0.0018003301229327917, 0.00212881644256413, 0.002457302762195468, 0.0027857893146574497, 0.003114275634288788, 0.0034427624195814133, 0.0037712487392127514, 0.0040997350588440895, 0.004428221844136715, 0.004756707698106766, 0.005085194483399391, 0.005413680803030729, 0.005742167122662067, 0.0060706534422934055, 0.006399139761924744, 0.006727626081556082, 0.00705611240118742, 0.007384599186480045, 0.007713085040450096, 0.008041571825742722, 0.008370058611035347, 0.008698544465005398]}, "gradients/convolution.4.weight": {"_type": "histogram", "values": [2.0, 0.0, 0.0, 0.0, 0.0, 2.0, 0.0, 0.0, 1.0, 2.0, 1.0, 5.0, 2.0, 5.0, 9.0, 8.0, 5.0, 3.0, 13.0, 11.0, 19.0, 13.0, 22.0, 24.0, 17.0, 23.0, 18.0, 15.0, 14.0, 9.0, 8.0, 10.0, 4.0, 3.0, 2.0, 1.0, 1.0, 0.0, 0.0, 0.0, 0.0, 2.0, 3.0, 1.0, 0.0, 1.0, 4.0, 0.0, 0.0, 1.0, 0.0, 0.0, 0.0, 1.0, 0.0, 0.0, 0.0, 0.0, 2.0, 0.0, 0.0, 0.0, 0.0, 1.0], "bins": [-0.07380911707878113, -0.07078248262405396, -0.06775584816932678, -0.06472921371459961, -0.06170257553458214, -0.058675941079854965, -0.055649302899837494, -0.05262266844511032, -0.04959603399038315, -0.046569399535655975, -0.0435427650809288, -0.04051612690091133, -0.03748949244618416, -0.034462857991456985, -0.031436219811439514, -0.02840958535671234, -0.02538295090198517, -0.022356316447257996, -0.019329680129885674, -0.01630304381251335, -0.013276409357786179, -0.010249773971736431, -0.007223138585686684, -0.004196502268314362, -0.0011698678135871887, 0.0018567675724625587, 0.004883402958512306, 0.007910038344562054, 0.010936673730611801, 0.013963309116661549, 0.016989944502711296, 0.020016580820083618, 0.023043222725391388, 0.02606985718011856, 0.029096493497490883, 0.032123129814863205, 0.03514976426959038, 0.03817639872431755, 0.04120303690433502, 0.044229671359062195, 0.04725630581378937, 0.05028294026851654, 0.05330957472324371, 0.056336212903261185, 0.05936284735798836, 0.06238948181271553, 0.065416119992733, 0.06844275444746017, 0.07146938890218735, 0.07449602335691452, 0.0775226578116417, 0.08054929226636887, 0.08357593417167664, 0.08660256862640381, 0.08962920308113098, 0.09265583753585815, 0.09568247199058533, 0.0987091064453125, 0.10173574090003967, 0.10476237535476685, 0.10778900980949402, 0.11081565171480179, 0.11384228616952896, 0.11686892062425613, 0.1198955550789833]}, "gradients/convolution.4.bias": {"_type": "histogram", "values": [1.0, 0.0, 0.0, 0.0, 0.0, 0.0, 0.0, 0.0, 0.0, 0.0, 2.0, 0.0, 0.0, 0.0, 1.0, 0.0, 0.0, 0.0, 0.0, 0.0, 0.0, 0.0, 0.0, 0.0, 0.0, 0.0, 0.0, 0.0, 0.0, 0.0, 0.0, 0.0, 0.0, 0.0, 0.0, 1.0, 1.0, 0.0, 1.0, 0.0, 0.0, 0.0, 0.0, 0.0, 0.0, 0.0, 0.0, 0.0, 0.0, 0.0, 0.0, 0.0, 0.0, 0.0, 0.0, 0.0, 0.0, 0.0, 0.0, 0.0, 0.0, 0.0, 0.0, 1.0], "bins": [-3.0174851417541504e-07, -2.927990863099694e-07, -2.838496584445238e-07, -2.749002305790782e-07, -2.659508027136326e-07, -2.5700137484818697e-07, -2.4805194698274136e-07, -2.3910251911729574e-07, -2.3015309125185013e-07, -2.2120366338640451e-07, -2.122542355209589e-07, -2.0330480765551329e-07, -1.9435537979006767e-07, -1.8540595192462206e-07, -1.7645652405917645e-07, -1.6750709619373083e-07, -1.5855766832828522e-07, -1.496082404628396e-07, -1.40658812597394e-07, -1.3170938473194838e-07, -1.2275995686650276e-07, -1.1381052900105715e-07, -1.0486110113561153e-07, -9.591167327016592e-08, -8.69622454047203e-08, -7.801281753927469e-08, -6.906338967382908e-08, -6.011396180838346e-08, -5.116453394293785e-08, -4.221510607749224e-08, -3.326567821204662e-08, -2.431625034660101e-08, -1.5366822481155396e-08, -6.417394615709782e-09, 2.5320332497358322e-09, 1.1481461115181446e-08, 2.043088898062706e-08, 2.9380316846072674e-08, 3.832974471151829e-08, 4.72791725769639e-08, 5.6228600442409515e-08, 6.517802830785513e-08, 7.412745617330074e-08, 8.307688403874636e-08, 9.202631190419197e-08, 1.0097573976963758e-07, 1.099251676350832e-07, 1.1887459550052881e-07, 1.2782402336597443e-07, 1.3677345123142004e-07, 1.4572287909686565e-07, 1.5467230696231127e-07, 1.6362173482775688e-07, 1.725711626932025e-07, 1.815205905586481e-07, 1.9047001842409372e-07, 1.9941944628953934e-07, 2.0836887415498495e-07, 2.1731830202043056e-07, 2.2626772988587618e-07, 2.352171577513218e-07, 2.441665856167674e-07, 2.53116013482213e-07, 2.6206544134765863e-07, 2.7101486921310425e-07]}, "gradients/convolution.1.weight": {"_type": "histogram", "values": [1.0, 0.0, 0.0, 0.0, 0.0, 0.0, 0.0, 0.0, 0.0, 0.0, 0.0, 0.0, 0.0, 0.0, 0.0, 0.0, 0.0, 0.0, 0.0, 0.0, 0.0, 0.0, 0.0, 0.0, 0.0, 1.0, 0.0, 1.0, 0.0, 0.0, 0.0, 0.0, 0.0, 0.0, 0.0, 0.0, 0.0, 0.0, 0.0, 0.0, 0.0, 0.0, 0.0, 0.0, 0.0, 0.0, 0.0, 0.0, 0.0, 0.0, 0.0, 0.0, 0.0, 0.0, 0.0, 0.0, 0.0, 0.0, 0.0, 0.0, 0.0, 0.0, 0.0, 1.0], "bins": [-0.04737366735935211, -0.04574127867817879, -0.04410889372229576, -0.042476505041122437, -0.04084411635994911, -0.03921172767877579, -0.03757934272289276, -0.03594695404171944, -0.03431456536054611, -0.03268217667937279, -0.031049789860844612, -0.029417403042316437, -0.027785014361143112, -0.026152627542614937, -0.02452024072408676, -0.022887852042913437, -0.02125546708703041, -0.019623080268502235, -0.01799069158732891, -0.016358304768800735, -0.014725917018949986, -0.013093529269099236, -0.01146114245057106, -0.00982875470072031, -0.00819636881351471, -0.0065639810636639595, -0.004931593779474497, -0.003299206495285034, -0.0016668187454342842, -3.443099558353424e-05, 0.0015979558229446411, 0.003230343572795391, 0.00486273318529129, 0.00649512093514204, 0.00812750868499279, 0.009759895503520966, 0.011392283253371716, 0.013024671003222466, 0.014657057821750641, 0.016289446502923965, 0.01792183518409729, 0.019554222002625465, 0.02118661068379879, 0.022818997502326965, 0.02445138618350029, 0.026083773002028465, 0.02771615982055664, 0.029348548501729965, 0.03098093345761299, 0.032613322138786316, 0.03424570709466934, 0.03587809577584267, 0.03751048445701599, 0.03914286941289902, 0.04077525809407234, 0.042407646775245667, 0.04404003173112869, 0.04567242041230202, 0.04730480536818504, 0.04893719404935837, 0.05056958273053169, 0.05220197141170502, 0.05383435636758804, 0.05546674504876137, 0.05709913372993469]}, "gradients/convolution.1.bias": {"_type": "histogram", "values": [1.0, 0.0, 0.0, 0.0, 0.0, 0.0, 0.0, 0.0, 0.0, 0.0, 0.0, 0.0, 0.0, 0.0, 0.0, 0.0, 0.0, 0.0, 0.0, 0.0, 0.0, 0.0, 0.0, 0.0, 0.0, 0.0, 0.0, 0.0, 0.0, 0.0, 0.0, 0.0, 0.0, 0.0, 0.0, 0.0, 0.0, 0.0, 0.0, 0.0, 0.0, 0.0, 0.0, 0.0, 0.0, 0.0, 1.0, 0.0, 0.0, 0.0, 0.0, 0.0, 0.0, 0.0, 0.0, 0.0, 0.0, 0.0, 0.0, 0.0, 0.0, 0.0, 1.0, 1.0], "bins": [-0.04156055673956871, -0.04051923379302025, -0.039477910846471786, -0.038436587899923325, -0.03739526495337486, -0.0363539457321167, -0.03531262278556824, -0.034271299839019775, -0.033229976892471313, -0.03218865394592285, -0.03114733099937439, -0.030106008052825928, -0.029064686968922615, -0.028023364022374153, -0.02698204107582569, -0.02594071812927723, -0.024899395182728767, -0.023858072236180305, -0.022816749289631844, -0.02177542820572853, -0.02073410525918007, -0.019692782312631607, -0.018651459366083145, -0.017610136419534683, -0.01656881347298622, -0.01552749052643776, -0.014486168511211872, -0.01344484556466341, -0.012403523549437523, -0.011362200602889061, -0.010320877656340599, -0.009279554709792137, -0.008238235488533974, -0.007196913007646799, -0.0061555905267596245, -0.005114267580211163, -0.004072945099323988, -0.0030316226184368134, -0.0019902996718883514, -0.0009489771910011768, 9.234435856342316e-05, 0.0011336669558659196, 0.002174989553168416, 0.0032163122668862343, 0.004257634747773409, 0.0052989572286605835, 0.006340280175209045, 0.00738160265609622, 0.00842292606830597, 0.009464249014854431, 0.010505571030080318, 0.01154689397662878, 0.012588215991854668, 0.01362953893840313, 0.014670861884951591, 0.015712184831500053, 0.016753505915403366, 0.017794828861951828, 0.01883615180850029, 0.019877474755048752, 0.020918795838952065, 0.021960118785500526, 0.02300144173204899, 0.02404276467859745, 0.025084087625145912]}, "gradients/convolution.0.weight": {"_type": "histogram", "values": [1.0, 1.0, 0.0, 0.0, 0.0, 0.0, 0.0, 0.0, 0.0, 0.0, 1.0, 1.0, 0.0, 0.0, 0.0, 0.0, 1.0, 0.0, 2.0, 4.0, 0.0, 0.0, 1.0, 1.0, 1.0, 0.0, 2.0, 1.0, 2.0, 1.0, 0.0, 0.0, 0.0, 2.0, 0.0, 2.0, 0.0, 0.0, 1.0, 0.0, 1.0, 0.0, 1.0, 0.0, 0.0, 2.0, 1.0, 0.0, 0.0, 0.0, 1.0, 1.0, 1.0, 0.0, 0.0, 2.0, 0.0, 0.0, 0.0, 0.0, 0.0, 0.0, 0.0, 1.0], "bins": [-0.09043747931718826, -0.08817841112613678, -0.0859193354845047, -0.08366026729345322, -0.08140119165182114, -0.07914212346076965, -0.07688304781913757, -0.07462397962808609, -0.07236490398645401, -0.07010583579540253, -0.06784676015377045, -0.06558769196271896, -0.06332861632108688, -0.0610695444047451, -0.05881047248840332, -0.05655140429735184, -0.054292332381010056, -0.052033260464668274, -0.04977418854832649, -0.04751511663198471, -0.04525604471564293, -0.04299697279930115, -0.040737904608249664, -0.038478828966617584, -0.0362197607755661, -0.03396068885922432, -0.03170161694288254, -0.029442545026540756, -0.027183473110198975, -0.024924401193857193, -0.02266533114016056, -0.02040625922381878, -0.018147185444831848, -0.015888113528490067, -0.013629041612148285, -0.011369970627129078, -0.009110898710787296, -0.006851826794445515, -0.004592755809426308, -0.002333683893084526, -7.461011409759521e-05, 0.0021844615694135427, 0.004443533252924681, 0.006702604703605175, 0.008961676619946957, 0.011220748536288738, 0.013479819521307945, 0.015738891437649727, 0.01799796149134636, 0.02025703340768814, 0.022516105324029922, 0.024775177240371704, 0.027034249156713486, 0.029293321073055267, 0.03155238926410675, 0.03381146490573883, 0.036070533096790314, 0.038329605013132095, 0.04058867692947388, 0.04284774884581566, 0.04510682076215744, 0.04736589267849922, 0.049624964594841, 0.05188403278589249, 0.05414310842752457]}, "gradients/convolution.0.bias": {"_type": "histogram", "values": [1.0, 0.0, 0.0, 0.0, 0.0, 0.0, 0.0, 0.0, 0.0, 0.0, 0.0, 0.0, 0.0, 0.0, 0.0, 0.0, 0.0, 0.0, 0.0, 0.0, 0.0, 0.0, 0.0, 0.0, 0.0, 0.0, 1.0, 0.0, 0.0, 0.0, 0.0, 0.0, 0.0, 0.0, 0.0, 0.0, 0.0, 0.0, 0.0, 0.0, 0.0, 0.0, 0.0, 0.0, 0.0, 0.0, 0.0, 0.0, 0.0, 0.0, 0.0, 0.0, 0.0, 0.0, 0.0, 0.0, 0.0, 0.0, 1.0, 0.0, 0.0, 0.0, 0.0, 1.0], "bins": [-1.6282545402646065e-05, -1.5917070413706824e-05, -1.5551595424767584e-05, -1.5186120435828343e-05, -1.4820645446889102e-05, -1.4455170457949862e-05, -1.4089695469010621e-05, -1.372422048007138e-05, -1.335874549113214e-05, -1.29932705021929e-05, -1.2627795513253659e-05, -1.2262320524314418e-05, -1.1896845535375178e-05, -1.1531370546435937e-05, -1.1165895557496697e-05, -1.0800420568557456e-05, -1.0434945579618216e-05, -1.0069470590678975e-05, -9.703995601739734e-06, -9.338520612800494e-06, -8.973045623861253e-06, -8.607570634922013e-06, -8.242095645982772e-06, -7.876620657043532e-06, -7.511145668104291e-06, -7.14567067916505e-06, -6.78019569022581e-06, -6.414720701286569e-06, -6.049245712347329e-06, -5.683770723408088e-06, -5.3182957344688475e-06, -4.952820745529607e-06, -4.587345756590366e-06, -4.221870767651126e-06, -3.856395778711885e-06, -3.4909207897726446e-06, -3.125445800833404e-06, -2.7599708118941635e-06, -2.394495822954923e-06, -2.0290208340156823e-06, -1.6635458450764418e-06, -1.2980708561372012e-06, -9.325958671979606e-07, -5.6712087825872e-07, -2.0164588931947947e-07, 1.638290996197611e-07, 5.293040885590017e-07, 8.947790774982423e-07, 1.2602540664374828e-06, 1.6257290553767234e-06, 1.991204044315964e-06, 2.3566790332552046e-06, 2.722154022194445e-06, 3.0876290111336857e-06, 3.4531040000729263e-06, 3.818578989012167e-06, 4.1840539779514074e-06, 4.549528966890648e-06, 4.915003955829889e-06, 5.280478944769129e-06, 5.64595393370837e-06, 6.01142892264761e-06, 6.376903911586851e-06, 6.7423789005260915e-06, 7.107853889465332e-06]}, "_wandb": {"runtime": 16}}