{"loss": 0.1160772517323494, "_runtime": 20, "_timestamp": 1641748353, "_step": 10, "gradients/linear.3.bias": {"_type": "histogram", "values": [1.0, 0.0, 0.0, 0.0, 0.0, 0.0, 0.0, 0.0, 0.0, 0.0, 0.0, 1.0, 0.0, 0.0, 0.0, 0.0, 0.0, 0.0, 0.0, 1.0, 0.0, 0.0, 0.0, 0.0, 0.0, 0.0, 0.0, 0.0, 0.0, 0.0, 0.0, 0.0, 0.0, 0.0, 0.0, 0.0, 0.0, 0.0, 0.0, 0.0, 0.0, 0.0, 0.0, 0.0, 0.0, 0.0, 0.0, 1.0, 0.0, 0.0, 1.0, 0.0, 1.0, 0.0, 0.0, 1.0, 1.0, 1.0, 0.0, 0.0, 0.0, 0.0, 0.0, 1.0], "bins": [-0.018994908779859543, -0.018537404015660286, -0.01807989925146103, -0.017622392624616623, -0.017164887860417366, -0.01670738309621811, -0.016249878332018852, -0.015792373567819595, -0.015334867872297764, -0.014877363108098507, -0.014419857412576675, -0.013962352648377419, -0.013504847884178162, -0.01304734218865633, -0.012589837424457073, -0.012132331728935242, -0.011674826964735985, -0.011217322200536728, -0.010759816505014896, -0.01030231174081564, -0.009844806045293808, -0.009387301281094551, -0.008929796516895294, -0.008472291752696037, -0.008014786057174206, -0.007557280827313662, -0.007099775597453117, -0.0066422708332538605, -0.006184765603393316, -0.005727260373532772, -0.005269755609333515, -0.004812250379472971, -0.004354746080935001, -0.003897240851074457, -0.0034397358540445566, -0.002982230857014656, -0.002524725627154112, -0.0020672203972935677, -0.001609715400263667, -0.0011522104032337666, -0.0006947051733732224, -0.00023720005992799997, 0.0002203050535172224, 0.0006778101669624448, 0.0011353152804076672, 0.0015928205102682114, 0.002050325507298112, 0.0025078305043280125, 0.0029653357341885567, 0.003422840964049101, 0.0038803459610790014, 0.004337850958108902, 0.004795356187969446, 0.00525286141782999, 0.005710366182029247, 0.0061678714118897915, 0.006625376641750336, 0.00708288187161088, 0.007540387101471424, 0.007997891865670681, 0.008455397561192513, 0.00891290232539177, 0.009370407089591026, 0.009827911853790283, 0.010285417549312115]}, "gradients/linear.3.weight": {"_type": "histogram", "values": [1.0, 0.0, 0.0, 1.0, 0.0, 0.0, 1.0, 0.0, 1.0, 0.0, 1.0, 0.0, 0.0, 0.0, 0.0, 0.0, 1.0, 1.0, 1.0, 2.0, 1.0, 2.0, 2.0, 3.0, 4.0, 4.0, 3.0, 1.0, 4.0, 3.0, 5.0, 5.0, 6.0, 5.0, 4.0, 9.0, 11.0, 10.0, 17.0, 28.0, 25.0, 226.0, 65.0, 32.0, 35.0, 24.0, 21.0, 21.0, 6.0, 8.0, 10.0, 7.0, 4.0, 5.0, 4.0, 1.0, 3.0, 2.0, 0.0, 2.0, 0.0, 0.0, 1.0, 1.0], "bins": [-0.13229118287563324, -0.1290924996137619, -0.12589383125305176, -0.12269514799118042, -0.11949646472930908, -0.11629778891801834, -0.1130991131067276, -0.10990042984485626, -0.10670174658298492, -0.10350307077169418, -0.10030438750982285, -0.0971057116985321, -0.09390702843666077, -0.09070835262537003, -0.08750967681407928, -0.08431099355220795, -0.0811123177409172, -0.07791364192962646, -0.07471495866775513, -0.07151628285646439, -0.06831759959459305, -0.06511892378330231, -0.06192024424672127, -0.05872156471014023, -0.05552288889884949, -0.05232420936226845, -0.04912552982568741, -0.04592685401439667, -0.04272817075252533, -0.03952949494123459, -0.03633081540465355, -0.03313213586807251, -0.029933452606201172, -0.026734773069620132, -0.023536093533039093, -0.020337415859103203, -0.017138736322522163, -0.013940056785941124, -0.010741379112005234, -0.007542699575424194, -0.0043440163135528564, -0.0011453372426331043, 0.002053341828286648, 0.005252020433545113, 0.008450699970126152, 0.011649379506707191, 0.014848057180643082, 0.01804673671722412, 0.021245412528514862, 0.0244440920650959, 0.02764277160167694, 0.03084144927561283, 0.03404013067483902, 0.03723880648612976, 0.0404374860227108, 0.04363616555929184, 0.04683484509587288, 0.05003352463245392, 0.05323220416903496, 0.056430883705616, 0.05962955951690674, 0.06282824277877808, 0.06602691859006882, 0.06922559440135956, 0.0724242776632309]}, "gradients/linear.0.bias": {"_type": "histogram", "values": [1.0, 0.0, 0.0, 0.0, 2.0, 0.0, 0.0, 0.0, 1.0, 2.0, 0.0, 2.0, 1.0, 3.0, 3.0, 1.0, 1.0, 1.0, 1.0, 0.0, 1.0, 0.0, 1.0, 2.0, 1.0, 5.0, 9.0, 3.0, 1.0, 1.0, 3.0, 4.0, 0.0, 1.0, 2.0, 0.0, 1.0, 0.0, 2.0, 1.0, 0.0, 1.0, 0.0, 2.0, 0.0, 0.0, 1.0, 1.0, 0.0, 0.0, 1.0, 0.0, 0.0, 0.0, 0.0, 0.0, 0.0, 0.0, 0.0, 0.0, 0.0, 0.0, 0.0, 1.0], "bins": [-0.006840705405920744, -0.006585441529750824, -0.006330177187919617, -0.006074913311749697, -0.005819649435579777, -0.005564385559409857, -0.005309121683239937, -0.0050538573414087296, -0.00479859346523881, -0.00454332958906889, -0.004288065247237682, -0.004032801371067762, -0.0037775374948978424, -0.0035222736187279224, -0.003267009509727359, -0.003011745400726795, -0.0027564815245568752, -0.0025012176483869553, -0.0022459535393863916, -0.001990689430385828, -0.001735425554215908, -0.0014801615616306663, -0.0012248975690454245, -0.0009696335764601827, -0.0007143695838749409, -0.0004591055912896991, -0.00020384159870445728, 5.142239388078451e-05, 0.0003066863864660263, 0.0005619503790512681, 0.0008172143716365099, 0.0010724783642217517, 0.0013277418911457062, 0.001583005883730948, 0.0018382698763161898, 0.0020935339853167534, 0.0023487978614866734, 0.0026040617376565933, 0.002859325846657157, 0.0031145899556577206, 0.0033698538318276405, 0.0036251177079975605, 0.003880381816998124, 0.004135645925998688, 0.004390909802168608, 0.004646173678338528, 0.004901438020169735, 0.005156701896339655, 0.005411965772509575, 0.005667229648679495, 0.005922493524849415, 0.006177757866680622, 0.006433021742850542, 0.006688285619020462, 0.006943549960851669, 0.007198813837021589, 0.007454077713191509, 0.007709341589361429, 0.00796460546553135, 0.008219869807362556, 0.008475134149193764, 0.008730397559702396, 0.008985661901533604, 0.009240925312042236, 0.009496189653873444]}, "gradients/linear.0.weight": {"_type": "histogram", "values": [1.0, 0.0, 0.0, 0.0, 2.0, 0.0, 0.0, 3.0, 2.0, 1.0, 6.0, 2.0, 4.0, 4.0, 10.0, 15.0, 28.0, 23.0, 32.0, 57.0, 64.0, 80.0, 100.0, 159.0, 208.0, 254.0, 331.0, 465.0, 636.0, 944.0, 1581.0, 5030.0, 10597.0, 1433.0, 873.0, 531.0, 381.0, 287.0, 229.0, 149.0, 132.0, 94.0, 68.0, 58.0, 48.0, 39.0, 26.0, 27.0, 15.0, 15.0, 12.0, 7.0, 10.0, 3.0, 5.0, 2.0, 0.0, 2.0, 1.0, 0.0, 0.0, 0.0, 1.0, 1.0], "bins": [-0.043058838695287704, -0.04171576723456383, -0.04037269949913025, -0.03902962803840637, -0.037686556577682495, -0.03634348884224892, -0.03500041738152504, -0.03365734964609146, -0.032314278185367584, -0.030971208587288857, -0.02962813898921013, -0.028285067528486252, -0.026941997930407524, -0.025598928332328796, -0.02425585687160492, -0.02291278727352619, -0.021569717675447464, -0.020226648077368736, -0.01888357847929001, -0.01754050701856613, -0.016197437420487404, -0.014854367822408676, -0.013511297293007374, -0.012168226763606071, -0.010825157165527344, -0.009482087567448616, -0.008139017038047314, -0.006795946974307299, -0.005452876910567284, -0.004109806846827269, -0.0027667367830872536, -0.0014236662536859512, -8.059665560722351e-05, 0.0012624734081327915, 0.0026055434718728065, 0.003948613535612822, 0.005291683599352837, 0.006634753663092852, 0.007977823726832867, 0.009320894256234169, 0.010663963854312897, 0.012007033452391624, 0.013350103981792927, 0.014693174511194229, 0.016036244109272957, 0.017379313707351685, 0.01872238516807556, 0.02006545476615429, 0.021408524364233017, 0.022751593962311745, 0.024094663560390472, 0.02543773502111435, 0.026780804619193077, 0.028123874217271805, 0.029466945677995682, 0.03081001527607441, 0.03215308487415314, 0.033496156334877014, 0.03483922407031059, 0.03618229553103447, 0.03752536326646805, 0.038868434727191925, 0.0402115061879158, 0.04155457764863968, 0.04289764538407326]}, "gradients/convolution.5.weight": {"_type": "histogram", "values": [1.0, 0.0, 0.0, 1.0, 1.0, 0.0, 0.0, 0.0, 0.0, 0.0, 0.0, 0.0, 0.0, 0.0, 0.0, 0.0, 0.0, 0.0, 1.0, 1.0, 0.0, 0.0, 0.0, 0.0, 0.0, 0.0, 0.0, 0.0, 0.0, 0.0, 0.0, 0.0, 0.0, 0.0, 0.0, 0.0, 0.0, 0.0, 0.0, 0.0, 0.0, 0.0, 0.0, 0.0, 0.0, 0.0, 1.0, 0.0, 0.0, 0.0, 0.0, 0.0, 0.0, 0.0, 0.0, 0.0, 1.0, 0.0, 0.0, 0.0, 0.0, 0.0, 0.0, 1.0], "bins": [-0.03227555379271507, -0.03151240944862366, -0.03074926882982254, -0.029986126348376274, -0.029222983866930008, -0.028459841385483742, -0.027696698904037476, -0.02693355455994606, -0.026170413941144943, -0.025407271459698677, -0.02464412897825241, -0.023880986496806145, -0.02311784401535988, -0.022354701533913612, -0.021591559052467346, -0.02082841470837593, -0.020065272226929665, -0.0193021297454834, -0.018538987264037132, -0.017775844782590866, -0.0170127023011446, -0.016249559819698334, -0.015486416406929493, -0.014723273925483227, -0.013960130512714386, -0.01319698803126812, -0.012433845549821854, -0.011670703068375587, -0.010907560586929321, -0.010144418105483055, -0.009381274692714214, -0.008618132211267948, -0.007854990661144257, -0.00709184817969799, -0.006328705698251724, -0.005565562751144171, -0.004802420269697905, -0.004039277788251638, -0.003276134841144085, -0.0025129923596978188, -0.0017498508095741272, -0.0009867082117125392, -0.0002235656138509512, 0.0005395771004259586, 0.0013027195818722248, 0.002065862063318491, 0.0028290050104260445, 0.0035921474918723106, 0.004355290904641151, 0.005118433386087418, 0.005881575867533684, 0.006644718814641237, 0.007407861296087503, 0.008171003311872482, 0.008934146724641323, 0.00969728920608759, 0.010460431687533855, 0.011223574168980122, 0.011986716650426388, 0.012749860063195229, 0.013513002544641495, 0.014276145026087761, 0.015039287507534027, 0.015802429988980293, 0.01656557247042656]}, "gradients/convolution.5.bias": {"_type": "histogram", "values": [1.0, 0.0, 0.0, 0.0, 0.0, 0.0, 0.0, 0.0, 0.0, 1.0, 0.0, 0.0, 0.0, 0.0, 0.0, 0.0, 0.0, 0.0, 0.0, 0.0, 0.0, 0.0, 0.0, 1.0, 0.0, 0.0, 0.0, 0.0, 0.0, 0.0, 0.0, 0.0, 1.0, 0.0, 1.0, 0.0, 0.0, 0.0, 0.0, 0.0, 0.0, 0.0, 0.0, 0.0, 0.0, 0.0, 0.0, 0.0, 0.0, 0.0, 0.0, 0.0, 1.0, 0.0, 0.0, 0.0, 0.0, 0.0, 0.0, 0.0, 1.0, 0.0, 0.0, 1.0], "bins": [-0.024774812161922455, -0.023947255685925484, -0.023119699209928513, -0.02229214273393154, -0.02146458625793457, -0.0206370297819376, -0.019809473305940628, -0.018981918692588806, -0.018154360353946686, -0.017326803877949715, -0.016499247401952744, -0.015671690925955772, -0.014844134449958801, -0.01401657797396183, -0.013189022429287434, -0.012361465953290462, -0.011533910408616066, -0.010706353932619095, -0.009878797456622124, -0.009051240980625153, -0.008223684504628181, -0.007396128494292498, -0.006568572483956814, -0.005741016007959843, -0.004913460463285446, -0.004085903987288475, -0.0032583477441221476, -0.00243079150095582, -0.001603235024958849, -0.0007756785489618778, 5.1877461373806e-05, 0.0008794339373707771, 0.0017069913446903229, 0.002534547820687294, 0.0033621040638536215, 0.004189660307019949, 0.00501721678301692, 0.005844773259013891, 0.006672329269349575, 0.007499885745346546, 0.008327443152666092, 0.009154999628663063, 0.009982556104660034, 0.010810112580657005, 0.011637669056653976, 0.012465225532650948, 0.013292781077325344, 0.014120337553322315, 0.014947893097996712, 0.015775449573993683, 0.016603006049990654, 0.017430562525987625, 0.018258119001984596, 0.019085675477981567, 0.01991323009133339, 0.02074078842997551, 0.02156834304332733, 0.022395899519324303, 0.023223455995321274, 0.024051012471318245, 0.024878568947315216, 0.025706125423312187, 0.02653368189930916, 0.02736123651266098, 0.0281887948513031]}, "gradients/convolution.4.weight": {"_type": "histogram", "values": [1.0, 0.0, 0.0, 1.0, 1.0, 1.0, 0.0, 0.0, 0.0, 0.0, 1.0, 0.0, 1.0, 0.0, 3.0, 0.0, 0.0, 2.0, 1.0, 0.0, 1.0, 1.0, 1.0, 0.0, 0.0, 2.0, 2.0, 1.0, 0.0, 1.0, 1.0, 0.0, 2.0, 5.0, 2.0, 6.0, 7.0, 8.0, 11.0, 6.0, 7.0, 14.0, 6.0, 16.0, 14.0, 22.0, 17.0, 17.0, 11.0, 20.0, 14.0, 9.0, 7.0, 10.0, 9.0, 6.0, 3.0, 7.0, 1.0, 2.0, 2.0, 2.0, 2.0, 1.0], "bins": [-0.18989445269107819, -0.185716450214386, -0.1815384477376938, -0.1773604452610016, -0.17318245768547058, -0.16900445520877838, -0.16482645273208618, -0.16064845025539398, -0.15647044777870178, -0.15229244530200958, -0.14811444282531738, -0.14393644034862518, -0.13975843787193298, -0.13558045029640198, -0.13140244781970978, -0.12722444534301758, -0.12304644286632538, -0.11886844038963318, -0.11469043791294098, -0.11051244288682938, -0.10633444041013718, -0.10215643793344498, -0.09797844290733337, -0.09380044043064117, -0.08962243795394897, -0.08544443547725677, -0.08126643300056458, -0.07708843797445297, -0.07291043549776077, -0.06873243302106857, -0.06455443799495697, -0.06037643551826477, -0.05619841814041138, -0.05202041566371918, -0.047842416912317276, -0.043664418160915375, -0.039486415684223175, -0.035308413207530975, -0.031130414456129074, -0.026952413842082024, -0.022774413228034973, -0.018596412613987923, -0.014418411999940872, -0.010240411385893822, -0.006062410771846771, -0.0018844101577997208, 0.0022935904562473297, 0.00647159107029438, 0.01064959168434143, 0.014827592298388481, 0.01900559291243553, 0.023183593526482582, 0.027361594140529633, 0.03153959661722183, 0.035717595368623734, 0.039895594120025635, 0.044073596596717834, 0.048251599073410034, 0.052429597824811935, 0.05660759657621384, 0.060785599052906036, 0.06496360152959824, 0.06914159655570984, 0.07331959903240204, 0.07749760150909424]}, "gradients/convolution.4.bias": {"_type": "histogram", "values": [1.0, 1.0, 0.0, 0.0, 0.0, 0.0, 0.0, 0.0, 0.0, 0.0, 0.0, 1.0, 0.0, 0.0, 1.0, 2.0, 0.0, 0.0, 0.0, 0.0, 0.0, 0.0, 0.0, 0.0, 0.0, 0.0, 1.0, 0.0, 0.0, 0.0, 0.0, 0.0, 0.0, 0.0, 0.0, 0.0, 0.0, 0.0, 0.0, 0.0, 0.0, 0.0, 0.0, 0.0, 0.0, 0.0, 0.0, 0.0, 0.0, 0.0, 0.0, 0.0, 0.0, 0.0, 0.0, 0.0, 0.0, 0.0, 0.0, 0.0, 0.0, 0.0, 0.0, 1.0], "bins": [-3.986060619354248e-07, -3.4304684959352016e-07, -2.874876372516155e-07, -2.3192842490971088e-07, -1.7636921256780624e-07, -1.208100002259016e-07, -6.525078788399696e-08, -9.691575542092323e-09, 4.586763679981232e-08, 1.0142684914171696e-07, 1.569860614836216e-07, 2.1254527382552624e-07, 2.681044861674309e-07, 3.236636985093355e-07, 3.7922291085124016e-07, 4.347821231931448e-07, 4.903413355350494e-07, 5.459005478769541e-07, 6.014597602188587e-07, 6.570189725607634e-07, 7.12578184902668e-07, 7.681373972445726e-07, 8.236966095864773e-07, 8.792558219283819e-07, 9.348150342702866e-07, 9.903742466121912e-07, 1.0459334589540958e-06, 1.1014926712960005e-06, 1.1570518836379051e-06, 1.2126110959798098e-06, 1.2681703083217144e-06, 1.323729520663619e-06, 1.3792887330055237e-06, 1.4348479453474283e-06, 1.490407157689333e-06, 1.5459663700312376e-06, 1.6015255823731422e-06, 1.6570847947150469e-06, 1.7126440070569515e-06, 1.7682032193988562e-06, 1.8237624317407608e-06, 1.8793216440826654e-06, 1.93488085642457e-06, 1.9904400687664747e-06, 2.0459992811083794e-06, 2.101558493450284e-06, 2.1571177057921886e-06, 2.2126769181340933e-06, 2.268236130475998e-06, 2.3237953428179026e-06, 2.379354555159807e-06, 2.434913767501712e-06, 2.4904729798436165e-06, 2.546032192185521e-06, 2.6015914045274258e-06, 2.6571506168693304e-06, 2.712709829211235e-06, 2.7682690415531397e-06, 2.8238282538950443e-06, 2.879387466236949e-06, 2.9349466785788536e-06, 2.9905058909207582e-06, 3.046065103262663e-06, 3.1016243156045675e-06, 3.157183527946472e-06]}, "gradients/convolution.1.weight": {"_type": "histogram", "values": [1.0, 0.0, 0.0, 0.0, 0.0, 0.0, 1.0, 0.0, 0.0, 0.0, 0.0, 0.0, 0.0, 0.0, 0.0, 0.0, 1.0, 0.0, 0.0, 0.0, 0.0, 0.0, 0.0, 0.0, 0.0, 0.0, 0.0, 0.0, 0.0, 0.0, 0.0, 0.0, 0.0, 0.0, 0.0, 0.0, 0.0, 0.0, 0.0, 0.0, 0.0, 0.0, 0.0, 0.0, 0.0, 0.0, 0.0, 0.0, 0.0, 0.0, 0.0, 0.0, 0.0, 0.0, 0.0, 0.0, 0.0, 0.0, 0.0, 0.0, 0.0, 0.0, 0.0, 1.0], "bins": [-0.01327023096382618, -0.012638505548238754, -0.012006779201328754, -0.01137505378574133, -0.01074332743883133, -0.010111602023243904, -0.009479876607656479, -0.008848151192069054, -0.008216424845159054, -0.007584698963910341, -0.006952973082661629, -0.0063212476670742035, -0.005689521785825491, -0.005057795904576778, -0.004426070488989353, -0.0037943446077406406, -0.003162618726491928, -0.0025308928452432156, -0.0018991671968251467, -0.001267441431991756, -0.0006357156671583652, -3.98978590965271e-06, 0.0006277358625084162, 0.001259461510926485, 0.0018911873921751976, 0.00252291327342391, 0.003154638921841979, 0.003786364570260048, 0.0044180904515087605, 0.005049816332757473, 0.005681541748344898, 0.006313267629593611, 0.006944991648197174, 0.007576717529445887, 0.0082084434106946, 0.008840168826282024, 0.009471895173192024, 0.01010362058877945, 0.010735346004366875, 0.0113670714199543, 0.0119987977668643, 0.012630523182451725, 0.013262249529361725, 0.01389397494494915, 0.014525700360536575, 0.015157426707446575, 0.015789153054356575, 0.016420878469944, 0.017052603885531425, 0.01768432930111885, 0.018316054716706276, 0.01894778199493885, 0.019579507410526276, 0.0202112328261137, 0.020842958241701126, 0.02147468365728855, 0.022106409072875977, 0.022738134488463402, 0.023369859904050827, 0.0240015871822834, 0.024633312597870827, 0.025265038013458252, 0.025896763429045677, 0.026528488844633102, 0.027160216122865677]}, "gradients/convolution.1.bias": {"_type": "histogram", "values": [1.0, 0.0, 1.0, 0.0, 0.0, 0.0, 0.0, 0.0, 0.0, 0.0, 0.0, 0.0, 0.0, 0.0, 0.0, 0.0, 0.0, 0.0, 0.0, 0.0, 0.0, 0.0, 0.0, 0.0, 0.0, 0.0, 0.0, 0.0, 0.0, 0.0, 0.0, 0.0, 0.0, 0.0, 0.0, 0.0, 0.0, 0.0, 0.0, 0.0, 0.0, 1.0, 0.0, 0.0, 0.0, 0.0, 0.0, 0.0, 0.0, 0.0, 0.0, 0.0, 0.0, 0.0, 0.0, 0.0, 0.0, 0.0, 0.0, 0.0, 0.0, 0.0, 0.0, 1.0], "bins": [-0.012495240196585655, -0.012189043685793877, -0.011882847175002098, -0.01157665066421032, -0.011270454153418541, -0.010964257642626762, -0.010658061131834984, -0.010351864621043205, -0.010045668110251427, -0.009739471599459648, -0.00943327508866787, -0.009127078577876091, -0.008820882067084312, -0.008514685556292534, -0.008208489045500755, -0.007902292534708977, -0.007596096955239773, -0.007289900444447994, -0.006983703933656216, -0.006677507422864437, -0.0063713109120726585, -0.00606511440128088, -0.005758918356150389, -0.00545272184535861, -0.005146525334566832, -0.004840328823775053, -0.0045341323129832745, -0.004227935802191496, -0.003921739757061005, -0.0036155430134385824, -0.0033093467354774475, -0.003003150224685669, -0.0026969527825713158, -0.002390756271779537, -0.0020845597609877586, -0.0017783634830266237, -0.0014721669722348452, -0.0011659704614430666, -0.0008597740670666099, -0.0005535776726901531, -0.00024738116189837456, 5.8815290685743093e-05, 0.00036501174326986074, 0.0006712081958539784, 0.000977404648438096, 0.0012836011592298746, 0.0015897975536063313, 0.001895993947982788, 0.0022021904587745667, 0.002508386969566345, 0.0028145834803581238, 0.0031207797583192587, 0.0034269762691110373, 0.003733172779902816, 0.004039369057863951, 0.004345565568655729, 0.004651762079447508, 0.004957958590239286, 0.005264155101031065, 0.0055703516118228436, 0.005876547656953335, 0.006182744167745113, 0.006488940678536892, 0.0067951371893286705, 0.007101333700120449]}, "gradients/convolution.0.weight": {"_type": "histogram", "values": [1.0, 0.0, 0.0, 0.0, 0.0, 0.0, 0.0, 0.0, 0.0, 0.0, 0.0, 0.0, 1.0, 0.0, 0.0, 1.0, 1.0, 1.0, 0.0, 0.0, 0.0, 0.0, 0.0, 1.0, 1.0, 0.0, 1.0, 0.0, 1.0, 0.0, 0.0, 2.0, 0.0, 1.0, 0.0, 1.0, 1.0, 0.0, 3.0, 0.0, 2.0, 1.0, 0.0, 0.0, 0.0, 3.0, 2.0, 1.0, 1.0, 1.0, 0.0, 0.0, 1.0, 2.0, 1.0, 1.0, 1.0, 0.0, 0.0, 0.0, 0.0, 1.0, 0.0, 1.0], "bins": [-0.16289789974689484, -0.15909847617149353, -0.15529906749725342, -0.1514996439218521, -0.1477002203464508, -0.1439007967710495, -0.1401013880968094, -0.13630196452140808, -0.13250254094600677, -0.12870311737060547, -0.12490370124578476, -0.12110428512096405, -0.11730486154556274, -0.11350544542074203, -0.10970602184534073, -0.10590660572052002, -0.10210718214511871, -0.098307766020298, -0.0945083424448967, -0.09070892632007599, -0.08690950274467468, -0.08311008661985397, -0.07931066304445267, -0.07551124691963196, -0.07171183079481125, -0.06791241466999054, -0.06411299109458923, -0.060313571244478226, -0.05651415139436722, -0.05271473526954651, -0.0489153116941452, -0.04511589556932449, -0.04131647199392319, -0.03751705214381218, -0.03371763229370117, -0.029918212443590164, -0.026118792593479156, -0.022319374606013298, -0.01851995475590229, -0.014720534905791283, -0.010921113193035126, -0.007121693342924118, -0.0033222739584743977, 0.0004771454259753227, 0.00427656527608633, 0.008075984194874763, 0.011875404044985771, 0.01567482389509678, 0.019474241882562637, 0.023273661732673645, 0.027073081582784653, 0.03087250143289566, 0.03467192128300667, 0.038471341133117676, 0.042270757257938385, 0.04607018083333969, 0.0498695969581604, 0.05366901680827141, 0.057468436658382416, 0.06126785650849342, 0.06506727635860443, 0.06886669248342514, 0.07266611605882645, 0.07646553218364716, 0.08026495575904846]}, "gradients/convolution.0.bias": {"_type": "histogram", "values": [1.0, 0.0, 0.0, 1.0, 0.0, 0.0, 0.0, 0.0, 0.0, 0.0, 0.0, 0.0, 0.0, 0.0, 0.0, 0.0, 0.0, 0.0, 0.0, 0.0, 0.0, 0.0, 0.0, 0.0, 0.0, 0.0, 0.0, 0.0, 0.0, 0.0, 0.0, 0.0, 0.0, 0.0, 0.0, 0.0, 0.0, 0.0, 0.0, 0.0, 0.0, 0.0, 0.0, 0.0, 0.0, 0.0, 0.0, 0.0, 0.0, 0.0, 0.0, 0.0, 0.0, 0.0, 0.0, 0.0, 0.0, 0.0, 0.0, 0.0, 0.0, 0.0, 0.0, 2.0], "bins": [2.998160198330879e-06, 5.1492352213244885e-06, 7.300310244318098e-06, 9.451385267311707e-06, 1.1602460290305316e-05, 1.3753535313298926e-05, 1.5904610336292535e-05, 1.8055685359286144e-05, 2.0206760382279754e-05, 2.2357835405273363e-05, 2.4508910428266972e-05, 2.665998545126058e-05, 2.881106047425419e-05, 3.09621354972478e-05, 3.311321052024141e-05, 3.526428554323502e-05, 3.741536056622863e-05, 3.956643558922224e-05, 4.171751061221585e-05, 4.3868585635209456e-05, 4.6019660658203065e-05, 4.8170735681196675e-05, 5.0321810704190284e-05, 5.247288572718389e-05, 5.46239607501775e-05, 5.677503577317111e-05, 5.892611079616472e-05, 6.107718218117952e-05, 6.322826084215194e-05, 6.537933950312436e-05, 6.753041088813916e-05, 6.968148227315396e-05, 7.183256093412638e-05, 7.39836395950988e-05, 7.61347109801136e-05, 7.82857823651284e-05, 8.043686102610081e-05, 8.258793968707323e-05, 8.473901107208803e-05, 8.689008245710284e-05, 8.904116111807525e-05, 9.119223977904767e-05, 9.334331116406247e-05, 9.549438254907727e-05, 9.764546121004969e-05, 9.97965398710221e-05, 0.00010194761125603691, 0.00010409868264105171, 0.00010624976130202413, 0.00010840083996299654, 0.00011055191134801134, 0.00011270298273302615, 0.00011485406139399856, 0.00011700514005497098, 0.00011915621143998578, 0.00012130728282500058, 0.000123458361485973, 0.00012560944014694542, 0.00012776051880791783, 0.00012991158291697502, 0.00013206266157794744, 0.00013421374023891985, 0.00013636480434797704, 0.00013851588300894946, 0.00014066696166992188]}, "MNIST_prediction": {"_type": "table-file", "path": "media/table/MNIST_prediction_10_9838b28af22e379d53ee.table.json", "sha256": "9838b28af22e379d53eeddb042b340de19a43082c06d062377df4c94b05cc081", "size": 191, "artifact_path": "wandb-client-artifact://gxx1963l680we5d1x0t9glgcq4srq3culh763d5334e3z0awizp8o1bhty9epz5vvri0tonkhq0oou6r57adgt7zyrbylp2p4az3rze6lgna7s9n2d22v48u8r9q71tw:latest/MNIST_prediction.table.json", "_latest_artifact_path": "wandb-client-artifact://gxx1963l680we5d1x0t9glgcq4srq3culh763d5334e3z0awizp8o1bhty9epz5vvri0tonkhq0oou6r57adgt7zyrbylp2p4az3rze6lgna7s9n2d22v48u8r9q71tw:latest/MNIST_prediction.table.json", "ncols": 3, "nrows": 8}, "_wandb": {"runtime": 21}}