{"loss": 0.16399621963500977, "_runtime": 13, "_timestamp": 1641814172, "_step": 5, "gradients/linear.3.bias": {"_type": "histogram", "values": [1.0, 1.0, 0.0, 0.0, 0.0, 1.0, 0.0, 0.0, 0.0, 0.0, 0.0, 0.0, 0.0, 0.0, 0.0, 0.0, 0.0, 0.0, 0.0, 0.0, 0.0, 0.0, 0.0, 0.0, 0.0, 0.0, 0.0, 0.0, 0.0, 0.0, 0.0, 1.0, 0.0, 1.0, 0.0, 0.0, 1.0, 0.0, 0.0, 0.0, 0.0, 0.0, 0.0, 0.0, 0.0, 0.0, 0.0, 0.0, 0.0, 0.0, 0.0, 0.0, 0.0, 0.0, 0.0, 1.0, 0.0, 0.0, 0.0, 1.0, 0.0, 1.0, 0.0, 1.0], "bins": [-0.016465142369270325, -0.015994330868124962, -0.015523519366979599, -0.015052707865834236, -0.014581896364688873, -0.01411108486354351, -0.013640273362398148, -0.013169461861252785, -0.012698650360107422, -0.012227838858962059, -0.011757027357816696, -0.011286215856671333, -0.01081540435552597, -0.010344592854380608, -0.009873781353235245, -0.009402969852089882, -0.008932159282267094, -0.00846134778112173, -0.007990536279976368, -0.007519724778831005, -0.007048913277685642, -0.006578101776540279, -0.006107290741056204, -0.005636479239910841, -0.0051656682044267654, -0.004694856703281403, -0.00422404520213604, -0.0037532339338213205, -0.0032824224326759577, -0.002811610931530595, -0.0023407996632158756, -0.0018699881620705128, -0.0013991771265864372, -0.0009283656836487353, -0.00045755424071103334, 1.3257144019007683e-05, 0.00048406864516437054, 0.0009548801463097334, 0.0014256914146244526, 0.0018965029157698154, 0.0023673148825764656, 0.0028381263837218285, 0.0033089378848671913, 0.0037797491531819105, 0.004250560887157917, 0.00472137238830328, 0.005192183423787355, 0.005662994924932718, 0.006133805960416794, 0.006604617461562157, 0.0070754289627075195, 0.007546240463852882, 0.008017051964998245, 0.008487863466143608, 0.008958674967288971, 0.009429486468434334, 0.009900297969579697, 0.01037110947072506, 0.010841920971870422, 0.011312732473015785, 0.011783543974161148, 0.012254355475306511, 0.012725166976451874, 0.013195978477597237, 0.013666789047420025]}, "gradients/linear.3.weight": {"_type": "histogram", "values": [1.0, 0.0, 0.0, 0.0, 0.0, 0.0, 0.0, 0.0, 0.0, 0.0, 0.0, 0.0, 1.0, 2.0, 1.0, 0.0, 1.0, 0.0, 1.0, 2.0, 1.0, 0.0, 2.0, 2.0, 2.0, 1.0, 2.0, 3.0, 5.0, 3.0, 2.0, 9.0, 7.0, 10.0, 14.0, 15.0, 21.0, 15.0, 20.0, 52.0, 198.0, 69.0, 44.0, 33.0, 25.0, 15.0, 11.0, 12.0, 8.0, 9.0, 4.0, 4.0, 3.0, 3.0, 2.0, 0.0, 1.0, 2.0, 0.0, 0.0, 0.0, 0.0, 1.0, 1.0], "bins": [-0.17670877277851105, -0.17232021689414978, -0.1679316759109497, -0.16354312002658844, -0.15915457904338837, -0.1547660231590271, -0.15037748217582703, -0.14598892629146576, -0.1416003704071045, -0.13721181452274323, -0.13282327353954315, -0.12843471765518188, -0.12404616922140121, -0.11965762078762054, -0.11526907235383987, -0.1108805239200592, -0.10649197548627853, -0.10210342705249786, -0.0977148786187172, -0.09332633018493652, -0.08893777430057526, -0.08454922586679459, -0.08016067743301392, -0.07577212899923325, -0.07138358056545258, -0.0669950321316719, -0.06260648369789124, -0.05821793153882027, -0.0538293793797493, -0.04944083094596863, -0.04505228251218796, -0.04066373407840729, -0.03627518564462662, -0.03188663721084595, -0.02749808505177498, -0.02310953661799431, -0.01872098632156849, -0.01433243602514267, -0.009943887591362, -0.00555533729493618, -0.0011667832732200623, 0.00322176655754447, 0.007610316388309002, 0.011998865753412247, 0.016387416049838066, 0.020775966346263885, 0.025164514780044556, 0.029553065076470375, 0.033941611647605896, 0.038330160081386566, 0.042718712240457535, 0.047107260674238205, 0.051495812833309174, 0.055884361267089844, 0.060272909700870514, 0.06466145813465118, 0.06905001401901245, 0.07343856245279312, 0.07782711088657379, 0.08221566677093506, 0.08660421520471573, 0.0909927636384964, 0.09538131207227707, 0.09976986050605774, 0.10415840893983841]}, "gradients/linear.0.bias": {"_type": "histogram", "values": [1.0, 0.0, 2.0, 0.0, 0.0, 0.0, 0.0, 0.0, 1.0, 0.0, 0.0, 0.0, 0.0, 0.0, 0.0, 0.0, 2.0, 0.0, 1.0, 0.0, 1.0, 1.0, 0.0, 0.0, 2.0, 3.0, 5.0, 1.0, 1.0, 2.0, 1.0, 1.0, 2.0, 2.0, 0.0, 11.0, 0.0, 4.0, 3.0, 1.0, 0.0, 2.0, 0.0, 2.0, 0.0, 0.0, 0.0, 2.0, 0.0, 1.0, 0.0, 0.0, 1.0, 0.0, 3.0, 2.0, 0.0, 0.0, 0.0, 0.0, 0.0, 1.0, 1.0, 1.0], "bins": [-0.0108102448284626, -0.010508713312447071, -0.010207180865108967, -0.009905649349093437, -0.009604116901755333, -0.009302585385739803, -0.009001053869724274, -0.00869952142238617, -0.00839798990637064, -0.00809645839035511, -0.007794925943017006, -0.007493394427001476, -0.007191862445324659, -0.006890330463647842, -0.0065887984819710255, -0.0062872665002942085, -0.005985734518617392, -0.005684202536940575, -0.005382670555263758, -0.005081138573586941, -0.004779607057571411, -0.004478075075894594, -0.004176543094217777, -0.003875011345371604, -0.0035734791308641434, -0.0032719471491873264, -0.002970415400341153, -0.002668883418664336, -0.002367351669818163, -0.002065819688141346, -0.001764287706464529, -0.0014627559576183558, -0.0011612242087721825, -0.0008596923435106874, -0.0005581604200415313, -0.0002566284965723753, 4.4903368689119816e-05, 0.00034643523395061493, 0.0006479672156274319, 0.0009494989644736052, 0.0012510307133197784, 0.0015525625785812736, 0.0018540944438427687, 0.0021556264255195856, 0.002457158174365759, 0.002758690156042576, 0.0030602221377193928, 0.003361753886565566, 0.0036632861010730267, 0.003964818082749844, 0.0042663500644266605, 0.0045678820461034775, 0.004869413562119007, 0.005170945543795824, 0.005472477525472641, 0.005774009041488171, 0.006075541488826275, 0.006377073470503092, 0.006678605452179909, 0.006980136968195438, 0.007281668949872255, 0.007583200931549072, 0.007884733378887177, 0.008186264894902706, 0.008487796410918236]}, "gradients/linear.0.weight": {"_type": "histogram", "values": [1.0, 0.0, 1.0, 2.0, 2.0, 1.0, 1.0, 1.0, 5.0, 2.0, 6.0, 7.0, 9.0, 7.0, 16.0, 17.0, 24.0, 32.0, 36.0, 33.0, 60.0, 72.0, 82.0, 108.0, 135.0, 141.0, 189.0, 268.0, 336.0, 445.0, 664.0, 945.0, 1450.0, 2731.0, 11758.0, 1698.0, 970.0, 657.0, 519.0, 372.0, 262.0, 223.0, 166.0, 122.0, 114.0, 78.0, 73.0, 55.0, 47.0, 25.0, 33.0, 14.0, 22.0, 18.0, 8.0, 5.0, 4.0, 6.0, 4.0, 3.0, 0.0, 1.0, 1.0, 1.0], "bins": [-0.054020803421735764, -0.05245203152298927, -0.05088325962424278, -0.04931449145078659, -0.0477457195520401, -0.04617694765329361, -0.04460817575454712, -0.04303940385580063, -0.04147063195705414, -0.03990186005830765, -0.03833308815956116, -0.03676431626081467, -0.035195548087358475, -0.033626776188611984, -0.032058004289865494, -0.030489232391119003, -0.02892046421766281, -0.02735169231891632, -0.02578292228281498, -0.02421415038406849, -0.022645380347967148, -0.021076608449220657, -0.019507836550474167, -0.017939064651727676, -0.016370292752981186, -0.01480152178555727, -0.013232750818133354, -0.011663978919386864, -0.010095207951962948, -0.008526436984539032, -0.0069576650857925415, -0.005388894118368626, -0.003820125013589859, -0.0022513538133352995, -0.00068258261308074, 0.0008861888200044632, 0.002454959787428379, 0.004023730754852295, 0.005592502653598785, 0.007161273621022701, 0.008730042725801468, 0.010298813693225384, 0.0118675846606493, 0.01343635655939579, 0.015005127526819706, 0.016573898494243622, 0.018142670392990112, 0.019711442291736603, 0.021280214190483093, 0.022848986089229584, 0.024417756125330925, 0.025986528024077415, 0.027555298060178757, 0.029124069958925247, 0.030692841857671738, 0.03226161375641823, 0.03383038192987442, 0.03539915382862091, 0.0369679257273674, 0.03853669762611389, 0.040105465799570084, 0.041674237698316574, 0.043243009597063065, 0.044811781495809555, 0.046380553394556046]}, "gradients/convolution.5.weight": {"_type": "histogram", "values": [1.0, 0.0, 0.0, 0.0, 0.0, 0.0, 0.0, 0.0, 0.0, 0.0, 0.0, 0.0, 0.0, 0.0, 1.0, 0.0, 0.0, 0.0, 1.0, 0.0, 1.0, 0.0, 0.0, 0.0, 0.0, 0.0, 0.0, 0.0, 0.0, 0.0, 0.0, 0.0, 0.0, 0.0, 0.0, 0.0, 0.0, 0.0, 0.0, 0.0, 0.0, 0.0, 0.0, 0.0, 1.0, 0.0, 0.0, 0.0, 0.0, 0.0, 0.0, 0.0, 0.0, 0.0, 0.0, 1.0, 0.0, 0.0, 0.0, 0.0, 0.0, 0.0, 1.0, 1.0], "bins": [-0.04203173145651817, -0.04140748083591461, -0.04078323394060135, -0.04015898331999779, -0.039534732699394226, -0.038910482078790665, -0.0382862351834774, -0.03766198456287384, -0.03703773394227028, -0.03641348332166672, -0.035789236426353455, -0.03516498580574989, -0.03454073518514633, -0.03391648456454277, -0.03329223766922951, -0.032667987048625946, -0.03204374015331268, -0.03141948953270912, -0.03079524077475071, -0.030170992016792297, -0.029546741396188736, -0.028922492638230324, -0.028298242017626762, -0.02767399325966835, -0.02704974263906479, -0.026425493881106377, -0.025801243260502815, -0.025176994502544403, -0.02455274388194084, -0.02392849512398243, -0.023304244503378868, -0.022679995745420456, -0.022055745124816895, -0.021431496366858482, -0.02080724574625492, -0.02018299698829651, -0.019558746367692947, -0.018934497609734535, -0.018310246989130974, -0.01768599823117256, -0.017061747610569, -0.016437498852610588, -0.015813248232007027, -0.01518899854272604, -0.014564748853445053, -0.013940500095486641, -0.013316250406205654, -0.012692000716924667, -0.012067751958966255, -0.011443502269685268, -0.010819252580404282, -0.010195002891123295, -0.009570753201842308, -0.008946504443883896, -0.008322254754602909, -0.007698005065321922, -0.0070737553760409355, -0.006449505686759949, -0.005825255997478962, -0.0052010067738592625, -0.004576757084578276, -0.003952507395297289, -0.0033282579388469458, -0.0027040084823966026, -0.002079758560284972]}, "gradients/convolution.5.bias": {"_type": "histogram", "values": [1.0, 0.0, 0.0, 0.0, 0.0, 0.0, 0.0, 0.0, 0.0, 0.0, 0.0, 0.0, 0.0, 0.0, 0.0, 0.0, 1.0, 0.0, 0.0, 0.0, 0.0, 0.0, 0.0, 0.0, 0.0, 0.0, 0.0, 0.0, 0.0, 0.0, 0.0, 1.0, 0.0, 0.0, 0.0, 0.0, 0.0, 0.0, 0.0, 0.0, 0.0, 0.0, 0.0, 0.0, 0.0, 0.0, 0.0, 0.0, 0.0, 0.0, 1.0, 1.0, 0.0, 0.0, 0.0, 0.0, 0.0, 0.0, 2.0, 0.0, 0.0, 0.0, 0.0, 1.0], "bins": [-0.026107100769877434, -0.025804821401834488, -0.02550254389643669, -0.025200264528393745, -0.0248979851603508, -0.024595705792307854, -0.024293426424264908, -0.02399114891886711, -0.023688869550824165, -0.02338659018278122, -0.023084312677383423, -0.022782033309340477, -0.02247975394129753, -0.022177474573254585, -0.02187519520521164, -0.021572917699813843, -0.021270638331770897, -0.02096835896372795, -0.020666081458330154, -0.02036380209028721, -0.020061522722244263, -0.019759243354201317, -0.01945696398615837, -0.019154686480760574, -0.01885240711271763, -0.018550127744674683, -0.018247850239276886, -0.01794557087123394, -0.017643291503190994, -0.01734101213514805, -0.017038732767105103, -0.016736455261707306, -0.01643417589366436, -0.016131896525621414, -0.015829619020223618, -0.015527339652180672, -0.015225060284137726, -0.01492278091609478, -0.014620502479374409, -0.014318224042654037, -0.014015944674611092, -0.013713665306568146, -0.013411386869847775, -0.013109108433127403, -0.012806829065084457, -0.012504549697041512, -0.01220227126032114, -0.011899992823600769, -0.011597713455557823, -0.011295434087514877, -0.010993155650794506, -0.010690877214074135, -0.010388597846031189, -0.010086318477988243, -0.009784040041267872, -0.0094817616045475, -0.009179482236504555, -0.008877202868461609, -0.008574924431741238, -0.008272645995020866, -0.00797036662697792, -0.007668087724596262, -0.007365808822214603, -0.007063529919832945, -0.006761251483112574]}, "gradients/convolution.4.weight": {"_type": "histogram", "values": [4.0, 0.0, 0.0, 0.0, 1.0, 3.0, 3.0, 5.0, 7.0, 2.0, 2.0, 2.0, 4.0, 13.0, 11.0, 5.0, 8.0, 8.0, 13.0, 9.0, 20.0, 21.0, 17.0, 12.0, 13.0, 8.0, 7.0, 10.0, 11.0, 4.0, 8.0, 5.0, 6.0, 3.0, 5.0, 3.0, 1.0, 6.0, 2.0, 5.0, 1.0, 1.0, 3.0, 4.0, 0.0, 2.0, 4.0, 0.0, 1.0, 1.0, 2.0, 0.0, 0.0, 0.0, 0.0, 0.0, 0.0, 0.0, 1.0, 0.0, 0.0, 0.0, 0.0, 1.0], "bins": [-0.05672605335712433, -0.05407357215881348, -0.051421087235212326, -0.048768606036901474, -0.046116121113300323, -0.04346363991498947, -0.04081115871667862, -0.03815867751836777, -0.03550619259476662, -0.032853711396455765, -0.030201226472854614, -0.027548745274543762, -0.02489626221358776, -0.02224377915263176, -0.019591297954320908, -0.016938814893364906, -0.014286331832408905, -0.011633848771452904, -0.008981366641819477, -0.00632888451218605, -0.003676401451230049, -0.0010239183902740479, 0.0016285628080368042, 0.0042810458689928055, 0.006933525204658508, 0.00958600826561451, 0.012238490395247936, 0.014890972524881363, 0.017543455585837364, 0.020195938646793365, 0.022848419845104218, 0.02550090290606022, 0.02815338224172592, 0.030805865302681923, 0.033458348363637924, 0.036110829561948776, 0.03876331448554993, 0.04141579568386078, 0.04406827688217163, 0.04672075808048248, 0.04937324672937393, 0.052025727927684784, 0.054678212851285934, 0.057330694049596786, 0.05998317897319794, 0.06263566017150879, 0.06528814136981964, 0.0679406225681305, 0.07059310376644135, 0.0732455849647522, 0.07589806616306305, 0.0785505473613739, 0.08120303601026535, 0.0838555172085762, 0.08650799840688705, 0.0891604796051979, 0.09181296825408936, 0.09446544945240021, 0.09711793065071106, 0.09977041184902191, 0.10242290049791336, 0.10507538169622421, 0.10772786289453506, 0.11038034409284592, 0.11303282529115677]}, "gradients/convolution.4.bias": {"_type": "histogram", "values": [1.0, 0.0, 0.0, 0.0, 0.0, 0.0, 0.0, 1.0, 0.0, 0.0, 1.0, 0.0, 0.0, 0.0, 0.0, 0.0, 0.0, 0.0, 0.0, 0.0, 0.0, 0.0, 0.0, 0.0, 0.0, 0.0, 0.0, 0.0, 0.0, 0.0, 0.0, 0.0, 0.0, 0.0, 1.0, 0.0, 0.0, 0.0, 0.0, 0.0, 0.0, 0.0, 0.0, 0.0, 0.0, 0.0, 0.0, 0.0, 0.0, 0.0, 0.0, 0.0, 0.0, 1.0, 0.0, 0.0, 0.0, 0.0, 1.0, 0.0, 0.0, 0.0, 0.0, 2.0], "bins": [-2.100132405757904e-07, -1.993939804378897e-07, -1.8877472029998899e-07, -1.7815546016208827e-07, -1.6753620002418756e-07, -1.5691693988628685e-07, -1.4629767974838614e-07, -1.3567841961048543e-07, -1.2505915947258472e-07, -1.1443989933468401e-07, -1.038206391967833e-07, -9.32013790588826e-08, -8.258211892098188e-08, -7.196285878308117e-08, -6.134359864518046e-08, -5.0724338507279754e-08, -4.0105078369379044e-08, -2.9485818231478333e-08, -1.8866558093577623e-08, -8.247297955676913e-09, 2.371962182223797e-09, 1.2991222320124507e-08, 2.3610482458025217e-08, 3.422974259592593e-08, 4.484900273382664e-08, 5.546826287172735e-08, 6.608752300962806e-08, 7.670678314752877e-08, 8.732604328542948e-08, 9.794530342333019e-08, 1.085645635612309e-07, 1.1918382369913161e-07, 1.2980308383703232e-07, 1.4042234397493303e-07, 1.5104160411283374e-07, 1.6166086425073445e-07, 1.7228012438863516e-07, 1.8289938452653587e-07, 1.9351864466443658e-07, 2.041379048023373e-07, 2.14757164940238e-07, 2.253764250781387e-07, 2.3599568521603942e-07, 2.4661494535394013e-07, 2.5723420549184084e-07, 2.6785346562974155e-07, 2.7847272576764226e-07, 2.8909198590554297e-07, 2.997112460434437e-07, 3.103305061813444e-07, 3.209497663192451e-07, 3.315690264571458e-07, 3.421882865950465e-07, 3.5280754673294723e-07, 3.6342680687084794e-07, 3.7404606700874865e-07, 3.8466532714664936e-07, 3.9528458728455007e-07, 4.059038474224508e-07, 4.165231075603515e-07, 4.271423676982522e-07, 4.377616278361529e-07, 4.483808879740536e-07, 4.5900014811195433e-07, 4.6961940824985504e-07]}, "gradients/convolution.1.weight": {"_type": "histogram", "values": [1.0, 1.0, 0.0, 0.0, 1.0, 0.0, 0.0, 0.0, 0.0, 0.0, 0.0, 0.0, 0.0, 0.0, 0.0, 0.0, 0.0, 0.0, 0.0, 0.0, 0.0, 0.0, 0.0, 0.0, 0.0, 0.0, 0.0, 0.0, 0.0, 0.0, 0.0, 0.0, 0.0, 0.0, 0.0, 0.0, 0.0, 0.0, 0.0, 0.0, 0.0, 0.0, 0.0, 0.0, 0.0, 0.0, 0.0, 0.0, 0.0, 0.0, 0.0, 0.0, 0.0, 0.0, 0.0, 0.0, 0.0, 0.0, 0.0, 0.0, 0.0, 0.0, 0.0, 1.0], "bins": [-0.020082302391529083, -0.01893419772386551, -0.017786093056201935, -0.01663798838853836, -0.015489882789552212, -0.014341778121888638, -0.013193672522902489, -0.012045567855238914, -0.01089746318757534, -0.009749358519911766, -0.008601253852248192, -0.007453148253262043, -0.006305043585598469, -0.0051569389179348946, -0.004008833784610033, -0.0028607286512851715, -0.0017126239836215973, -0.0005645190831273794, 0.0005835858173668385, 0.0017316907178610563, 0.002879795618355274, 0.004027900286018848, 0.00517600541934371, 0.0063241105526685715, 0.007472215220332146, 0.00862031988799572, 0.009768424555659294, 0.010916530154645443, 0.012064634822309017, 0.013212739489972591, 0.01436084508895874, 0.015508949756622314, 0.01665705442428589, 0.017805159091949463, 0.018953263759613037, 0.02010136842727661, 0.021249473094940186, 0.02239757776260376, 0.023545684292912483, 0.024693788960576057, 0.02584189362823963, 0.026989998295903206, 0.02813810296356678, 0.029286207631230354, 0.030434314161539078, 0.03158241882920265, 0.032730523496866226, 0.0338786281645298, 0.035026732832193375, 0.03617483749985695, 0.03732294216752052, 0.0384710468351841, 0.03961915150284767, 0.040767256170511246, 0.04191536083817482, 0.04306346923112869, 0.04421157389879227, 0.04535967856645584, 0.046507783234119415, 0.04765588790178299, 0.048803992569446564, 0.04995209723711014, 0.05110020190477371, 0.052248306572437286, 0.05339641124010086]}, "gradients/convolution.1.bias": {"_type": "histogram", "values": [1.0, 0.0, 0.0, 0.0, 0.0, 0.0, 0.0, 0.0, 0.0, 0.0, 0.0, 0.0, 0.0, 0.0, 0.0, 0.0, 0.0, 0.0, 0.0, 0.0, 0.0, 0.0, 0.0, 0.0, 0.0, 0.0, 0.0, 0.0, 0.0, 0.0, 1.0, 0.0, 0.0, 0.0, 0.0, 0.0, 0.0, 0.0, 0.0, 0.0, 0.0, 0.0, 0.0, 0.0, 0.0, 0.0, 0.0, 0.0, 0.0, 0.0, 1.0, 0.0, 0.0, 0.0, 0.0, 0.0, 0.0, 0.0, 0.0, 0.0, 0.0, 0.0, 0.0, 1.0], "bins": [-0.02532098814845085, -0.024665556848049164, -0.024010123685002327, -0.02335469238460064, -0.022699259221553802, -0.022043827921152115, -0.021388396620750427, -0.02073296532034874, -0.020077532157301903, -0.019422100856900215, -0.01876666769385338, -0.01811123639345169, -0.017455805093050003, -0.016800371930003166, -0.01614494062960148, -0.015489508397877216, -0.014834076166152954, -0.014178643934428692, -0.01352321170270443, -0.012867780402302742, -0.01221234817057848, -0.011556915938854218, -0.01090148463845253, -0.010246052406728268, -0.009590620175004005, -0.008935187943279743, -0.008279755711555481, -0.007624324411153793, -0.006968892179429531, -0.006313459947705269, -0.005658028181642294, -0.005002596415579319, -0.0043471623212099075, -0.003691730322316289, -0.0030362983234226704, -0.0023808663245290518, -0.0017254343256354332, -0.0010700023267418146, -0.00041457032784819603, 0.0002408614382147789, 0.0008962936699390411, 0.0015517256688326597, 0.0022071576677262783, 0.002862589666619897, 0.0035180216655135155, 0.004173453897237778, 0.004828885663300753, 0.005484317429363728, 0.00613974966108799, 0.006795181892812252, 0.007450613658875227, 0.008106045424938202, 0.008761477656662464, 0.009416909888386726, 0.010072341188788414, 0.010727773420512676, 0.011383205652236938, 0.0120386378839612, 0.012694070115685463, 0.01334950141608715, 0.014004933647811413, 0.014660365879535675, 0.015315797179937363, 0.01597122848033905, 0.016626661643385887]}, "gradients/convolution.0.weight": {"_type": "histogram", "values": [1.0, 0.0, 0.0, 0.0, 0.0, 0.0, 0.0, 0.0, 0.0, 0.0, 0.0, 0.0, 0.0, 0.0, 0.0, 0.0, 0.0, 0.0, 0.0, 0.0, 0.0, 0.0, 0.0, 0.0, 0.0, 0.0, 1.0, 0.0, 0.0, 0.0, 0.0, 1.0, 0.0, 1.0, 0.0, 1.0, 1.0, 2.0, 0.0, 3.0, 2.0, 3.0, 3.0, 1.0, 2.0, 1.0, 2.0, 2.0, 1.0, 1.0, 1.0, 1.0, 0.0, 1.0, 1.0, 1.0, 0.0, 0.0, 0.0, 0.0, 0.0, 0.0, 0.0, 2.0], "bins": [-0.153494730591774, -0.15007896721363068, -0.14666320383548737, -0.14324744045734406, -0.13983169198036194, -0.13641592860221863, -0.13300016522407532, -0.129584401845932, -0.1261686384677887, -0.12275287508964539, -0.11933711171150208, -0.11592135578393936, -0.11250559240579605, -0.10908982902765274, -0.10567407310009003, -0.10225830972194672, -0.0988425463438034, -0.0954267829656601, -0.09201101958751678, -0.08859526365995407, -0.08517950028181076, -0.08176373690366745, -0.07834798097610474, -0.07493221759796143, -0.07151645421981812, -0.0681006908416748, -0.0646849274635315, -0.06126917153596878, -0.05785340815782547, -0.05443764477968216, -0.05102188512682915, -0.047606125473976135, -0.04419035464525223, -0.04077459126710892, -0.037358831614255905, -0.03394307196140289, -0.030527308583259583, -0.02711154706776142, -0.02369578555226326, -0.0202800240367651, -0.016864262521266937, -0.013448501005768776, -0.010032739490270615, -0.006616977974772453, -0.003201216459274292, 0.00021454505622386932, 0.0036303065717220306, 0.007046068087220192, 0.010461829602718353, 0.013877591118216515, 0.017293352633714676, 0.020709114149212837, 0.024124875664711, 0.02754063718020916, 0.03095639869570732, 0.03437215834856033, 0.037787921726703644, 0.041203685104846954, 0.044619444757699966, 0.04803520441055298, 0.05145096778869629, 0.0548667311668396, 0.05828249081969261, 0.061698250472545624, 0.06511401385068893]}, "gradients/convolution.0.bias": {"_type": "histogram", "values": [1.0, 1.0, 0.0, 0.0, 0.0, 0.0, 0.0, 1.0, 0.0, 0.0, 0.0, 0.0, 0.0, 0.0, 0.0, 0.0, 0.0, 0.0, 0.0, 0.0, 0.0, 0.0, 0.0, 0.0, 0.0, 0.0, 0.0, 0.0, 0.0, 0.0, 0.0, 0.0, 0.0, 0.0, 0.0, 0.0, 0.0, 0.0, 0.0, 0.0, 0.0, 0.0, 0.0, 0.0, 0.0, 0.0, 0.0, 0.0, 0.0, 0.0, 0.0, 0.0, 0.0, 0.0, 0.0, 0.0, 0.0, 0.0, 0.0, 0.0, 0.0, 0.0, 0.0, 1.0], "bins": [-1.3243407011032104e-06, 3.231398295611143e-07, 1.970620360225439e-06, 3.618100890889764e-06, 5.265581421554089e-06, 6.913061952218413e-06, 8.560542482882738e-06, 1.0208023013547063e-05, 1.1855503544211388e-05, 1.3502984074875712e-05, 1.5150464605540037e-05, 1.6797945136204362e-05, 1.8445425666868687e-05, 2.009290619753301e-05, 2.1740386728197336e-05, 2.338786725886166e-05, 2.5035347789525986e-05, 2.668282832019031e-05, 2.8330308850854635e-05, 2.997778938151896e-05, 3.1625269912183285e-05, 3.327275044284761e-05, 3.4920230973511934e-05, 3.656771150417626e-05, 3.8215192034840584e-05, 3.986267256550491e-05, 4.151015309616923e-05, 4.315763362683356e-05, 4.480511415749788e-05, 4.645259468816221e-05, 4.810007521882653e-05, 4.974755574949086e-05, 5.139503628015518e-05, 5.304251681081951e-05, 5.468999734148383e-05, 5.6337477872148156e-05, 5.798495840281248e-05, 5.9632438933476806e-05, 6.127991946414113e-05, 6.292739999480546e-05, 6.457488052546978e-05, 6.62223610561341e-05, 6.786984158679843e-05, 6.951732211746275e-05, 7.116480264812708e-05, 7.28122831787914e-05, 7.445976370945573e-05, 7.610724424012005e-05, 7.775472477078438e-05, 7.94022053014487e-05, 8.104968583211303e-05, 8.269716636277735e-05, 8.434464689344168e-05, 8.5992127424106e-05, 8.763960795477033e-05, 8.928708848543465e-05, 9.093456901609898e-05, 9.25820495467633e-05, 9.422953007742763e-05, 9.587701060809195e-05, 9.752449113875628e-05, 9.91719716694206e-05, 0.00010081945220008492, 0.00010246693273074925, 0.00010411441326141357]}, "MNIST_prediction": {"_type": "table-file", "path": "media/table/MNIST_prediction_5_af3806d9a1b676347b31.table.json", "sha256": "af3806d9a1b676347b31fe6e88d0f68fa9e05c7461a80232f512fb7d9a381b6a", "size": 5495, "artifact_path": "wandb-client-artifact://1176ahipud23rsbjomebi05ieohod4411tolj0rvkptlp7lalvdrfik2l4tbnlnnjpxcuvr0tx751fmvk9zhcv6r64x0qi20lv64h8tqzlwpwwyeat9de43radoi17bh:latest/MNIST_prediction.table.json", "_latest_artifact_path": "wandb-client-artifact://1176ahipud23rsbjomebi05ieohod4411tolj0rvkptlp7lalvdrfik2l4tbnlnnjpxcuvr0tx751fmvk9zhcv6r64x0qi20lv64h8tqzlwpwwyeat9de43radoi17bh:latest/MNIST_prediction.table.json", "ncols": 3, "nrows": 320}, "_wandb": {"runtime": 14}}