{"loss": 0.15196473896503448, "_runtime": 26, "_timestamp": 1641744851, "_step": 9, "gradients/linear.3.bias": {"_type": "histogram", "values": [1.0, 0.0, 0.0, 0.0, 0.0, 0.0, 0.0, 0.0, 0.0, 0.0, 0.0, 0.0, 0.0, 0.0, 0.0, 0.0, 0.0, 0.0, 1.0, 0.0, 0.0, 0.0, 0.0, 1.0, 0.0, 1.0, 0.0, 0.0, 0.0, 0.0, 0.0, 1.0, 0.0, 1.0, 0.0, 0.0, 0.0, 1.0, 0.0, 0.0, 0.0, 0.0, 0.0, 0.0, 0.0, 0.0, 0.0, 0.0, 0.0, 0.0, 0.0, 1.0, 0.0, 0.0, 0.0, 0.0, 1.0, 0.0, 0.0, 0.0, 0.0, 0.0, 0.0, 1.0], "bins": [-0.01105477660894394, -0.01073252223432064, -0.010410266928374767, -0.010088012553751469, -0.00976575817912817, -0.009443502873182297, -0.009121248498558998, -0.0087989941239357, -0.008476738817989826, -0.008154484443366528, -0.007832229137420654, -0.007509974762797356, -0.00718771992251277, -0.006865465082228184, -0.006543210707604885, -0.006220955867320299, -0.0058987014926970005, -0.0055764466524124146, -0.005254192277789116, -0.00493193743750453, -0.004609682597219944, -0.004287428222596645, -0.003965173382312059, -0.0036429185420274734, -0.003320664167404175, -0.0029984095599502325, -0.0026761547196656466, -0.0023539001122117043, -0.0020316452719271183, -0.001709390664473176, -0.0013871360570192337, -0.0010648812167346478, -0.0007426263764500618, -0.00042037168168462813, -9.811698691919446e-05, 0.00022413767874240875, 0.0005463924026116729, 0.000868647126480937, 0.0011909017339348793, 0.0015131565742194653, 0.0018354114145040512, 0.0021576660219579935, 0.0024799208622425795, 0.0028021754696965218, 0.0031244303099811077, 0.00344668491743505, 0.0037689395248889923, 0.004091194365173578, 0.004413448739796877, 0.004735703580081463, 0.0050579579547047615, 0.0053802127949893475, 0.005702467635273933, 0.006024722009897232, 0.006346976850181818, 0.006669231690466404, 0.006991486065089703, 0.0073137409053742886, 0.007635995279997587, 0.007958250120282173, 0.008280504494905472, 0.008602759800851345, 0.008925014175474644, 0.009247269481420517, 0.009569523856043816]}, "gradients/linear.3.weight": {"_type": "histogram", "values": [1.0, 0.0, 0.0, 0.0, 0.0, 0.0, 0.0, 0.0, 0.0, 0.0, 0.0, 2.0, 0.0, 0.0, 0.0, 1.0, 1.0, 0.0, 1.0, 1.0, 1.0, 1.0, 5.0, 1.0, 2.0, 2.0, 2.0, 6.0, 5.0, 7.0, 5.0, 7.0, 5.0, 5.0, 7.0, 8.0, 11.0, 12.0, 18.0, 28.0, 297.0, 65.0, 23.0, 19.0, 23.0, 11.0, 11.0, 4.0, 6.0, 8.0, 5.0, 1.0, 4.0, 2.0, 4.0, 2.0, 2.0, 1.0, 0.0, 3.0, 0.0, 1.0, 1.0, 2.0], "bins": [-0.11870718002319336, -0.11575868725776672, -0.11281019449234009, -0.10986170172691345, -0.10691320896148682, -0.10396471619606018, -0.10101622343063354, -0.09806773066520691, -0.09511923789978027, -0.09217074513435364, -0.089222252368927, -0.08627375960350037, -0.08332526683807373, -0.0803767740726471, -0.07742828130722046, -0.07447978854179382, -0.07153129577636719, -0.06858280301094055, -0.06563431024551392, -0.06268581748008728, -0.059737324714660645, -0.05678883194923401, -0.05384033918380737, -0.05089184641838074, -0.0479433536529541, -0.044994860887527466, -0.04204636812210083, -0.039097875356674194, -0.03614938259124756, -0.03320088982582092, -0.030252397060394287, -0.02730390429496765, -0.024355411529541016, -0.02140691876411438, -0.018458425998687744, -0.015509933233261108, -0.012561440467834473, -0.009612947702407837, -0.006664454936981201, -0.0037159621715545654, -0.0007674694061279297, 0.002181023359298706, 0.005129516124725342, 0.008078008890151978, 0.011026501655578613, 0.013974994421005249, 0.016923487186431885, 0.01987197995185852, 0.022820472717285156, 0.025768965482711792, 0.028717458248138428, 0.031665951013565063, 0.0346144437789917, 0.037562936544418335, 0.04051142930984497, 0.043459922075271606, 0.04640841484069824, 0.04935690760612488, 0.052305400371551514, 0.05525389313697815, 0.058202385902404785, 0.06115087866783142, 0.06409937143325806, 0.06704786419868469, 0.06999635696411133]}, "gradients/linear.0.bias": {"_type": "histogram", "values": [1.0, 0.0, 0.0, 0.0, 0.0, 0.0, 0.0, 0.0, 0.0, 0.0, 0.0, 0.0, 1.0, 2.0, 0.0, 0.0, 0.0, 0.0, 1.0, 0.0, 0.0, 1.0, 1.0, 0.0, 0.0, 2.0, 2.0, 1.0, 0.0, 3.0, 1.0, 1.0, 4.0, 1.0, 0.0, 3.0, 14.0, 0.0, 4.0, 3.0, 1.0, 0.0, 1.0, 0.0, 0.0, 0.0, 0.0, 0.0, 2.0, 1.0, 1.0, 2.0, 0.0, 1.0, 0.0, 0.0, 0.0, 2.0, 2.0, 0.0, 1.0, 2.0, 1.0, 1.0], "bins": [-0.0072687845677137375, -0.007070932537317276, -0.0068730805069208145, -0.006675228476524353, -0.0064773764461278915, -0.00627952441573143, -0.006081672385334969, -0.005883820354938507, -0.005685968324542046, -0.005488116294145584, -0.005290264263749123, -0.005092412233352661, -0.0048945602029562, -0.004696708172559738, -0.004498856142163277, -0.004301004111766815, -0.004103152081370354, -0.003905300050973892, -0.0037074480205774307, -0.0035095959901809692, -0.0033117439597845078, -0.0031138919293880463, -0.0029160398989915848, -0.0027181878685951233, -0.002520336303859949, -0.0023224842734634876, -0.002124632243067026, -0.0019267802126705647, -0.0017289281822741032, -0.0015310762682929635, -0.001333224237896502, -0.0011353722075000405, -0.0009375200606882572, -0.0007396680302917957, -0.0005418159998953342, -0.00034396402770653367, -0.00014611199731007218, 5.173997487872839e-05, 0.0002495920052751899, 0.00044744403567165136, 0.0006452961824834347, 0.0008431482128798962, 0.0010410002432763577, 0.0012388522736728191, 0.0014367043040692806, 0.0016345562180504203, 0.0018324082484468818, 0.002030260395258665, 0.002228112192824483, 0.0024259642232209444, 0.002623816253617406, 0.0028216682840138674, 0.003019520314410329, 0.0032173721119761467, 0.003415224142372608, 0.0036130761727690697, 0.003810928203165531, 0.004008780233561993, 0.004206632263958454, 0.004404484294354916, 0.004602336324751377, 0.004800188355147839, 0.0049980403855443, 0.0051958924159407616, 0.005393744446337223]}, "gradients/linear.0.weight": {"_type": "histogram", "values": [2.0, 2.0, 0.0, 3.0, 3.0, 2.0, 4.0, 4.0, 3.0, 9.0, 4.0, 4.0, 10.0, 12.0, 17.0, 14.0, 33.0, 36.0, 44.0, 51.0, 52.0, 86.0, 102.0, 130.0, 200.0, 298.0, 393.0, 580.0, 812.0, 1360.0, 3339.0, 12787.0, 1279.0, 755.0, 505.0, 367.0, 300.0, 228.0, 241.0, 185.0, 120.0, 143.0, 114.0, 83.0, 61.0, 51.0, 51.0, 37.0, 41.0, 26.0, 16.0, 17.0, 22.0, 14.0, 13.0, 5.0, 5.0, 2.0, 4.0, 1.0, 0.0, 0.0, 4.0, 2.0], "bins": [-0.037970349192619324, -0.03675389289855957, -0.03553743287920952, -0.034320976585149765, -0.03310451656579971, -0.03188806027173996, -0.030671603977680206, -0.029455145820975304, -0.0282386876642704, -0.0270222295075655, -0.025805771350860596, -0.024589315056800842, -0.02337285690009594, -0.022156398743391037, -0.020939942449331284, -0.01972348429262638, -0.01850702613592148, -0.017290567979216576, -0.016074109822511673, -0.01485765352845192, -0.013641195371747017, -0.012424737215042114, -0.011208279989659786, -0.009991822764277458, -0.008775364607572556, -0.00755890691652894, -0.006342449225485325, -0.0051259915344417095, -0.003909533843398094, -0.002693076152354479, -0.0014766184613108635, -0.00026016123592853546, 0.0009562969207763672, 0.0021727546118199825, 0.003389212302863598, 0.004605669993907213, 0.0058221276849508286, 0.007038585375994444, 0.00825504306703806, 0.009471500292420387, 0.01068795844912529, 0.011904416605830193, 0.01312087383121252, 0.014337331056594849, 0.015553789213299751, 0.016770247370004654, 0.017986703664064407, 0.01920316182076931, 0.020419619977474213, 0.021636078134179115, 0.022852536290884018, 0.02406899258494377, 0.025285450741648674, 0.026501908898353577, 0.02771836519241333, 0.028934823349118233, 0.030151281505823135, 0.03136773779988289, 0.03258419781923294, 0.033800654113292694, 0.03501711040735245, 0.0362335704267025, 0.03745002672076225, 0.038666486740112305, 0.03988294303417206]}, "gradients/convolution.5.weight": {"_type": "histogram", "values": [1.0, 0.0, 0.0, 0.0, 0.0, 0.0, 0.0, 1.0, 0.0, 0.0, 0.0, 0.0, 0.0, 0.0, 0.0, 0.0, 0.0, 0.0, 0.0, 0.0, 0.0, 0.0, 0.0, 0.0, 2.0, 0.0, 0.0, 0.0, 0.0, 0.0, 0.0, 0.0, 0.0, 0.0, 0.0, 0.0, 0.0, 0.0, 0.0, 0.0, 0.0, 0.0, 0.0, 1.0, 0.0, 0.0, 0.0, 0.0, 0.0, 0.0, 1.0, 0.0, 0.0, 0.0, 0.0, 0.0, 0.0, 0.0, 0.0, 0.0, 0.0, 0.0, 1.0, 1.0], "bins": [-0.021862490102648735, -0.021497275680303574, -0.021132061257958412, -0.02076684683561325, -0.02040163055062294, -0.02003641612827778, -0.019671201705932617, -0.019305987283587456, -0.018940772861242294, -0.018575558438897133, -0.01821034401655197, -0.01784512959420681, -0.0174799133092165, -0.017114698886871338, -0.016749484464526176, -0.016384270042181015, -0.016019055619835854, -0.015653841197490692, -0.015288625843822956, -0.014923411421477795, -0.014558196999132633, -0.014192982576787472, -0.013827767223119736, -0.013462552800774574, -0.013097337447106838, -0.012732123024761677, -0.01236690767109394, -0.01200169324874878, -0.011636478826403618, -0.011271264404058456, -0.01090604905039072, -0.010540834628045559, -0.010175620205700397, -0.009810405783355236, -0.0094451904296875, -0.009079976007342339, -0.008714761584997177, -0.008349547162652016, -0.00798433180898428, -0.007619117386639118, -0.007253902964293957, -0.006888688076287508, -0.006523473653942347, -0.006158258765935898, -0.005793044343590736, -0.005427829455584288, -0.005062614567577839, -0.0046974001452326775, -0.004332185257226229, -0.00396697036921978, -0.0036017559468746185, -0.00323654105886817, -0.0028713266365230083, -0.0025061117485165596, -0.0021408970933407545, -0.0017756824381649494, -0.0014104678994044662, -0.001045253244228661, -0.0006800385308451951, -0.00031482381746172905, 5.039083771407604e-05, 0.00041560549288988113, 0.000780820264481008, 0.0011460349196568131, 0.0015112495748326182]}, "gradients/convolution.5.bias": {"_type": "histogram", "values": [1.0, 0.0, 0.0, 0.0, 0.0, 0.0, 0.0, 0.0, 1.0, 0.0, 0.0, 1.0, 0.0, 0.0, 0.0, 0.0, 0.0, 0.0, 0.0, 0.0, 1.0, 0.0, 0.0, 0.0, 0.0, 0.0, 0.0, 0.0, 0.0, 0.0, 0.0, 0.0, 0.0, 0.0, 0.0, 0.0, 0.0, 0.0, 0.0, 0.0, 0.0, 0.0, 0.0, 0.0, 1.0, 0.0, 0.0, 1.0, 0.0, 0.0, 0.0, 0.0, 0.0, 1.0, 0.0, 0.0, 0.0, 0.0, 0.0, 0.0, 0.0, 0.0, 0.0, 1.0], "bins": [-0.009252731688320637, -0.008935987018048763, -0.008619241416454315, -0.008302496746182442, -0.007985752075910568, -0.0076690069399774075, -0.007352261804044247, -0.007035517133772373, -0.006718771997839212, -0.006402026861906052, -0.006085282191634178, -0.005768537055701017, -0.005451791919767857, -0.005135047249495983, -0.004818302113562822, -0.0045015569776296616, -0.004184812307357788, -0.003868067404255271, -0.003551322501152754, -0.003234577365219593, -0.002917832462117076, -0.002601087559014559, -0.002284342423081398, -0.001967597519978881, -0.0016508526168763638, -0.0013341077137738466, -0.0010173626942560077, -0.0007006177329458296, -0.0003838727716356516, -6.712786853313446e-05, 0.0002496171509847045, 0.0005663621705025434, 0.0008831080049276352, 0.0011998529080301523, 0.0015165979275479913, 0.0018333429470658302, 0.0021500878501683474, 0.0024668327532708645, 0.0027835778892040253, 0.0031003227923065424, 0.0034170676954090595, 0.0037338125985115767, 0.004050557501614094, 0.0043673026375472546, 0.004684047773480415, 0.005000792443752289, 0.00531753757968545, 0.00563428271561861, 0.005951027385890484, 0.006267772521823645, 0.006584517192095518, 0.006901262328028679, 0.007218006998300552, 0.007534752134233713, 0.007851497270166874, 0.008168241940438747, 0.008484987542033195, 0.008801732212305069, 0.009118477813899517, 0.00943522248417139, 0.009751967154443264, 0.010068712756037712, 0.010385457426309586, 0.010702202096581459, 0.011018946766853333]}, "gradients/convolution.4.weight": {"_type": "histogram", "values": [2.0, 0.0, 1.0, 0.0, 0.0, 1.0, 0.0, 1.0, 0.0, 0.0, 2.0, 4.0, 0.0, 1.0, 3.0, 6.0, 2.0, 3.0, 5.0, 4.0, 2.0, 9.0, 9.0, 7.0, 10.0, 12.0, 12.0, 13.0, 18.0, 12.0, 22.0, 17.0, 13.0, 14.0, 13.0, 6.0, 7.0, 10.0, 7.0, 7.0, 6.0, 3.0, 3.0, 5.0, 3.0, 1.0, 1.0, 3.0, 1.0, 2.0, 1.0, 0.0, 0.0, 1.0, 0.0, 1.0, 0.0, 0.0, 0.0, 1.0, 0.0, 0.0, 0.0, 1.0], "bins": [-0.10588152706623077, -0.10237337648868561, -0.09886522591114044, -0.09535707533359528, -0.09184892475605011, -0.08834077417850494, -0.08483263105154037, -0.08132448047399521, -0.07781632989645004, -0.07430817931890488, -0.07080002874135971, -0.06729187816381454, -0.06378373503684998, -0.06027558073401451, -0.056767433881759644, -0.05325928330421448, -0.04975113272666931, -0.046242982149124146, -0.04273483157157898, -0.03922668471932411, -0.035718534141778946, -0.03221038356423378, -0.028702234849333763, -0.025194086134433746, -0.02168593555688858, -0.018177784979343414, -0.014669636264443398, -0.011161486618220806, -0.007653336971998215, -0.004145186394453049, -0.0006370376795530319, 0.002871111035346985, 0.006379261612892151, 0.009887411259114742, 0.013395560905337334, 0.01690370962023735, 0.020411860197782516, 0.023920010775327682, 0.0274281594902277, 0.030936308205127716, 0.03444445878267288, 0.03795260936021805, 0.041460759937763214, 0.04496890679001808, 0.04847705736756325, 0.051985207945108414, 0.05549335479736328, 0.05900150537490845, 0.06250965595245361, 0.06601780652999878, 0.06952595710754395, 0.07303410768508911, 0.07654225826263428, 0.08005040884017944, 0.08355855196714401, 0.08706670254468918, 0.09057485312223434, 0.09408300369977951, 0.09759115427732468, 0.10109930485486984, 0.10460744798183441, 0.10811559855937958, 0.11162374913692474, 0.11513189971446991, 0.11864005029201508]}, "gradients/convolution.4.bias": {"_type": "histogram", "values": [1.0, 0.0, 0.0, 0.0, 0.0, 1.0, 0.0, 0.0, 0.0, 0.0, 0.0, 0.0, 1.0, 0.0, 0.0, 0.0, 0.0, 0.0, 0.0, 0.0, 0.0, 0.0, 1.0, 0.0, 0.0, 0.0, 0.0, 1.0, 0.0, 0.0, 1.0, 0.0, 0.0, 0.0, 0.0, 0.0, 0.0, 0.0, 0.0, 0.0, 0.0, 0.0, 0.0, 0.0, 0.0, 0.0, 0.0, 0.0, 0.0, 1.0, 0.0, 0.0, 0.0, 0.0, 0.0, 0.0, 0.0, 0.0, 0.0, 0.0, 0.0, 0.0, 0.0, 1.0], "bins": [-3.2782554626464844e-07, -3.1231320463120937e-07, -2.968008629977703e-07, -2.8128852136433125e-07, -2.657761797308922e-07, -2.502638380974531e-07, -2.3475149646401405e-07, -2.19239154830575e-07, -2.0372681319713593e-07, -1.8821447156369686e-07, -1.727021299302578e-07, -1.5718978829681873e-07, -1.4167744666337967e-07, -1.261651050299406e-07, -1.1065276339650154e-07, -9.514042176306248e-08, -7.962808012962341e-08, -6.411573849618435e-08, -4.8603396862745285e-08, -3.309105522930622e-08, -1.7578713595867157e-08, -2.066371962428093e-09, 1.3445969671010971e-08, 2.8958311304450035e-08, 4.44706529378891e-08, 5.998299457132816e-08, 7.549533620476723e-08, 9.100767783820629e-08, 1.0652001947164536e-07, 1.2203236110508442e-07, 1.3754470273852348e-07, 1.5305704437196255e-07, 1.685693860054016e-07, 1.8408172763884068e-07, 1.9959406927227974e-07, 2.151064109057188e-07, 2.3061875253915787e-07, 2.4613109417259693e-07, 2.61643435806036e-07, 2.7715577743947506e-07, 2.926681190729141e-07, 3.081804607063532e-07, 3.2369280233979225e-07, 3.392051439732313e-07, 3.547174856066704e-07, 3.7022982724010944e-07, 3.857421688735485e-07, 4.0125451050698757e-07, 4.1676685214042664e-07, 4.322791937738657e-07, 4.4779153540730476e-07, 4.6330387704074383e-07, 4.788162186741829e-07, 4.94328560307622e-07, 5.09840901941061e-07, 5.253532435745001e-07, 5.408655852079391e-07, 5.563779268413782e-07, 5.718902684748173e-07, 5.874026101082563e-07, 6.029149517416954e-07, 6.184272933751345e-07, 6.339396350085735e-07, 6.494519766420126e-07, 6.649643182754517e-07]}, "gradients/convolution.1.weight": {"_type": "histogram", "values": [1.0, 0.0, 0.0, 0.0, 0.0, 0.0, 0.0, 0.0, 0.0, 0.0, 0.0, 0.0, 0.0, 0.0, 0.0, 0.0, 0.0, 0.0, 0.0, 0.0, 0.0, 0.0, 0.0, 0.0, 0.0, 0.0, 0.0, 0.0, 0.0, 0.0, 0.0, 0.0, 0.0, 0.0, 0.0, 0.0, 0.0, 0.0, 0.0, 0.0, 0.0, 0.0, 0.0, 0.0, 0.0, 1.0, 1.0, 0.0, 0.0, 0.0, 0.0, 0.0, 0.0, 0.0, 0.0, 0.0, 0.0, 0.0, 0.0, 0.0, 0.0, 0.0, 0.0, 1.0], "bins": [-0.028099307790398598, -0.027388814836740494, -0.02667832002043724, -0.025967827066779137, -0.025257334113121033, -0.02454684115946293, -0.023836346343159676, -0.02312585338950157, -0.022415360435843468, -0.021704867482185364, -0.02099437266588211, -0.020283879712224007, -0.019573386758565903, -0.0188628938049078, -0.018152398988604546, -0.01744190603494644, -0.01673141121864319, -0.016020918264985085, -0.015310424380004406, -0.014599930495023727, -0.013889437541365623, -0.013178943656384945, -0.012468449771404266, -0.011757956817746162, -0.011047463864088058, -0.01033696997910738, -0.009626477025449276, -0.008915983140468597, -0.008205490186810493, -0.007494996301829815, -0.006784502882510424, -0.006074009463191032, -0.0053635165095329285, -0.004653023090213537, -0.003942529670894146, -0.003232036018744111, -0.00252154259942472, -0.0018110491801053286, -0.0011005555279552937, -0.0003900621086359024, 0.00032043084502220154, 0.0010309242643415928, 0.0017414178000763059, 0.002451911335811019, 0.00316240475513041, 0.0038728981744498014, 0.004583391826599836, 0.005293885245919228, 0.006004379130899906, 0.006714872550219297, 0.007425365969538689, 0.008135859854519367, 0.008846352808177471, 0.00955684669315815, 0.010267339646816254, 0.010977833531796932, 0.01168832741677761, 0.01239882130175829, 0.013109314255416393, 0.013819808140397072, 0.014530301094055176, 0.015240794979035854, 0.015951288864016533, 0.016661781817674637, 0.01737227477133274]}, "gradients/convolution.1.bias": {"_type": "histogram", "values": [1.0, 0.0, 0.0, 0.0, 0.0, 0.0, 0.0, 0.0, 0.0, 0.0, 0.0, 0.0, 1.0, 0.0, 0.0, 0.0, 0.0, 0.0, 0.0, 0.0, 0.0, 0.0, 0.0, 0.0, 0.0, 0.0, 0.0, 0.0, 0.0, 0.0, 0.0, 0.0, 0.0, 0.0, 0.0, 0.0, 1.0, 0.0, 0.0, 0.0, 0.0, 0.0, 0.0, 0.0, 0.0, 0.0, 0.0, 0.0, 0.0, 0.0, 0.0, 0.0, 0.0, 0.0, 0.0, 0.0, 0.0, 0.0, 0.0, 0.0, 0.0, 0.0, 0.0, 1.0], "bins": [-0.0052289413288235664, -0.005065523087978363, -0.00490210484713316, -0.004738686606287956, -0.00457526883110404, -0.004411850590258837, -0.004248432349413633, -0.00408501410856843, -0.003921596333384514, -0.0037581780925393105, -0.0035947600845247507, -0.0034313418436795473, -0.0032679238356649876, -0.003104505594819784, -0.0029410873539745808, -0.0027776691131293774, -0.002614250872284174, -0.0024508326314389706, -0.002287414623424411, -0.0021239963825792074, -0.0019605783745646477, -0.0017971601337194443, -0.0016337418928742409, -0.0014703237684443593, -0.001306905411183834, -0.0011434872867539525, -0.000980069162324071, -0.0008166509214788675, -0.000653232797048986, -0.0004898146726191044, -0.000326396431773901, -0.0001629783073440194, 4.400499165058136e-07, 0.00016385820345021784, 0.00032727635698392987, 0.0004906945396214724, 0.0006541126640513539, 0.0008175307884812355, 0.000980949029326439, 0.0011443671537563205, 0.0013077850453555584, 0.00147120316978544, 0.0016346212942153215, 0.001798039535060525, 0.0019614575430750847, 0.002124875783920288, 0.0022882940247654915, 0.002451712265610695, 0.0026151305064558983, 0.0027785487473011017, 0.0029419667553156614, 0.003105384996160865, 0.0032688030041754246, 0.003432221245020628, 0.0035956394858658314, 0.0037590577267110348, 0.003922475501894951, 0.004085893742740154, 0.004249311983585358, 0.004412730224430561, 0.004576147999614477, 0.0047395662404596806, 0.004902984481304884, 0.005066402722150087, 0.005229820962995291]}, "gradients/convolution.0.weight": {"_type": "histogram", "values": [1.0, 0.0, 0.0, 0.0, 0.0, 0.0, 0.0, 0.0, 0.0, 1.0, 0.0, 1.0, 2.0, 1.0, 0.0, 0.0, 0.0, 0.0, 0.0, 0.0, 0.0, 0.0, 1.0, 0.0, 4.0, 2.0, 0.0, 0.0, 0.0, 0.0, 0.0, 1.0, 1.0, 1.0, 0.0, 1.0, 2.0, 0.0, 1.0, 2.0, 3.0, 1.0, 1.0, 0.0, 0.0, 1.0, 1.0, 1.0, 1.0, 0.0, 1.0, 0.0, 0.0, 1.0, 0.0, 0.0, 0.0, 0.0, 1.0, 1.0, 0.0, 0.0, 0.0, 1.0], "bins": [-0.08552936464548111, -0.08344840258359909, -0.08136744052171707, -0.07928647845983505, -0.07720551639795303, -0.07512455433607101, -0.073043592274189, -0.07096263766288757, -0.06888167560100555, -0.06680071353912354, -0.06471975147724152, -0.0626387894153595, -0.06055782735347748, -0.05847686529159546, -0.05639590695500374, -0.05431494489312172, -0.0522339791059494, -0.05015301704406738, -0.048072054982185364, -0.045991092920303345, -0.043910130858421326, -0.04182916879653931, -0.039748210459947586, -0.03766724839806557, -0.03558628633618355, -0.03350532427430153, -0.03142436221241951, -0.02934340201318264, -0.02726243995130062, -0.025181477889418602, -0.023100517690181732, -0.021019555628299713, -0.01893860101699829, -0.016857638955116272, -0.014776677824556828, -0.012695716693997383, -0.010614754632115364, -0.008533792570233345, -0.006452831439673901, -0.004371870309114456, -0.002290908247232437, -0.0002099466510117054, 0.0018710149452090263, 0.003951976541429758, 0.00603293813765049, 0.008113900199532509, 0.010194861330091953, 0.012275822460651398, 0.014356784522533417, 0.016437746584415436, 0.018518708646297455, 0.020599668845534325, 0.022680630907416344, 0.024761592969298363, 0.026842553168535233, 0.02892351523041725, 0.03100447729229927, 0.03308543935418129, 0.03516640141606331, 0.03724736347794533, 0.03932832181453705, 0.04140928387641907, 0.043490245938301086, 0.045571208000183105, 0.047652170062065125]}, "gradients/convolution.0.bias": {"_type": "histogram", "values": [1.0, 0.0, 0.0, 0.0, 0.0, 0.0, 0.0, 0.0, 0.0, 0.0, 0.0, 0.0, 0.0, 0.0, 0.0, 0.0, 0.0, 0.0, 0.0, 0.0, 0.0, 0.0, 0.0, 0.0, 0.0, 0.0, 0.0, 0.0, 0.0, 0.0, 0.0, 0.0, 0.0, 0.0, 0.0, 0.0, 0.0, 0.0, 0.0, 0.0, 0.0, 0.0, 1.0, 0.0, 0.0, 0.0, 0.0, 0.0, 0.0, 0.0, 0.0, 0.0, 0.0, 0.0, 1.0, 0.0, 0.0, 0.0, 0.0, 0.0, 0.0, 0.0, 0.0, 1.0], "bins": [-2.532266080379486e-05, -2.5015586288645864e-05, -2.4708511773496866e-05, -2.440143725834787e-05, -2.409436274319887e-05, -2.3787288228049874e-05, -2.3480213712900877e-05, -2.317313919775188e-05, -2.2866064682602882e-05, -2.2558990167453885e-05, -2.2251915652304888e-05, -2.194484113715589e-05, -2.1637766622006893e-05, -2.1330692106857896e-05, -2.10236175917089e-05, -2.07165430765599e-05, -2.0409468561410904e-05, -2.0102394046261907e-05, -1.979531953111291e-05, -1.9488245015963912e-05, -1.9181170500814915e-05, -1.8874095985665917e-05, -1.856702147051692e-05, -1.8259946955367923e-05, -1.7952872440218925e-05, -1.7645797925069928e-05, -1.733872340992093e-05, -1.7031648894771934e-05, -1.6724574379622936e-05, -1.641749986447394e-05, -1.611042534932494e-05, -1.5803350834175944e-05, -1.5496276319026947e-05, -1.518920180387795e-05, -1.4882127288728952e-05, -1.4575052773579955e-05, -1.4267978258430958e-05, -1.396090374328196e-05, -1.3653829228132963e-05, -1.3346754712983966e-05, -1.3039680197834969e-05, -1.2732605682685971e-05, -1.2425531167536974e-05, -1.2118456652387977e-05, -1.181138213723898e-05, -1.1504307622089982e-05, -1.1197233106940985e-05, -1.0890158591791987e-05, -1.058308407664299e-05, -1.0276009561493993e-05, -9.968935046344995e-06, -9.661860531195998e-06, -9.354786016047001e-06, -9.047711500898004e-06, -8.740636985749006e-06, -8.433562470600009e-06, -8.126487955451012e-06, -7.819413440302014e-06, -7.512338925153017e-06, -7.20526441000402e-06, -6.8981898948550224e-06, -6.591115379706025e-06, -6.284040864557028e-06, -5.9769663494080305e-06, -5.669891834259033e-06]}, "_wandb": {"runtime": 24}}